svm_type c_svc
kernel_type linear
nr_class 5
total_sv 1113
rho 0.351254 -0.22398 -0.523224 -0.650292 -0.489656 -0.930729 -1.06851 -0.919063 -0.514986 0.0352029
label 3 5 4 1 2
nr_sv 212 254 246 196 205
SV
0.003502173536785437 0 0.00150787148917833 0.002208398950429402 1:1 9:1 20:1 32:1 42:1 47:1 56:1 64:1 69:1 75:1 97:3 101:3 103:1 104:1 112:1 125:1 142:2 159:1 170:2 188:1 207:1 208:1 222:1 229:1 243:1 244:2 254:1 255:2 264:1 269:1 270:1 278:1 281:2 286:1 288:1 294:1 307:1 327:1 331:1 334:1 338:2 341:1 347:2 353:1 357:1 361:1 366:1 392:6 398:1 409:4 412:2 421:2 424:1 425:1 444:1 453:1 461:1 478:1 489:1 524:1 535:1 544:1 561:1 568:2 577:1 588:1 593:1 599:1 612:2 630:1 635:1 652:1 653:1 658:1 663:1 671:1 672:1 699:2 726:6 732:1 736:1 738:1 763:1 782:1 789:1 875:1 893:1 903:1 905:1 922:1 949:1 966:1 971:3 973:3 977:1 979:2 990:2 1007:1 1030:1 1042:2 1050:1 1058:1 1100:1 1101:3 1112:1 1129:1 1130:1 1158:3 1172:2 1173:1 1181:1 1188:1 1191:2 1205:1 1216:1 1246:1 1325:1 1341:1 1343:1 1374:1 1383:1 1384:1 1391:1 1406:1 1407:1 1422:1 1426:1 1471:2 1492:1 1494:1 1498:2 1542:1 1562:1 1577:1 1584:2 1587:1 1609:1 1617:1 1646:1 1698:3 1753:1 1773:1 1788:1 1800:3 1811:1 1817:1 1862:1 1942:1 1988:3 2022:3 2027:1 2145:1 2161:1 2170:1 2178:1 2237:1 2247:1 2256:1 2292:1 2302:1 2326:1 2350:1 2362:1 2440:1 2443:1 2523:1 2549:2 2612:1 2656:1 2699:1 2705:1 2716:1 2752:1 2764:1 2771:1 2877:1 2906:1 2915:1 2918:1 
0 7.736730278135258e-05 0 0.001429058759852622 11:1 24:1 25:1 26:1 31:1 32:1 39:1 54:3 68:2 73:1 81:2 83:2 93:1 96:1 106:1 110:1 111:1 112:1 125:1 133:1 134:2 137:1 138:1 155:1 160:1 168:1 170:2 175:1 180:1 186:1 193:1 194:1 196:1 199:1 227:1 233:1 240:1 255:2 265:1 266:1 268:1 270:1 271:2 290:1 295:1 316:1 324:1 332:1 334:1 343:1 351:1 355:1 367:1 380:1 383:2 401:1 420:1 421:1 425:1 441:1 442:1 445:1 451:2 453:1 456:2 458:1 467:1 468:1 476:2 483:1 490:1 503:1 515:1 519:1 526:1 534:1 539:1 546:2 554:1 557:1 560:1 567:1 589:1 596:1 613:1 640:1 663:2 672:1 681:1 699:2 704:2 719:1 736:1 738:1 739:1 761:1 770:2 778:1 783:1 796:1 836:3 845:1 848:1 865:1 871:1 875:1 877:1 878:1 879:1 881:1 889:2 890:1 913:1 917:1 929:1 931:3 949:2 961:1 971:1 976:1 984:1 1013:1 1025:2 1030:2 1032:1 1041:1 1045:1 1050:1 1058:1 1060:2 1071:2 1095:1 1097:1 1101:1 1112:1 1114:1 1144:1 1149:2 1155:1 1159:1 1164:1 1181:1 1187:1 1191:1 1195:1 1224:1 1237:1 1239:1 1244:4 1281:1 1315:1 1319:1 1347:1 1355:1 1367:1 1372:1 1378:1 1380:1 1397:1 1430:1 1440:1 1461:1 1463:1 1474:1 1498:1 1502:1 1503:2 1513:1 1519:1 1522:1 1543:1 1591:1 1593:2 1611:1 1622:1 1637:1 1643:1 1646:1 1655:1 1658:2 1670:1 1671:1 1672:3 1680:1 1698:1 1704:1 1707:1 1711:1 1726:1 1734:1 1748:1 1753:1 1763:1 1767:1 1768:2 1774:1 1839:1 1884:1 1885:1 1917:1 1979:1 1994:1 2022:2 2058:1 2081:1 2138:2 2151:1 2161:1 2185:1 2229:1 2262:1 2316:2 2326:1 2335:1 2346:1 2389:1 2420:1 2425:1 2443:1 2480:1 2494:1 2498:1 2523:1 2532:1 2565:1 2571:1 2588:1 2656:1 2669:1 2710:1 2716:1 2737:1 2754:1 2767:1 2772:1 2775:1 2779:1 2804:1 2820:1 2848:1 2874:1 2893:1 2933:1 2935:1 2977:1 2986:1 
0.002551187975601407 3.485749080639551e-05 0 0 4:1 6:1 13:1 36:1 37:1 46:1 47:2 70:1 77:1 119:1 120:1 131:1 158:1 173:1 194:1 195:2 196:1 204:1 205:1 206:1 209:1 212:1 222:1 225:1 255:1 256:3 265:1 270:1 290:1 295:1 309:1 323:1 326:2 334:2 344:1 348:1 370:1 371:1 377:1 378:1 400:1 413:1 444:1 445:1 450:2 451:1 452:2 468:1 505:2 531:1 536:1 560:1 572:1 591:1 602:3 619:1 624:1 639:1 642:2 658:2 672:1 687:1 688:1 696:1 699:1 726:1 729:1 738:1 763:1 773:1 780:1 804:1 805:1 811:1 834:1 852:1 863:1 871:1 885:1 889:1 915:1 916:1 923:1 929:1 943:1 949:2 973:1 1003:1 1030:1 1043:1 1066:1 1085:1 1112:1 1151:1 1159:1 1224:1 1235:1 1243:1 1244:1 1322:1 1397:1 1405:1 1407:1 1426:1 1430:1 1442:1 1498:1 1544:1 1545:1 1554:1 1587:2 1593:1 1617:2 1631:1 1643:1 1644:1 1672:1 1697:1 1698:1 1705:1 1748:1 1822:1 1839:1 1850:1 1863:1 1883:1 1886:2 1909:1 1925:1 1972:1 1986:1 1987:1 1994:1 2004:2 2009:1 2029:1 2033:1 2040:1 2118:1 2138:2 2141:1 2161:2 2194:1 2204:1 2229:1 2252:1 2319:1 2331:1 2339:1 2352:1 2436:1 2451:1 2517:1 2549:2 2596:1 2639:1 2655:1 2687:1 2699:1 2874:1 2899:1 2915:1 2921:4 2922:1 2973:1 
0.01089070035980679 0.006129384230071235 0.007771445391849446 0.006277520666762124 14:1 17:1 24:1 25:1 29:1 47:3 54:2 64:1 92:1 94:1 105:1 119:1 128:1 133:1 134:1 139:1 141:1 158:1 160:1 170:1 194:1 207:1 208:1 233:1 255:1 265:1 280:1 283:1 300:1 319:1 332:1 340:1 341:1 343:1 368:1 377:1 394:1 400:1 409:2 426:1 444:3 453:1 468:1 509:1 517:1 539:1 546:2 553:1 560:1 631:1 648:1 687:1 699:1 726:1 778:1 789:1 811:1 836:1 843:1 848:2 878:1 913:1 929:1 961:1 973:1 979:2 1097:1 1101:2 1130:1 1138:2 1144:1 1149:1 1187:1 1289:1 1346:1 1374:1 1384:1 1426:1 1461:1 1522:1 1549:1 1562:1 1592:2 1644:1 1695:1 1698:1 1707:2 1813:1 1816:1 1820:1 1847:1 1884:1 1935:1 1942:1 1951:1 1954:2 1978:1 2036:1 2044:1 2058:1 2102:1 2162:1 2204:1 2233:1 2238:1 2239:1 2397:1 2517:1 2575:1 2662:1 2697:1 2705:1 2768:1 2771:1 
0 0 0 0.002098014766411524 7:1 8:2 19:1 24:3 35:1 37:1 42:1 48:1 50:2 64:1 67:2 68:1 69:2 70:1 73:1 77:1 94:4 98:1 99:1 103:1 104:1 120:1 128:1 131:1 133:1 134:1 138:2 140:2 143:1 154:1 156:1 161:1 164:1 168:1 171:1 177:1 179:2 188:1 194:3 195:1 198:1 205:1 216:1 221:1 222:2 235:2 236:1 239:1 243:3 245:1 249:1 251:1 252:1 257:1 265:1 267:1 269:1 270:1 278:1 281:2 283:2 284:1 285:1 286:3 287:1 290:2 293:1 295:1 297:1 306:1 309:1 314:1 315:1 319:1 331:1 334:1 344:1 349:1 352:1 354:1 355:2 361:1 366:1 368:1 380:1 382:2 388:1 393:1 394:1 396:2 399:1 400:1 419:1 426:1 429:1 438:1 441:3 442:1 447:1 449:1 452:2 453:1 456:2 465:2 468:1 470:1 478:1 481:1 482:1 484:2 487:2 488:2 495:1 502:1 504:1 505:1 511:1 516:1 517:1 519:1 535:1 536:1 546:1 549:1 550:1 551:1 553:1 558:1 564:1 565:1 568:1 600:1 606:2 617:1 619:1 625:1 627:1 631:1 633:1 637:1 641:1 660:1 665:2 669:1 675:2 678:1 684:1 688:1 689:1 693:1 695:1 699:1 705:1 708:1 711:1 715:1 724:1 736:2 739:1 744:2 745:3 747:1 761:4 773:1 782:1 784:2 793:1 796:1 798:1 799:2 805:1 834:1 836:1 844:3 848:1 849:1 852:2 873:1 874:2 877:2 881:1 882:1 883:1 887:4 891:1 904:1 906:2 912:2 913:2 916:1 923:1 924:1 930:1 931:1 933:1 934:1 943:1 948:1 952:1 957:1 961:1 963:1 966:1 968:1 979:4 984:1 1013:1 1018:1 1029:1 1032:1 1035:1 1043:1 1050:1 1060:1 1061:1 1062:1 1075:1 1082:1 1089:1 1097:1 1098:1 1112:2 1113:1 1123:1 1142:2 1143:1 1145:3 1148:1 1149:2 1153:3 1154:1 1155:1 1161:1 1162:1 1175:2 1181:2 1190:1 1191:1 1192:1 1210:1 1213:1 1227:1 1228:1 1230:1 1233:3 1245:1 1246:1 1255:1 1271:1 1275:1 1278:1 1281:1 1291:1 1307:1 1310:1 1314:1 1324:1 1331:1 1341:2 1347:1 1351:1 1355:1 1357:1 1368:1 1374:1 1378:1 1380:1 1384:2 1394:1 1401:1 1405:1 1409:1 1422:2 1426:1 1442:4 1451:2 1478:1 1481:1 1488:1 1497:1 1498:1 1499:1 1521:1 1543:2 1545:1 1579:1 1586:1 1587:1 1591:2 1594:1 1597:1 1607:1 1619:1 1622:1 1644:3 1646:1 1654:3 1665:1 1674:1 1683:1 1703:1 1705:1 1726:1 1734:1 1738:1 1742:1 1761:1 1778:1 1781:1 1791:1 1799:1 1800:1 1806:1 1812:1 1815:1 1816:1 1817:1 1822:1 1823:1 1834:1 1850:1 1880:2 1885:1 1886:1 1895:1 1916:1 1924:2 1936:1 1940:1 1941:1 1986:1 1993:1 1997:1 2013:1 2017:1 2022:1 2027:1 2040:1 2071:3 2072:1 2073:1 2081:1 2082:1 2083:1 2127:1 2138:1 2156:1 2158:1 2161:2 2162:1 2169:1 2170:1 2173:1 2183:1 2194:2 2202:1 2204:1 2213:1 2221:1 2229:1 2252:2 2258:2 2259:1 2278:1 2300:1 2302:1 2326:2 2331:1 2350:1 2373:1 2417:1 2421:1 2428:1 2469:2 2485:1 2508:1 2510:1 2517:2 2530:1 2548:2 2575:1 2586:1 2596:2 2603:1 2614:1 2636:1 2640:1 2646:1 2654:1 2663:1 2667:2 2676:1 2678:1 2688:1 2699:1 2705:3 2728:1 2733:1 2734:1 2738:1 2749:1 2760:1 2767:2 2768:1 2795:1 2801:2 2805:2 2814:1 2820:1 2821:1 2835:1 2852:1 2870:1 2897:2 2928:1 2929:1 2930:1 2935:1 2938:1 2955:2 2974:2 2977:1 2986:1 2998:1 
0 0 0 0.001244986151154037 4:1 7:3 10:1 17:1 18:1 20:1 27:1 30:1 33:2 35:3 37:1 39:2 42:1 44:1 48:1 62:1 64:1 68:1 73:1 74:1 79:1 83:1 84:1 91:1 93:2 95:1 96:1 99:1 103:1 105:1 110:1 112:1 120:1 125:1 133:1 134:1 136:1 137:1 138:2 151:1 152:1 154:1 164:1 170:3 174:1 177:1 182:1 183:1 188:1 191:3 194:2 195:2 196:1 197:1 199:4 205:1 206:3 213:1 217:1 226:2 228:1 233:1 235:2 236:1 242:1 253:1 254:1 256:1 258:1 265:1 270:1 271:1 277:1 281:1 284:2 289:1 290:2 294:1 295:1 297:1 305:1 306:1 311:1 316:1 319:2 334:1 342:1 344:1 346:2 347:1 348:2 349:2 355:1 358:1 370:2 379:1 380:1 381:1 382:2 385:1 388:2 394:3 397:1 400:2 401:1 410:1 419:1 449:1 452:2 453:1 456:3 458:1 464:1 467:1 468:1 469:1 470:1 482:2 483:1 487:1 488:1 492:1 495:2 503:1 507:1 511:2 515:3 519:1 529:1 531:1 535:2 536:1 538:1 546:1 548:1 549:1 553:1 554:1 557:2 559:1 565:1 568:1 569:1 570:1 571:2 593:1 615:1 617:1 619:1 627:1 644:1 648:1 658:1 666:1 669:1 674:1 688:1 689:1 705:1 710:1 713:1 719:1 729:2 736:1 742:1 743:1 745:1 763:1 765:1 773:1 782:1 789:1 793:1 795:1 800:1 804:3 806:1 827:2 830:1 834:2 840:5 845:1 848:1 854:1 860:2 873:1 875:2 879:1 881:1 883:1 891:1 892:1 899:2 906:2 918:1 920:2 924:1 929:3 943:1 949:1 952:2 962:1 966:1 972:1 977:2 984:1 989:1 998:2 1002:1 1007:3 1028:1 1030:1 1035:1 1058:1 1060:1 1066:2 1089:1 1093:3 1096:1 1103:2 1106:1 1107:1 1114:2 1115:1 1116:1 1129:2 1136:2 1144:1 1151:2 1156:1 1161:1 1162:2 1163:1 1168:1 1187:1 1191:1 1192:2 1193:1 1195:1 1204:1 1207:1 1209:1 1212:1 1213:1 1215:1 1216:1 1224:1 1230:1 1234:1 1237:1 1241:1 1243:1 1244:1 1254:1 1256:1 1267:1 1281:2 1285:1 1288:1 1289:1 1292:1 1302:1 1309:1 1310:1 1312:1 1314:1 1319:1 1331:1 1333:1 1339:1 1341:5 1346:1 1357:1 1388:1 1394:1 1396:1 1401:2 1405:2 1406:1 1409:1 1421:1 1424:1 1426:1 1431:1 1451:1 1461:1 1479:1 1499:1 1503:1 1554:1 1564:1 1568:1 1577:1 1588:2 1597:1 1611:1 1613:1 1617:1 1643:1 1647:1 1648:1 1654:1 1656:1 1674:2 1683:2 1694:4 1702:1 1705:1 1708:1 1726:1 1728:1 1730:2 1748:1 1768:1 1782:1 1787:1 1796:1 1799:1 1803:2 1822:1 1835:1 1850:3 1857:1 1862:1 1885:2 1898:1 1902:1 1920:1 1924:1 1925:1 1933:1 1942:1 1954:4 1967:1 1986:1 1993:2 1997:1 2027:1 2030:1 2051:1 2072:2 2075:1 2082:1 2094:1 2100:1 2120:1 2125:3 2127:1 2146:2 2151:1 2161:1 2175:1 2198:1 2202:1 2252:1 2268:1 2279:1 2326:2 2331:2 2334:2 2350:1 2370:1 2395:1 2407:1 2417:1 2420:2 2429:1 2437:1 2443:1 2454:1 2469:2 2473:1 2476:1 2479:2 2490:1 2535:1 2549:2 2561:2 2582:1 2586:1 2588:1 2596:1 2614:1 2639:1 2655:2 2657:1 2665:1 2679:1 2709:1 2710:1 2711:1 2718:1 2725:1 2728:1 2733:1 2734:1 2749:1 2758:2 2764:2 2768:2 2772:1 2793:1 2801:1 2812:1 2816:1 2821:1 2843:1 2850:1 2870:1 2906:1 2929:1 2933:1 2934:1 2935:1 2940:1 2987:1 
0 0 0 0.002557925097779475 7:1 8:1 11:3 26:1 29:1 33:1 35:2 39:1 66:1 70:1 73:2 77:2 83:3 86:1 87:1 101:1 102:1 104:3 115:1 119:1 120:1 133:1 144:1 159:1 167:1 171:1 183:1 192:1 193:1 208:2 216:1 217:2 228:3 243:1 249:1 256:1 258:1 268:1 279:1 295:1 297:1 304:1 306:1 331:1 348:1 349:1 351:1 363:1 366:2 367:1 378:3 379:1 380:2 382:2 383:1 385:2 389:1 403:2 410:2 420:1 427:1 428:1 441:2 442:1 460:1 484:3 488:1 494:2 497:1 498:1 505:6 524:1 531:2 542:1 546:1 549:1 550:1 551:2 559:2 565:1 596:1 617:1 625:1 626:1 630:1 631:1 632:1 639:1 648:1 680:1 706:1 709:1 729:1 741:1 750:1 771:2 773:1 782:3 792:1 799:2 806:1 818:1 822:1 827:1 829:1 840:1 850:1 851:1 870:1 877:1 879:1 885:1 890:1 899:1 903:1 905:1 917:1 943:1 952:2 961:1 962:2 978:3 987:1 1007:2 1021:1 1025:2 1071:1 1115:1 1136:1 1143:1 1151:1 1162:1 1168:1 1180:1 1191:1 1211:1 1224:1 1234:1 1235:1 1237:1 1243:1 1255:2 1260:1 1271:1 1316:1 1350:1 1378:1 1407:1 1408:1 1409:1 1413:1 1426:1 1430:1 1436:1 1437:1 1451:1 1517:1 1522:1 1523:2 1525:1 1542:1 1544:1 1564:2 1592:1 1600:1 1618:1 1622:1 1644:1 1645:1 1647:1 1649:1 1654:3 1683:1 1685:1 1690:1 1698:1 1709:1 1730:1 1742:1 1789:1 1800:1 1805:1 1816:1 1848:1 1859:1 1869:1 1879:1 1882:1 1916:1 1921:1 1922:1 1931:2 1954:2 1959:1 1978:2 2004:1 2058:1 2073:1 2113:1 2151:1 2161:2 2170:1 2179:1 2183:1 2185:1 2202:1 2292:1 2310:1 2331:2 2333:2 2350:1 2397:1 2442:1 2518:1 2530:2 2549:3 2571:1 2706:1 2710:1 2767:1 2772:2 2779:1 2800:1 2808:1 2811:1 2814:1 2821:1 2837:1 2847:1 2860:1 2868:1 2878:1 2884:1 2895:1 2907:1 2921:1 2922:2 2937:2 2938:1 2939:2 
0 0.001059601109039125 0 0.002375701134227807 8:1 10:1 11:1 24:2 29:1 32:1 66:2 78:2 79:1 82:1 83:2 87:1 97:1 99:1 103:1 104:1 116:1 120:1 134:1 144:1 160:3 170:1 182:1 187:1 188:1 194:1 212:1 289:1 295:2 307:2 318:1 320:1 326:1 334:1 354:1 359:1 375:1 394:1 424:1 429:1 451:1 485:1 487:1 505:3 509:2 516:1 539:1 541:2 549:1 550:1 561:1 565:1 566:1 572:1 602:1 603:2 626:2 658:1 688:2 708:1 717:1 729:1 761:2 778:3 796:1 805:1 843:1 848:1 849:1 878:1 887:1 891:1 918:1 929:1 948:1 973:1 981:1 984:1 992:1 1003:1 1030:1 1032:1 1035:2 1042:1 1053:1 1067:1 1112:1 1130:1 1136:1 1138:1 1145:1 1168:1 1187:1 1191:1 1204:2 1227:1 1231:1 1271:2 1278:1 1281:1 1378:2 1382:1 1388:1 1396:1 1402:1 1442:1 1443:1 1451:1 1474:1 1477:1 1499:1 1518:1 1554:1 1556:2 1579:1 1607:1 1616:1 1617:1 1637:1 1658:1 1683:1 1758:1 1781:1 1787:1 1812:1 1839:1 1859:1 1993:1 2024:1 2047:1 2083:1 2116:1 2151:1 2233:1 2310:1 2331:1 2344:1 2360:1 2417:1 2469:1 2526:1 2535:1 2616:1 2706:1 2712:1 2721:1 2793:1 2799:1 2821:1 2921:4 2936:1 
0.001681076296100985 0.001124256973338517 0.0001644885169760779 0.003429966164660294 2:1 4:1 8:1 11:1 20:1 25:1 38:1 42:1 43:1 45:1 47:2 54:1 62:1 66:3 68:1 74:1 75:1 77:1 79:1 83:1 90:1 94:1 95:1 102:3 103:1 105:2 107:1 128:1 131:1 132:1 134:1 135:1 137:1 141:1 146:1 155:1 156:1 157:1 161:1 171:1 175:1 178:1 185:1 193:1 194:1 199:1 209:2 218:1 224:2 236:1 239:1 244:1 252:1 253:1 255:1 256:1 264:1 265:1 266:1 270:1 271:1 276:1 285:1 288:1 300:1 301:1 310:1 315:1 319:1 324:1 326:2 331:1 333:1 334:1 337:1 344:1 347:1 349:1 355:1 358:1 359:1 366:1 368:2 380:1 388:1 391:1 392:1 393:1 398:1 401:1 406:1 409:1 418:1 424:1 441:1 444:3 445:1 452:1 453:1 457:1 459:1 461:1 468:1 482:1 489:1 501:2 503:1 504:1 512:1 523:1 536:1 551:2 554:1 562:1 567:1 568:1 571:1 593:1 604:1 641:1 642:2 644:1 647:1 669:1 672:2 681:1 687:1 691:1 699:1 700:1 704:1 707:2 717:1 726:1 729:1 736:1 751:1 754:1 762:1 789:1 796:1 805:1 818:1 821:1 828:1 836:1 841:1 842:1 843:1 845:1 852:1 878:1 881:1 891:1 899:1 906:1 922:1 924:1 929:1 932:1 940:1 946:1 949:3 951:1 963:1 973:2 978:1 979:1 988:1 998:1 1004:1 1017:1 1095:1 1101:1 1106:2 1118:1 1120:1 1123:1 1129:1 1136:1 1149:2 1151:2 1152:1 1153:1 1156:1 1165:1 1169:1 1182:1 1191:1 1193:1 1205:1 1213:1 1227:1 1228:2 1243:1 1244:4 1245:1 1246:1 1257:1 1271:1 1285:1 1301:1 1331:1 1348:1 1352:1 1353:1 1357:1 1359:1 1380:1 1384:2 1388:1 1406:1 1411:1 1419:1 1421:1 1426:2 1430:1 1461:1 1525:1 1543:1 1554:2 1568:1 1592:1 1637:1 1641:1 1643:1 1647:1 1650:3 1661:1 1672:1 1694:1 1730:1 1742:4 1753:1 1787:1 1791:1 1806:1 1812:1 1813:1 1817:1 1828:1 1848:1 1859:1 1862:1 1868:1 1882:1 1887:1 1898:1 1922:1 1946:1 1983:1 1986:1 1989:1 1997:1 2028:1 2040:1 2044:1 2057:1 2077:1 2110:1 2120:1 2128:1 2138:1 2151:1 2162:1 2175:3 2194:1 2196:1 2205:1 2237:1 2252:1 2256:1 2292:1 2316:1 2331:1 2346:1 2350:1 2375:1 2386:1 2435:1 2450:1 2460:1 2469:1 2506:1 2517:1 2548:1 2549:1 2600:1 2614:1 2639:1 2654:1 2655:1 2705:1 2736:1 2738:1 2768:1 2771:1 2820:1 2861:1 2870:1 2893:1 2906:2 2922:1 2929:1 2935:2 2937:1 2940:1 2952:1 2995:1 
0 0.0003154032789361217 0 0.00357968706089768 4:1 7:1 18:1 24:1 25:2 34:1 36:2 54:1 65:1 77:1 87:1 94:2 96:1 97:1 100:1 101:1 104:1 105:1 134:1 156:1 161:1 163:1 170:1 174:1 182:1 184:1 199:1 206:1 211:1 215:1 222:1 233:1 252:1 259:1 285:1 287:1 303:1 307:1 309:1 310:1 311:1 319:1 320:1 334:1 336:1 337:2 341:1 358:1 361:1 367:1 368:1 380:1 383:1 389:1 392:1 400:1 411:1 424:2 427:1 429:2 434:1 441:2 445:1 447:1 450:1 453:1 456:1 468:1 469:1 482:1 500:1 505:1 524:1 539:1 548:1 553:1 557:1 562:2 564:1 567:2 570:1 575:1 587:1 608:1 627:1 642:1 645:2 655:1 660:1 674:1 680:1 688:1 704:1 705:1 711:1 717:1 718:2 719:1 731:1 736:1 741:1 744:1 770:1 778:1 796:1 812:1 823:1 827:1 830:1 832:1 852:1 858:1 863:1 866:1 868:1 871:1 874:1 875:1 877:1 881:1 882:1 886:1 893:1 911:1 927:1 929:2 937:1 940:1 943:1 949:2 952:1 956:1 961:2 973:1 978:1 979:2 980:1 1016:1 1039:1 1043:2 1048:1 1050:1 1073:2 1085:1 1096:1 1112:1 1123:1 1129:1 1151:3 1152:1 1165:1 1181:1 1191:2 1196:1 1214:1 1215:1 1234:1 1237:1 1246:1 1247:1 1256:1 1262:1 1270:1 1274:1 1281:2 1285:1 1287:1 1289:2 1302:1 1324:1 1325:1 1352:1 1408:1 1411:1 1443:1 1451:1 1456:1 1461:1 1502:1 1506:1 1522:2 1529:1 1543:1 1544:1 1554:1 1556:1 1568:3 1579:1 1612:1 1617:2 1639:1 1670:1 1672:2 1699:1 1707:1 1708:2 1754:1 1790:1 1816:2 1818:1 1931:1 1937:1 1962:1 2055:1 2058:1 2071:1 2083:1 2113:1 2114:1 2118:1 2120:1 2130:1 2268:1 2283:1 2305:1 2331:1 2339:1 2341:1 2350:1 2352:1 2373:1 2380:1 2404:1 2439:1 2440:1 2502:1 2505:1 2573:1 2603:1 2608:1 2681:1 2699:1 2712:1 2779:1 2794:1 2800:1 2820:1 2861:1 2891:1 2906:1 2910:1 2911:1 2921:1 2928:1 2930:1 2932:1 
0.00350920018678423 0.0004386866633246156 1.271891953612496e-05 0.007162353371930586 4:1 18:1 20:1 24:1 25:1 26:1 29:1 38:1 78:1 92:1 160:1 175:1 179:1 199:1 209:1 215:1 277:1 286:1 314:1 319:1 326:1 334:2 341:1 348:1 383:1 391:1 396:1 429:1 459:1 464:2 467:1 501:1 505:3 509:1 519:1 536:1 553:1 557:1 564:1 620:1 655:1 663:1 669:1 675:1 729:1 762:1 790:1 848:1 852:1 961:2 968:1 1030:1 1035:3 1085:2 1097:1 1100:1 1101:1 1112:1 1129:2 1148:1 1150:1 1228:1 1234:1 1240:1 1243:1 1244:2 1255:1 1274:1 1302:1 1312:1 1341:1 1382:2 1388:1 1406:1 1415:1 1562:1 1592:2 1618:1 1619:1 1646:1 1671:1 1702:1 1707:1 1717:1 1730:1 1754:1 1758:1 1774:1 1781:1 1791:1 1894:1 1925:1 2022:1 2083:1 2101:1 2116:1 2118:1 2138:1 2145:1 2170:1 2311:1 2316:1 2326:1 2350:1 2479:1 2485:1 2532:1 2611:1 2670:1 2694:1 2737:1 2738:1 2758:1 2764:1 
0 0 0 0.004466263541697407 5:1 6:1 12:1 25:1 26:2 62:1 64:1 71:1 74:1 76:1 78:1 79:1 81:1 82:1 87:1 89:1 91:1 93:1 96:2 119:1 123:1 128:1 147:1 151:1 156:2 185:1 196:1 199:1 215:1 222:1 228:1 235:1 236:1 242:1 243:1 255:1 257:1 258:1 265:1 270:1 283:1 286:1 289:1 290:2 293:1 297:1 301:1 305:1 306:1 307:1 318:1 333:1 334:1 343:2 349:2 355:1 359:1 377:1 381:1 382:1 383:1 385:1 388:1 389:1 396:2 410:1 416:1 429:1 450:1 452:1 467:2 478:1 485:2 487:1 494:1 504:2 514:1 515:1 516:1 519:1 531:2 535:1 536:1 541:1 549:1 550:1 558:1 565:1 570:1 575:1 577:1 590:2 596:1 602:1 615:1 620:1 627:1 635:1 658:1 678:1 704:1 709:1 736:1 741:1 743:1 745:1 748:1 759:1 761:1 778:4 780:1 783:2 787:1 788:1 796:1 832:2 834:1 843:1 876:1 881:1 903:1 904:1 916:1 918:1 927:1 933:2 941:1 948:1 952:1 962:1 964:1 966:1 978:1 979:1 984:1 998:1 1007:1 1013:1 1014:1 1020:1 1029:1 1042:1 1050:1 1060:1 1072:1 1086:1 1089:1 1095:1 1097:1 1098:1 1112:1 1119:1 1123:1 1127:1 1131:1 1136:1 1149:1 1150:1 1151:1 1152:1 1153:1 1168:1 1169:1 1192:1 1202:1 1234:1 1235:1 1255:1 1273:1 1278:1 1285:1 1288:1 1289:1 1292:1 1322:1 1340:2 1352:1 1384:1 1388:1 1391:1 1405:1 1436:1 1443:1 1463:1 1473:1 1474:2 1491:2 1513:1 1564:1 1597:1 1645:1 1654:1 1671:1 1683:3 1684:1 1694:1 1697:1 1698:1 1702:1 1705:1 1709:1 1726:1 1728:1 1730:1 1754:1 1789:1 1797:1 1839:1 1848:1 1869:1 1880:1 1882:2 1885:1 1886:1 1917:1 1922:1 1931:1 1946:1 1954:1 1968:1 2044:1 2071:1 2082:1 2088:1 2135:1 2138:2 2161:1 2170:1 2211:1 2228:1 2258:1 2259:1 2314:1 2316:1 2325:1 2331:1 2350:1 2367:1 2437:1 2465:1 2473:1 2517:1 2561:1 2568:1 2573:1 2588:1 2596:1 2600:1 2611:1 2639:1 2655:1 2665:1 2667:1 2712:1 2733:1 2767:1 2802:1 2808:1 2858:1 2899:1 2937:1 2939:1 2955:1 2974:1 2986:1 2993:1 
0.01862237950513673 0.01026445018460498 0.008190658783854993 0.01194841680515088 32:1 67:1 78:1 159:1 227:1 283:1 290:1 298:1 319:1 335:1 347:1 348:3 350:1 367:1 370:1 441:1 445:1 505:1 618:1 639:1 658:1 680:1 691:1 729:1 745:2 761:1 771:2 778:3 780:1 793:1 858:1 867:1 897:1 949:1 964:1 1013:1 1097:1 1149:1 1151:2 1156:1 1210:1 1244:1 1255:1 1281:1 1312:1 1326:1 1347:1 1378:1 1388:1 1406:1 1437:1 1453:1 1518:1 1551:1 1592:1 1618:1 1730:2 1781:1 1860:1 1880:1 1919:1 2022:1 2111:1 2352:2 2738:1 2921:1 2938:1 2957:1 
0 0 0 0.001921046229922089 3:1 4:1 8:2 10:3 13:1 15:1 25:1 29:1 31:2 32:1 33:1 35:1 39:1 43:1 53:1 68:3 69:3 70:1 77:2 78:1 79:2 83:1 84:2 86:2 89:1 98:1 100:1 104:1 112:2 114:1 115:2 131:1 132:1 133:1 140:1 151:1 154:1 156:1 164:1 168:1 170:1 171:1 173:3 175:2 184:1 188:1 193:1 195:1 198:1 209:1 215:2 219:2 222:1 229:1 237:2 243:1 250:1 261:1 270:2 273:1 276:1 287:1 288:1 289:1 295:3 300:1 303:1 306:1 307:1 314:1 315:2 323:2 326:1 335:1 344:1 346:1 349:3 351:1 354:1 361:1 366:1 371:2 375:2 380:2 382:1 383:2 385:1 389:1 393:1 394:3 397:1 407:1 412:1 419:1 425:2 438:2 441:2 446:1 456:1 464:1 467:1 468:3 470:1 482:1 487:3 490:1 495:2 502:1 505:3 509:1 511:1 512:1 515:2 518:1 519:2 526:1 531:1 546:1 550:1 553:1 564:1 566:1 585:2 596:1 608:1 617:1 625:1 645:1 658:2 669:1 675:2 678:1 688:3 694:1 699:1 706:1 708:1 709:1 711:1 715:1 725:2 736:3 741:1 743:1 744:1 745:2 754:1 759:1 763:1 765:1 778:1 786:1 798:1 799:3 804:1 811:1 814:1 823:1 827:1 839:1 840:2 843:1 844:2 845:1 848:1 855:1 859:1 860:1 861:1 868:1 869:1 871:1 874:3 885:2 889:1 898:1 903:1 906:1 916:1 918:2 922:1 925:1 926:1 927:1 936:1 948:2 952:2 956:1 957:3 961:1 964:1 965:1 974:1 978:1 982:1 987:1 988:1 1000:1 1002:1 1013:1 1016:1 1025:1 1029:1 1032:2 1035:4 1036:1 1051:1 1053:2 1060:1 1075:1 1081:1 1082:2 1089:1 1097:1 1098:1 1105:1 1108:1 1112:3 1119:1 1127:1 1144:2 1145:1 1149:1 1150:1 1151:2 1153:1 1154:1 1155:1 1156:1 1157:1 1163:1 1168:1 1169:1 1195:2 1196:1 1205:1 1214:1 1228:2 1234:2 1237:1 1244:1 1245:1 1246:1 1271:1 1281:1 1287:1 1288:1 1296:1 1302:1 1321:1 1324:1 1331:1 1333:1 1347:2 1355:1 1374:1 1390:2 1391:1 1392:1 1394:1 1405:3 1407:1 1415:1 1442:2 1443:2 1448:1 1451:1 1461:1 1463:1 1465:1 1474:1 1479:1 1499:1 1519:1 1522:1 1545:1 1554:2 1571:1 1579:1 1593:1 1607:1 1614:1 1617:2 1619:1 1644:1 1654:2 1656:1 1658:1 1671:2 1673:1 1683:1 1685:1 1702:1 1703:1 1707:1 1717:1 1720:1 1726:4 1742:1 1754:1 1757:1 1764:1 1774:1 1787:3 1799:1 1803:1 1815:1 1818:1 1835:1 1862:2 1880:1 1882:1 1885:1 1898:1 1917:2 1926:1 1931:1 1959:2 1968:1 2022:1 2029:1 2033:1 2058:1 2071:2 2120:1 2125:3 2151:1 2158:1 2161:1 2169:1 2170:1 2194:1 2196:1 2203:1 2254:1 2257:1 2258:1 2283:1 2299:1 2300:1 2309:1 2350:2 2354:1 2372:1 2373:1 2378:1 2420:1 2423:2 2428:1 2437:1 2440:2 2443:1 2465:2 2473:2 2480:1 2494:1 2502:1 2505:1 2526:1 2532:1 2535:1 2549:1 2570:1 2582:2 2599:1 2602:1 2612:1 2614:1 2635:1 2658:1 2667:1 2699:1 2705:1 2711:1 2721:5 2734:1 2749:1 2764:1 2767:1 2768:2 2769:1 2770:1 2795:1 2811:1 2814:1 2820:2 2821:3 2858:1 2868:1 2884:1 2889:1 2899:1 2914:1 2917:1 2921:2 2928:1 2930:1 2939:1 2963:1 2974:1 2977:2 2996:1 2998:1 
0.00181535577766744 0.001139798282033991 0 0.0003644264986670113 8:1 10:1 30:1 34:1 37:1 48:1 51:1 66:1 70:1 74:1 78:3 84:1 87:1 94:1 95:1 104:1 119:1 123:1 125:1 131:1 136:1 143:1 145:1 154:1 156:1 160:2 164:1 171:1 173:1 189:1 190:1 191:1 208:1 240:1 249:1 254:1 268:1 272:1 280:1 287:1 296:2 305:1 319:1 346:1 348:1 358:1 368:1 370:1 372:1 380:1 382:2 385:1 388:1 424:1 438:1 441:1 442:1 453:2 457:1 481:2 494:1 505:2 515:1 534:1 538:2 539:1 548:1 565:1 602:1 631:2 641:2 680:1 688:3 695:1 736:1 759:1 784:1 786:1 814:1 845:1 848:1 849:1 850:1 865:1 868:1 874:2 875:1 903:1 923:1 928:1 949:1 964:1 967:1 971:1 978:1 983:1 1025:1 1035:1 1036:1 1057:1 1073:2 1109:1 1116:1 1140:1 1143:1 1152:1 1156:2 1164:1 1191:1 1215:1 1228:1 1246:1 1255:1 1381:1 1390:1 1397:1 1405:1 1433:1 1443:1 1554:1 1562:1 1567:1 1590:1 1607:1 1637:1 1644:1 1674:1 1726:1 1746:1 1763:1 1797:1 1805:1 1807:1 1812:1 1827:1 1859:1 1868:1 1869:2 1886:1 1931:1 1940:1 1994:1 2051:1 2102:1 2128:1 2150:1 2151:1 2156:1 2162:1 2185:1 2280:1 2305:1 2331:2 2340:1 2395:1 2417:1 2473:1 2474:1 2549:1 2588:2 2599:1 2601:1 2610:1 2628:1 2632:1 2709:1 2737:1 2874:1 2877:1 2884:1 2921:3 2954:1 2971:1 2986:1 
0 0 0 0.005224866300041341 1:3 4:1 6:2 7:1 8:1 11:1 14:1 17:1 20:1 24:1 25:1 31:1 33:1 34:1 37:1 38:1 40:1 43:2 45:1 46:1 56:2 66:1 68:1 69:4 70:1 73:2 74:2 78:2 81:1 82:1 84:1 86:1 89:1 91:2 96:3 101:1 102:1 119:1 121:2 124:1 125:1 130:1 131:1 136:1 139:1 146:2 147:1 150:1 152:2 153:1 154:1 156:1 161:1 163:1 171:1 173:1 174:1 177:1 179:3 185:1 191:1 192:1 207:1 209:1 215:2 218:4 222:2 235:1 239:2 240:2 243:1 247:1 250:1 252:1 254:1 257:1 262:1 263:1 265:1 272:1 277:1 278:1 281:3 283:1 284:1 289:1 290:2 295:1 298:1 304:1 310:1 311:2 315:1 316:1 319:1 334:1 337:1 339:1 342:1 345:1 349:2 351:2 354:1 355:1 357:1 358:2 366:1 375:1 382:1 388:1 394:1 396:1 398:1 400:1 401:2 419:1 421:1 440:1 441:1 446:1 453:1 456:1 459:1 464:1 469:2 478:1 480:2 485:1 487:1 488:1 490:1 493:1 495:2 497:1 498:1 501:1 502:1 503:1 509:1 512:1 516:1 519:1 520:1 524:1 528:1 529:1 536:1 539:1 541:1 550:3 554:1 557:1 559:1 564:2 565:3 571:1 594:1 595:1 596:1 602:1 603:1 606:1 617:1 618:1 620:1 625:1 631:1 637:3 645:2 648:2 655:1 657:2 658:1 661:1 664:1 665:1 675:2 678:2 687:1 689:1 705:2 707:1 711:1 713:1 724:1 725:1 727:1 729:1 731:1 735:1 738:1 741:1 759:1 763:3 765:1 779:1 780:1 789:1 798:1 799:1 805:1 806:1 814:1 828:1 840:1 841:1 843:1 844:2 845:1 852:1 859:1 868:1 871:1 873:1 874:2 875:1 882:1 883:1 887:1 891:3 892:1 899:1 902:1 906:2 912:3 924:2 929:1 948:1 951:1 952:1 953:1 957:1 960:1 961:4 962:3 966:1 979:1 984:1 999:1 1002:2 1007:1 1014:1 1017:1 1035:2 1036:4 1043:1 1050:1 1051:1 1058:1 1060:1 1086:1 1101:1 1114:2 1125:1 1127:2 1129:1 1136:2 1138:2 1142:1 1144:2 1145:2 1149:1 1150:1 1153:1 1156:1 1160:1 1163:1 1169:1 1172:1 1173:1 1190:1 1191:1 1197:1 1204:2 1209:1 1211:3 1215:2 1226:1 1243:2 1244:2 1252:1 1256:1 1260:1 1266:1 1271:2 1273:1 1285:1 1292:1 1309:1 1312:1 1313:1 1326:1 1333:1 1348:1 1352:2 1355:1 1366:1 1368:1 1374:3 1401:1 1405:4 1413:1 1426:1 1433:1 1435:2 1440:1 1448:1 1471:1 1478:1 1479:1 1491:1 1492:3 1498:1 1499:2 1502:1 1503:1 1519:1 1523:1 1529:1 1552:1 1553:1 1554:1 1571:1 1579:1 1585:1 1611:1 1618:1 1622:1 1643:1 1648:1 1676:1 1683:1 1687:1 1688:1 1702:1 1703:1 1704:1 1707:2 1710:1 1717:1 1720:1 1724:1 1728:1 1732:1 1757:1 1762:1 1778:1 1786:1 1787:1 1796:1 1798:1 1799:1 1803:1 1806:1 1812:2 1817:1 1822:1 1826:1 1827:2 1835:1 1839:1 1844:1 1847:1 1857:1 1882:1 1885:1 1895:1 1898:1 1909:1 1931:2 1951:1 1954:1 2009:1 2057:2 2058:1 2072:1 2073:1 2075:1 2081:1 2083:1 2114:1 2116:1 2118:3 2120:2 2138:1 2147:1 2148:2 2155:1 2156:1 2157:1 2169:2 2170:1 2212:1 2215:2 2229:1 2254:1 2258:2 2268:1 2309:1 2316:1 2326:2 2331:2 2344:1 2360:1 2372:1 2417:1 2421:1 2428:1 2429:2 2439:1 2443:1 2456:1 2459:1 2473:1 2479:1 2498:1 2526:1 2535:1 2578:1 2582:1 2628:1 2648:1 2649:1 2651:1 2655:1 2665:1 2676:1 2691:1 2705:1 2710:1 2712:2 2720:1 2734:2 2737:1 2738:1 2741:1 2754:1 2764:2 2767:5 2771:1 2800:1 2801:1 2805:1 2812:1 2814:1 2816:1 2826:2 2846:1 2850:1 2878:1 2884:2 2906:1 2907:2 2915:2 2927:1 2935:1 2937:1 2942:1 2974:2 2977:1 2982:1 2996:1 2998:1 
0 0 0 0.002681314915447284 4:1 11:1 15:1 26:3 29:2 32:2 34:2 36:1 40:1 43:2 46:1 48:1 53:1 56:1 69:1 70:2 73:2 74:1 78:1 83:2 84:2 87:1 91:2 95:1 100:3 104:1 105:3 106:1 119:2 120:1 123:3 125:1 128:1 131:2 132:1 147:1 152:1 153:2 156:1 157:1 159:1 160:4 164:2 167:1 173:1 174:1 175:1 179:1 180:1 185:1 187:1 188:2 194:5 195:1 196:1 197:1 199:2 207:1 217:1 219:1 222:1 228:1 235:3 237:1 239:1 243:1 252:1 255:1 263:1 265:1 267:1 268:1 270:2 276:2 277:1 281:1 284:4 286:1 288:2 289:1 290:2 292:1 293:1 295:3 300:2 301:1 305:1 317:1 323:1 324:1 326:1 332:1 334:1 338:1 343:3 344:1 346:2 347:1 348:3 351:1 355:2 358:1 362:1 368:1 372:1 375:2 377:1 378:1 379:2 381:1 382:2 383:2 385:1 388:1 391:1 392:1 394:2 396:1 400:2 402:1 403:2 412:1 420:1 421:1 422:1 423:1 435:1 440:1 453:4 454:1 457:1 464:1 465:1 478:2 481:1 484:1 488:1 490:1 493:1 497:1 499:1 501:2 504:2 505:1 507:1 509:1 512:1 517:2 519:3 531:1 538:1 539:1 541:1 543:1 545:1 547:1 549:2 550:2 553:1 557:1 559:2 564:1 565:4 568:1 570:2 571:1 583:1 591:1 594:1 596:1 602:1 606:1 608:1 617:1 630:1 631:3 634:1 637:1 639:1 641:2 655:1 657:1 658:3 660:1 665:2 681:2 688:2 689:1 690:1 691:1 704:1 705:1 722:1 729:1 732:1 738:1 741:1 742:1 753:1 759:1 763:2 770:1 778:1 780:1 782:1 783:2 784:2 793:1 795:1 796:2 799:2 800:2 827:1 830:1 834:2 836:1 844:1 848:2 849:2 868:1 871:3 874:2 876:1 879:1 884:1 889:1 890:1 893:1 903:1 905:2 908:1 918:1 924:1 927:2 929:1 930:1 945:1 946:2 948:2 951:1 952:1 961:1 962:2 964:1 966:2 967:1 968:4 984:1 990:1 998:1 1007:3 1014:1 1018:1 1030:2 1043:1 1047:2 1051:1 1060:1 1062:1 1068:3 1082:2 1086:3 1097:1 1101:2 1105:1 1106:1 1107:2 1112:1 1116:1 1123:2 1124:1 1138:1 1144:1 1145:3 1150:2 1151:1 1153:1 1154:2 1158:1 1160:1 1168:1 1172:1 1173:1 1191:1 1195:2 1206:1 1211:1 1213:1 1214:1 1226:1 1228:1 1233:3 1234:1 1244:3 1246:2 1259:1 1260:1 1261:1 1267:1 1270:1 1271:2 1272:1 1273:1 1280:2 1281:1 1288:1 1292:1 1310:1 1312:1 1313:1 1316:1 1317:1 1325:1 1331:1 1347:1 1348:1 1355:3 1357:1 1382:1 1383:1 1396:1 1404:1 1405:1 1406:1 1407:1 1408:2 1411:2 1426:5 1438:1 1443:1 1450:1 1451:1 1461:1 1474:2 1478:1 1494:1 1503:1 1504:1 1516:1 1519:1 1531:1 1533:1 1554:1 1556:1 1562:2 1579:2 1592:1 1613:1 1617:2 1622:2 1644:3 1646:2 1648:2 1650:1 1653:1 1654:1 1658:4 1665:1 1670:1 1690:1 1694:1 1695:1 1697:2 1698:1 1703:1 1704:1 1705:1 1708:2 1717:1 1768:1 1770:1 1781:1 1787:1 1789:3 1790:1 1798:1 1800:1 1801:1 1805:2 1811:1 1816:1 1835:1 1839:2 1854:1 1859:1 1862:2 1867:1 1885:1 1895:1 1909:1 1922:2 1925:2 1933:1 1954:3 1959:1 1971:1 1972:1 1986:2 1994:2 2004:1 2009:1 2022:1 2027:4 2035:1 2037:2 2040:1 2044:1 2057:1 2058:1 2066:1 2071:2 2073:1 2075:1 2082:1 2100:1 2120:2 2141:1 2142:1 2145:1 2146:1 2151:3 2156:3 2158:1 2162:2 2168:1 2170:1 2183:1 2202:3 2215:1 2229:1 2252:1 2278:1 2292:1 2299:1 2300:1 2309:3 2310:2 2326:3 2330:1 2333:1 2335:1 2336:1 2350:4 2367:1 2372:3 2385:1 2396:1 2397:1 2417:1 2428:1 2443:1 2473:2 2480:2 2485:1 2498:1 2506:1 2530:2 2532:1 2534:1 2535:1 2549:1 2573:1 2577:1 2581:1 2586:1 2588:1 2614:1 2620:2 2625:1 2636:1 2645:1 2655:1 2656:1 2669:1 2685:1 2687:2 2699:1 2702:1 2705:2 2711:1 2714:1 2733:1 2734:1 2738:1 2762:1 2767:1 2768:1 2777:1 2793:1 2796:3 2799:1 2801:1 2807:1 2808:1 2811:2 2835:1 2837:1 2839:1 2850:2 2868:2 2869:1 2870:2 2879:2 2897:1 2899:1 2907:1 2917:1 2921:1 2930:1 2937:1 2938:2 2944:1 2957:1 2968:1 2974:2 2986:1 2993:1 2998:1 
0.008426331205810926 0.006325327449030863 0.008570645664633295 0.00509758799492266 8:1 9:1 13:1 25:1 29:1 125:1 131:1 142:1 146:1 157:1 174:1 180:1 184:1 205:1 206:1 242:1 266:1 288:1 290:1 294:1 301:1 304:1 353:1 354:2 361:1 392:1 409:1 418:1 424:1 429:1 435:1 445:1 468:1 481:1 483:1 512:1 539:1 546:1 568:1 590:1 593:1 596:1 608:1 627:1 674:1 680:1 687:1 706:1 717:1 719:1 726:3 738:1 758:1 782:1 786:1 805:1 823:1 829:1 836:1 840:1 842:1 849:1 906:1 949:2 952:1 971:1 984:1 992:1 1067:1 1101:1 1103:1 1145:1 1188:1 1211:1 1215:1 1230:1 1261:1 1292:1 1310:1 1325:2 1361:1 1384:1 1390:1 1391:1 1406:1 1422:1 1492:2 1498:1 1503:1 1519:1 1549:1 1567:1 1607:1 1618:1 1654:1 1702:1 1707:1 1768:1 1862:1 1884:1 1887:1 1931:1 2004:1 2043:1 2094:1 2114:1 2120:1 2138:1 2162:1 2202:1 2225:1 2278:1 2302:1 2339:2 2386:1 2397:1 2473:1 2676:1 2700:1 2726:1 2734:1 2851:1 2921:1 2928:2 2930:1 2935:1 2938:1 2961:1 
0 0 0 0.0006010187841988148 1:1 4:1 7:2 10:1 11:2 17:2 24:3 25:1 26:2 27:1 31:1 32:1 33:1 34:2 37:1 39:1 40:1 43:1 48:1 51:1 54:1 56:1 62:2 65:2 66:1 67:1 68:1 69:2 70:5 73:3 75:1 76:1 77:2 79:2 81:4 82:1 83:5 84:2 87:1 89:1 91:1 94:1 95:3 96:2 97:1 98:1 102:1 104:1 105:2 106:1 107:1 112:2 115:1 119:2 120:1 123:1 140:1 141:1 144:1 146:1 147:2 151:1 152:2 155:1 156:1 157:1 160:1 162:1 163:1 164:2 170:1 171:2 173:2 174:1 177:1 180:1 185:1 192:1 193:1 194:3 195:3 196:3 198:3 199:1 204:2 207:1 208:3 209:2 214:1 215:1 217:1 218:2 228:2 229:1 235:2 237:1 240:2 241:1 243:1 251:1 252:1 254:1 255:1 263:1 265:2 266:1 268:1 270:1 272:1 277:1 278:1 281:5 282:2 284:1 286:3 295:2 296:1 298:1 300:1 304:1 306:5 308:1 310:1 311:1 312:1 316:1 319:3 326:1 334:1 336:1 337:1 343:3 351:2 354:1 355:1 359:1 361:1 366:1 367:1 372:2 375:1 378:3 379:1 381:2 382:1 383:4 385:1 388:1 396:1 398:1 399:1 403:2 410:1 413:1 415:1 418:1 419:1 422:1 424:2 425:2 426:2 429:1 436:1 438:1 440:2 441:1 442:1 451:1 453:1 456:1 459:1 463:1 468:1 470:2 473:2 477:1 478:2 480:1 482:1 484:1 490:1 494:2 495:2 497:1 498:1 500:1 503:2 505:2 511:1 512:3 517:2 519:3 522:2 531:1 534:1 538:1 541:3 549:3 551:2 554:1 557:1 559:1 561:1 565:2 570:3 571:1 577:1 587:1 589:2 590:1 592:2 594:1 595:1 602:2 603:3 614:1 617:2 627:1 633:1 638:1 639:1 641:2 657:2 658:3 660:1 662:1 663:2 665:2 669:1 675:2 678:1 681:1 688:2 695:1 699:1 705:1 706:2 707:1 710:2 713:2 727:1 733:1 738:1 745:1 753:2 759:3 761:1 763:2 779:1 780:1 782:2 783:1 788:3 799:1 805:1 806:1 814:1 818:2 822:1 827:2 838:1 840:1 843:1 847:1 849:1 850:1 871:1 873:2 874:1 878:2 879:1 882:1 884:1 889:1 905:1 911:2 916:1 922:2 924:1 933:1 934:1 952:3 957:2 962:1 964:1 966:1 967:1 968:3 972:1 973:1 977:1 978:2 984:2 986:1 1007:1 1013:1 1017:2 1035:1 1036:1 1043:1 1044:1 1051:1 1058:1 1062:1 1079:1 1082:2 1086:2 1089:2 1096:1 1097:1 1105:1 1108:2 1112:1 1114:1 1116:1 1124:1 1127:1 1129:1 1138:1 1140:1 1144:1 1145:1 1148:1 1150:1 1153:1 1158:1 1161:1 1165:2 1172:1 1173:1 1180:1 1182:2 1188:2 1191:1 1195:1 1201:1 1202:1 1210:3 1217:1 1224:2 1233:2 1234:3 1238:1 1240:1 1241:1 1242:1 1244:2 1246:1 1255:1 1257:1 1265:1 1266:1 1271:1 1281:1 1285:2 1288:1 1289:1 1292:1 1301:1 1302:1 1316:1 1331:1 1335:1 1343:1 1352:1 1357:2 1360:1 1363:1 1380:1 1390:1 1397:1 1405:2 1408:1 1409:1 1415:1 1419:1 1421:1 1422:1 1426:2 1433:1 1435:2 1442:1 1443:2 1448:1 1451:2 1454:4 1456:1 1457:2 1473:2 1480:3 1487:1 1499:1 1503:3 1511:1 1523:1 1533:1 1537:1 1547:1 1552:1 1554:3 1564:3 1567:2 1568:2 1578:1 1587:1 1590:1 1591:1 1600:1 1611:3 1634:1 1638:1 1644:2 1646:2 1648:1 1655:1 1658:2 1671:1 1672:1 1674:1 1684:1 1690:1 1694:1 1697:3 1698:2 1704:1 1705:1 1728:1 1730:1 1761:1 1774:1 1778:1 1782:1 1787:1 1789:2 1790:1 1799:2 1800:3 1803:1 1805:1 1811:2 1812:1 1823:1 1828:1 1835:1 1839:1 1859:3 1862:1 1863:1 1868:1 1869:2 1874:1 1885:2 1886:2 1887:1 1895:1 1897:1 1921:1 1922:1 1924:2 1925:1 1931:1 1954:6 1959:1 1972:1 1979:1 1986:1 1994:1 2004:2 2027:3 2044:1 2047:1 2051:1 2066:1 2071:2 2072:1 2075:1 2080:1 2081:1 2082:2 2101:1 2118:1 2120:1 2125:2 2138:1 2158:2 2161:1 2168:1 2170:2 2173:1 2178:1 2183:1 2196:1 2202:1 2204:2 2228:1 2229:3 2238:2 2256:3 2299:2 2310:2 2316:1 2321:1 2326:2 2331:1 2350:1 2358:1 2359:1 2377:1 2394:1 2417:1 2423:1 2443:2 2459:1 2469:2 2473:3 2476:1 2478:1 2480:1 2490:1 2526:1 2530:3 2532:1 2549:1 2562:1 2582:1 2586:2 2588:1 2614:1 2616:1 2620:1 2636:1 2639:1 2641:1 2649:1 2661:1 2662:1 2665:1 2669:1 2676:1 2677:1 2681:1 2685:1 2689:1 2699:1 2712:2 2721:1 2734:2 2739:1 2750:1 2764:1 2767:3 2769:1 2771:2 2772:1 2779:1 2795:2 2802:1 2808:2 2816:1 2821:1 2850:1 2884:1 2899:1 2906:1 2918:2 2921:1 2922:1 2928:1 2929:1 2933:1 2938:1 2940:1 2966:1 2971:1 2977:1 2985:2 2986:2 2994:1 
0 0 0 0.0005898033793934669 4:2 6:1 9:1 12:2 20:1 25:1 33:1 34:1 35:1 36:1 37:1 47:1 62:2 64:3 66:1 75:1 83:1 90:1 92:1 102:1 109:1 112:2 118:1 123:1 124:1 137:1 138:1 140:1 144:3 145:1 146:3 150:1 155:1 163:2 164:2 174:1 185:1 187:1 196:1 204:1 212:3 227:1 231:1 233:3 235:1 237:1 239:1 244:1 251:1 252:1 253:2 257:1 265:1 269:1 272:3 278:1 282:3 283:1 285:2 286:1 287:1 288:1 290:1 292:1 300:1 301:2 317:2 319:1 323:1 326:1 332:1 334:1 337:1 343:2 345:1 347:2 348:2 353:1 359:4 366:1 368:1 372:1 377:1 379:2 380:1 383:2 388:1 390:1 392:2 393:1 394:4 398:1 411:1 420:1 421:1 424:1 426:2 441:1 446:1 449:1 450:1 451:2 456:2 457:1 460:2 464:1 467:1 468:1 473:2 477:1 481:2 487:2 488:1 498:1 501:1 503:1 504:1 509:1 515:1 516:1 517:1 533:1 534:1 535:1 538:2 544:1 548:1 550:1 554:1 558:1 562:1 564:3 566:2 567:1 569:1 570:1 572:1 573:1 594:1 596:2 603:1 606:1 608:2 618:1 619:2 627:1 648:2 658:1 663:2 675:1 685:3 700:1 702:1 704:1 705:1 708:1 715:1 726:3 727:1 732:1 735:1 738:3 744:2 748:1 761:1 765:2 773:1 776:1 799:1 804:3 818:1 822:1 829:1 831:1 836:1 843:1 849:1 860:1 863:1 867:5 868:1 873:2 874:1 875:1 876:1 878:1 883:1 896:1 898:1 899:1 904:1 905:2 906:1 913:2 929:1 932:1 948:1 949:1 952:1 956:1 961:1 962:1 965:1 973:2 984:1 985:1 987:1 997:1 1004:1 1030:1 1032:1 1035:1 1048:1 1052:1 1055:1 1056:1 1059:1 1063:1 1072:2 1081:1 1101:1 1103:2 1114:1 1123:1 1130:1 1150:1 1151:2 1153:1 1154:2 1155:1 1156:1 1162:1 1173:1 1187:1 1191:1 1195:1 1202:1 1211:1 1213:4 1240:1 1243:1 1256:1 1260:1 1265:2 1273:2 1281:1 1285:1 1302:2 1340:1 1341:1 1346:2 1347:2 1353:1 1357:1 1359:1 1360:1 1374:1 1384:2 1386:1 1396:1 1397:1 1405:1 1406:1 1411:2 1419:1 1421:1 1422:1 1426:1 1436:1 1437:1 1469:1 1480:3 1492:1 1500:1 1502:1 1503:1 1504:1 1505:1 1519:1 1522:1 1523:1 1529:2 1554:1 1556:1 1562:1 1609:1 1622:1 1637:1 1643:1 1644:1 1655:2 1674:1 1683:1 1707:2 1726:1 1730:1 1732:1 1734:1 1740:1 1754:1 1768:1 1774:1 1787:1 1788:1 1789:2 1800:1 1813:6 1816:1 1826:1 1828:1 1850:1 1857:1 1862:1 1886:1 1896:1 1925:1 1931:1 1954:2 1968:2 1978:1 1984:1 1993:1 1997:1 2027:3 2033:1 2037:1 2044:1 2053:1 2056:1 2058:1 2071:1 2082:1 2110:1 2138:1 2145:1 2146:1 2150:1 2156:1 2162:2 2175:1 2178:1 2204:1 2209:1 2214:1 2221:1 2228:1 2229:1 2238:1 2256:1 2277:1 2309:1 2335:1 2339:2 2350:2 2360:1 2386:1 2402:1 2406:1 2407:1 2437:3 2438:1 2443:2 2463:1 2473:1 2475:1 2490:1 2505:1 2521:1 2548:1 2549:3 2575:1 2577:1 2581:1 2596:1 2616:4 2639:1 2660:1 2665:1 2682:1 2705:2 2733:1 2758:1 2772:1 2777:1 2779:3 2794:1 2795:1 2801:3 2814:2 2856:1 2865:1 2906:1 2911:1 2928:1 2940:1 2966:1 2986:1 
0 0 0 0.001278718681336347 3:1 4:1 6:2 7:1 8:1 9:1 17:1 18:2 24:1 25:1 29:2 33:1 34:1 35:3 36:1 39:2 40:1 42:1 43:2 46:1 47:1 48:1 65:1 67:2 68:1 70:2 73:2 77:1 79:1 81:1 83:1 88:2 92:4 94:1 95:1 96:2 104:1 107:2 109:2 115:1 123:2 128:1 133:1 138:2 139:2 145:1 147:1 150:1 152:1 156:1 164:2 166:1 170:1 171:1 174:1 179:1 180:1 184:1 185:1 194:2 199:11 206:1 207:2 208:1 215:1 222:2 228:1 231:1 239:1 250:1 251:1 252:1 255:1 257:1 265:2 269:1 270:1 271:1 273:1 276:1 277:1 281:2 282:1 284:2 288:1 292:2 293:2 294:1 295:1 300:1 301:1 302:1 306:1 314:1 319:1 320:2 324:1 331:1 335:1 338:1 347:1 348:1 349:2 351:1 353:1 355:2 361:1 375:1 377:1 378:1 379:2 382:2 388:1 389:1 390:1 391:2 392:2 393:1 396:2 400:1 401:2 410:2 418:2 425:1 428:1 429:1 434:2 441:1 442:1 443:1 445:1 446:1 450:2 451:2 457:2 464:1 467:1 480:1 484:1 493:1 494:1 501:3 505:2 511:1 515:3 519:1 526:1 531:1 535:2 544:1 546:1 548:1 554:1 562:1 565:2 566:1 569:1 570:4 574:1 577:1 581:1 588:1 589:1 590:1 596:1 606:1 608:1 613:1 618:1 620:1 624:1 627:1 641:1 644:1 646:1 649:1 658:4 662:1 663:1 665:1 680:2 685:1 688:4 691:1 706:1 707:1 717:2 719:1 721:1 724:1 726:4 727:1 736:1 738:2 741:1 743:1 762:1 763:3 767:2 776:1 780:2 786:2 793:3 803:1 804:1 805:1 822:1 834:1 835:1 844:2 845:1 849:1 850:1 856:1 858:1 859:1 863:1 865:1 874:1 875:1 879:1 890:1 893:1 904:1 905:1 906:1 911:2 926:2 929:1 935:1 949:2 951:1 952:2 961:1 962:1 968:1 973:3 977:1 984:1 1007:1 1014:1 1025:1 1030:2 1032:1 1035:2 1036:1 1046:1 1050:1 1053:1 1058:1 1059:1 1066:1 1086:1 1093:2 1095:2 1097:1 1101:4 1109:1 1112:1 1113:2 1116:1 1118:1 1129:1 1130:2 1138:3 1144:1 1148:2 1151:1 1153:1 1155:3 1161:1 1163:1 1182:1 1191:2 1213:1 1215:1 1224:2 1228:2 1234:1 1243:1 1244:1 1246:4 1247:1 1255:2 1260:1 1265:1 1271:2 1281:1 1283:1 1285:1 1296:1 1304:1 1309:1 1310:1 1339:1 1347:2 1368:1 1384:6 1392:1 1404:1 1409:1 1422:2 1426:1 1435:1 1442:1 1456:1 1457:1 1462:1 1469:1 1480:1 1491:1 1499:1 1518:1 1523:1 1529:1 1533:1 1540:1 1543:2 1552:1 1554:3 1562:1 1567:1 1568:1 1571:1 1579:2 1585:1 1614:1 1618:1 1634:1 1644:1 1646:1 1648:1 1650:1 1653:1 1654:1 1655:1 1658:1 1669:1 1671:1 1694:2 1697:1 1698:3 1720:1 1730:1 1738:1 1739:2 1748:1 1754:3 1774:1 1778:2 1782:1 1788:2 1791:1 1800:2 1806:1 1809:1 1815:1 1817:1 1823:2 1827:1 1857:1 1862:1 1864:5 1869:1 1883:1 1886:1 1901:1 1923:1 1940:1 1954:4 1992:1 1997:1 2013:1 2022:1 2047:2 2051:1 2057:1 2071:1 2075:1 2082:1 2083:1 2118:1 2120:2 2142:1 2150:1 2156:1 2161:1 2170:2 2191:1 2194:1 2202:1 2204:1 2209:1 2212:1 2229:2 2249:1 2276:1 2279:1 2292:2 2310:1 2314:1 2326:2 2339:1 2350:1 2351:1 2354:1 2358:1 2385:1 2389:1 2391:1 2403:1 2417:1 2420:1 2437:1 2440:1 2443:1 2463:1 2465:1 2473:1 2475:1 2476:1 2480:1 2494:1 2532:1 2549:1 2550:1 2578:1 2582:1 2590:1 2600:1 2608:1 2614:2 2620:1 2636:1 2639:1 2645:1 2681:1 2685:1 2690:1 2699:1 2702:1 2709:1 2733:1 2734:1 2738:3 2767:2 2775:1 2794:1 2808:1 2811:1 2814:1 2821:2 2822:1 2870:1 2879:1 2890:1 2899:1 2907:1 2920:1 2928:1 2930:2 2937:1 2938:2 2939:2 2955:1 2956:1 2966:2 2974:1 2985:1 2986:3 2994:1 2998:1 
0.006634962700017112 0.009942886514218456 0.004786120122105489 0.005609275342885483 1:2 6:1 11:1 30:1 44:2 92:1 105:1 117:1 140:1 156:1 164:1 170:1 173:1 180:1 257:1 263:1 272:1 282:3 288:1 289:1 294:1 307:3 348:1 371:1 392:1 396:1 410:1 424:1 425:1 444:2 467:1 473:2 485:1 500:1 504:1 517:1 539:1 543:2 575:2 589:1 613:1 617:1 627:1 639:1 667:1 715:1 726:3 727:1 732:1 738:2 742:2 743:1 789:1 827:1 836:1 844:2 889:1 898:1 917:1 946:1 970:1 973:4 979:1 1031:1 1060:1 1070:1 1123:1 1129:1 1142:1 1145:1 1161:1 1211:1 1234:1 1265:1 1270:1 1281:1 1285:1 1312:1 1319:1 1378:1 1424:1 1432:1 1435:1 1498:2 1529:1 1567:1 1618:1 1671:1 1742:1 1775:1 1778:1 1914:1 1978:1 2022:1 2024:1 2027:1 2047:1 2060:1 2145:1 2150:1 2156:1 2161:1 2196:2 2340:1 2352:1 2404:2 2407:1 2473:1 2507:1 2577:1 2636:1 2639:1 2694:1 2699:1 2821:1 2935:1 
0 0 0 0.0001382539724287385 1:1 2:1 4:2 8:1 11:2 18:1 26:1 32:3 34:1 35:1 37:1 43:2 46:1 48:1 57:1 66:1 68:3 69:1 71:1 73:1 77:2 79:1 83:1 85:1 86:1 92:1 94:1 95:1 96:2 98:1 99:1 100:1 102:2 112:1 115:3 119:2 125:2 131:1 138:2 144:1 155:1 156:2 158:1 159:1 166:1 168:1 175:2 182:2 184:1 186:1 192:1 193:1 196:2 202:1 205:1 206:1 209:1 213:1 222:4 228:2 235:1 237:1 239:1 241:1 243:1 247:1 250:1 252:2 254:1 258:1 265:1 269:1 277:1 282:1 283:2 286:1 287:1 295:1 297:1 306:1 311:1 312:1 317:1 319:1 320:1 326:1 329:1 335:1 337:1 338:1 343:2 348:1 350:1 351:1 354:1 358:1 359:1 362:2 366:1 367:1 372:1 379:1 382:1 383:1 389:1 394:4 398:1 400:2 403:2 419:1 424:1 425:2 429:1 441:3 452:2 453:3 456:1 457:2 459:1 467:3 476:1 487:1 495:1 499:1 501:1 507:1 511:1 513:1 517:1 519:2 522:1 528:1 531:1 533:1 536:1 538:1 546:1 549:1 564:4 565:1 570:1 571:1 572:1 577:2 586:1 590:2 593:1 594:1 596:2 597:1 600:1 602:3 603:1 604:1 617:1 618:5 626:1 631:2 637:2 638:1 655:1 657:1 658:1 661:1 674:1 678:1 688:2 691:2 696:1 698:1 699:1 702:1 705:1 706:1 707:1 713:1 731:1 736:2 737:1 738:1 744:2 745:2 759:3 761:1 763:2 767:1 778:1 780:1 782:1 789:1 793:1 796:1 798:2 804:1 805:2 811:2 817:1 823:1 834:2 839:1 840:1 843:1 844:3 848:4 849:1 852:2 858:2 859:1 865:1 873:3 874:2 875:1 877:1 879:1 881:3 883:1 886:1 889:2 891:1 892:1 897:2 898:1 900:1 903:2 906:2 910:1 911:1 918:1 920:1 926:1 927:1 929:2 930:1 931:1 934:1 943:1 948:1 952:1 961:1 962:1 964:1 966:2 973:1 978:1 984:1 988:1 990:1 998:4 1000:2 1001:1 1013:3 1021:1 1025:1 1028:1 1030:1 1032:1 1035:2 1043:1 1057:1 1067:1 1071:1 1072:1 1082:1 1095:1 1097:2 1103:1 1106:1 1112:1 1113:1 1115:1 1116:1 1125:1 1129:2 1136:1 1140:1 1143:3 1144:1 1145:1 1149:2 1151:1 1153:2 1156:6 1158:1 1181:1 1188:2 1191:2 1193:1 1196:2 1202:1 1211:1 1215:2 1226:1 1228:2 1230:1 1233:1 1234:1 1240:2 1244:5 1246:1 1247:1 1260:1 1261:1 1265:1 1274:2 1281:2 1285:2 1288:2 1289:1 1309:1 1310:1 1312:1 1318:1 1319:1 1331:3 1346:2 1348:1 1355:1 1358:1 1366:1 1378:1 1381:1 1383:1 1397:1 1405:1 1406:1 1409:2 1422:1 1424:1 1426:3 1437:2 1443:2 1444:3 1445:1 1450:1 1451:2 1461:1 1463:1 1471:2 1474:1 1478:2 1480:1 1491:2 1499:2 1504:2 1511:2 1518:1 1537:1 1541:1 1543:2 1545:1 1553:1 1554:2 1564:2 1568:1 1579:1 1585:1 1592:6 1593:1 1594:1 1596:2 1597:3 1611:2 1617:1 1631:1 1644:1 1648:1 1654:2 1657:1 1658:1 1683:1 1684:1 1692:1 1696:1 1702:1 1707:1 1708:1 1709:1 1728:1 1742:1 1754:1 1778:1 1789:1 1799:2 1803:1 1805:1 1811:1 1812:1 1813:3 1815:1 1826:2 1854:3 1868:1 1882:3 1883:1 1886:1 1895:1 1898:2 1917:1 1922:1 1961:1 1968:2 1977:2 1979:1 1986:1 1994:1 2028:1 2029:1 2047:3 2051:1 2057:3 2058:2 2070:1 2071:1 2072:1 2082:1 2083:1 2114:1 2116:1 2120:1 2125:1 2127:1 2138:1 2146:1 2161:1 2183:1 2185:1 2191:1 2195:1 2202:1 2204:1 2221:1 2241:1 2249:1 2254:2 2258:1 2268:2 2302:1 2316:4 2325:1 2326:3 2331:1 2339:1 2342:1 2344:1 2346:1 2349:1 2350:2 2352:1 2358:1 2360:1 2375:1 2386:1 2389:1 2403:1 2407:2 2420:1 2423:1 2424:1 2436:1 2439:1 2443:1 2466:1 2473:1 2480:2 2486:1 2501:1 2517:1 2530:2 2532:1 2548:1 2549:1 2562:1 2574:1 2584:1 2586:1 2587:1 2603:1 2611:1 2615:1 2616:1 2620:1 2625:1 2628:1 2636:1 2641:1 2646:1 2654:1 2655:1 2679:1 2681:1 2682:1 2699:1 2705:2 2710:2 2711:1 2712:3 2728:2 2731:1 2734:4 2738:2 2741:1 2748:1 2750:1 2767:1 2768:2 2772:2 2779:1 2793:1 2801:1 2805:2 2816:1 2821:2 2846:1 2850:1 2856:1 2865:1 2868:1 2874:1 2877:1 2879:1 2884:1 2893:1 2899:3 2906:1 2907:1 2922:2 2935:1 2938:1 2966:1 2978:1 
0.001283726359028897 0.0004135440908552089 0.0001476935110832399 0.0005171155560775748 4:1 6:1 13:1 14:1 18:1 19:1 29:2 33:1 34:1 37:1 40:1 43:2 53:1 54:1 56:1 68:1 70:1 75:1 78:4 81:1 83:1 86:1 87:1 99:1 100:1 105:1 112:2 115:1 119:1 131:1 137:1 146:2 149:1 150:2 156:1 160:1 164:2 175:1 179:1 185:2 188:1 190:1 193:1 194:1 195:9 199:1 200:2 205:1 206:1 209:1 210:1 213:1 215:1 218:1 222:2 228:4 239:3 240:1 243:2 247:1 249:3 255:1 257:1 266:1 267:1 268:3 269:8 270:2 272:1 275:1 285:1 286:2 295:1 300:2 305:1 307:1 311:1 315:1 316:1 319:1 331:2 333:1 335:1 336:3 348:3 349:1 354:1 358:1 359:2 362:1 366:2 367:1 370:2 381:1 383:3 388:3 390:2 391:1 394:1 396:1 401:3 403:1 406:1 410:1 412:1 420:2 424:1 425:2 428:1 429:1 433:2 438:2 439:1 447:2 451:2 453:2 456:4 458:1 464:1 476:1 478:2 479:1 480:1 481:1 482:1 483:1 484:1 487:1 488:1 489:1 499:1 504:1 512:2 513:1 515:1 516:2 519:2 524:2 526:1 538:2 541:1 543:2 547:1 548:2 549:1 554:1 557:2 568:1 570:1 588:1 593:1 595:1 596:1 602:1 608:5 618:1 625:2 626:1 627:1 631:1 654:1 657:1 662:1 663:3 665:1 674:1 678:1 679:1 699:1 702:1 707:1 710:1 725:1 733:1 745:2 747:1 748:3 780:4 785:1 786:2 789:1 796:11 799:1 800:1 805:1 814:1 827:1 828:2 830:2 840:1 848:1 849:2 852:1 868:1 871:1 881:2 889:2 891:1 898:1 899:1 920:1 925:1 948:3 956:1 961:4 962:3 964:16 966:3 978:6 981:1 984:1 988:1 1005:1 1007:1 1011:1 1017:1 1035:1 1038:1 1042:1 1043:1 1047:1 1053:1 1057:1 1082:12 1085:1 1089:1 1093:1 1097:1 1101:1 1108:1 1112:1 1114:1 1115:1 1120:1 1129:1 1139:2 1143:1 1144:1 1145:2 1148:2 1151:1 1154:1 1156:1 1158:24 1159:2 1160:1 1162:1 1168:2 1191:1 1215:1 1226:1 1233:1 1237:8 1247:1 1254:1 1256:1 1271:1 1281:2 1285:1 1293:1 1312:1 1326:2 1331:2 1343:31 1358:1 1367:5 1374:1 1379:3 1382:1 1391:1 1392:1 1404:1 1405:1 1442:1 1444:1 1445:3 1448:1 1450:1 1451:2 1478:1 1479:2 1492:1 1498:1 1504:10 1542:1 1545:1 1554:1 1562:1 1564:1 1571:1 1579:1 1581:1 1592:1 1609:1 1611:1 1617:1 1618:2 1634:1 1643:2 1648:1 1654:1 1658:1 1669:1 1671:1 1672:1 1684:1 1685:1 1694:1 1697:3 1707:1 1721:1 1726:1 1759:1 1763:1 1767:1 1778:1 1783:1 1784:1 1796:1 1799:1 1801:1 1805:10 1839:1 1843:1 1859:2 1922:1 1926:1 1935:1 1954:1 1959:1 1961:1 1967:1 1986:1 1993:1 1997:1 2004:1 2009:1 2027:2 2030:1 2035:1 2040:2 2044:2 2051:1 2053:1 2060:1 2071:1 2075:1 2081:1 2083:2 2114:1 2116:1 2120:1 2135:1 2146:1 2161:2 2170:1 2175:1 2185:1 2196:1 2205:1 2211:1 2256:1 2258:2 2310:1 2339:1 2350:1 2354:1 2360:2 2364:1 2375:1 2385:1 2399:1 2403:1 2417:1 2440:1 2456:1 2469:1 2479:1 2485:1 2494:1 2499:1 2521:1 2532:1 2535:1 2549:2 2561:1 2567:1 2571:1 2573:1 2588:1 2590:1 2596:1 2600:1 2612:1 2616:1 2625:1 2654:1 2655:3 2661:1 2669:2 2676:1 2687:1 2700:1 2705:1 2724:1 2752:1 2767:1 2771:1 2788:1 2805:2 2811:1 2821:1 2887:1 2898:1 2901:2 2921:1 2930:1 2939:2 2940:2 2954:1 2965:1 2966:1 2974:1 2977:1 2978:1 2994:1 2999:1 
0.006575148486210596 0.01085458764515314 0.004457507382798295 0.005369328723593229 2:3 11:2 19:1 39:1 42:1 47:2 53:1 68:1 78:2 79:1 85:1 88:1 92:3 93:1 96:2 107:2 119:1 121:1 125:1 134:1 138:1 140:1 144:6 146:1 167:1 170:2 184:1 194:1 199:1 207:1 209:1 212:1 218:1 227:8 229:1 231:1 252:1 266:1 276:1 283:1 288:2 290:1 295:1 300:4 307:4 313:1 318:1 334:1 343:2 348:1 372:1 373:3 389:1 390:1 392:1 396:1 403:1 419:1 421:1 422:1 426:2 434:1 441:1 444:1 458:1 460:1 461:1 463:1 478:1 484:1 494:1 509:2 519:1 524:1 534:1 536:1 539:5 544:1 566:3 570:1 603:1 604:3 608:4 612:1 630:1 633:1 639:1 641:1 644:2 675:1 680:9 708:1 717:1 724:1 726:12 738:1 739:1 772:1 782:1 796:2 799:1 817:1 828:1 836:1 838:1 849:1 869:1 875:1 878:2 882:1 886:1 893:1 904:2 949:1 951:1 961:3 971:1 973:1 976:1 977:1 979:2 1002:1 1008:1 1043:2 1062:1 1082:1 1095:1 1101:3 1105:1 1106:1 1129:3 1130:2 1147:1 1169:1 1188:1 1210:1 1213:1 1231:1 1260:1 1274:2 1313:1 1347:1 1374:2 1384:4 1394:1 1397:1 1405:1 1409:2 1419:1 1465:1 1480:1 1495:1 1614:1 1638:1 1648:1 1669:1 1698:1 1730:1 1742:1 1753:1 1765:1 1771:1 1776:1 1800:2 1882:2 1887:1 1909:1 1931:3 1945:1 1954:1 1994:1 2022:1 2042:1 2085:2 2118:1 2191:1 2339:2 2352:5 2360:2 2525:1 2530:1 2548:1 2558:1 2602:1 2635:1 2670:1 2682:1 2694:1 2733:1 2737:1 2761:1 2770:1 2777:1 2792:1 2794:2 2795:1 2800:1 2827:1 2877:2 2882:1 2903:1 2998:1 
0.0001277216848371259 0 0.0004357471062032683 0.004745911069540462 4:2 6:1 14:1 19:1 25:2 26:1 30:1 32:1 36:1 41:1 42:1 54:1 56:1 66:1 74:1 93:1 110:1 115:2 121:1 123:1 131:2 134:1 138:1 140:3 141:2 146:2 149:1 160:2 164:1 170:1 185:1 188:1 189:1 194:1 199:3 212:1 216:1 227:3 228:1 236:1 251:1 252:1 264:1 266:2 268:1 271:1 273:1 277:1 278:1 281:1 282:1 283:1 284:1 287:4 303:1 307:1 308:1 309:1 331:1 338:1 343:1 346:1 348:5 351:1 354:2 375:1 385:1 388:1 390:2 391:2 392:2 393:1 396:1 398:3 402:1 407:1 409:1 421:2 441:1 444:1 447:3 452:1 456:1 459:2 479:1 483:1 484:1 507:1 519:1 524:2 539:3 546:1 549:1 557:2 558:1 564:1 566:1 573:1 575:1 591:1 594:1 612:1 613:1 618:1 619:1 622:1 631:1 641:1 655:1 660:1 672:1 678:1 688:1 689:1 696:1 707:1 715:1 717:1 719:1 724:1 727:1 737:2 738:1 742:1 744:3 765:2 776:1 782:1 785:1 786:1 789:1 793:1 795:2 796:1 805:1 818:1 828:1 829:1 830:1 836:1 840:1 848:1 859:1 863:1 874:1 875:1 887:1 891:1 898:1 905:1 927:1 929:1 946:1 952:1 961:1 978:1 982:1 996:1 998:1 1002:1 1030:1 1042:1 1053:2 1058:1 1127:1 1129:1 1138:1 1144:1 1149:1 1151:2 1153:1 1160:1 1168:1 1169:1 1180:2 1182:2 1202:1 1210:1 1227:1 1228:1 1233:2 1244:1 1248:1 1261:1 1274:1 1288:1 1292:1 1296:1 1310:1 1347:1 1359:1 1384:1 1401:1 1405:1 1406:1 1419:1 1424:1 1443:2 1453:1 1457:1 1480:2 1498:1 1502:1 1529:1 1537:1 1554:1 1567:1 1587:1 1593:1 1613:1 1656:1 1671:1 1672:1 1694:1 1697:1 1717:1 1728:1 1730:4 1732:1 1739:1 1742:1 1787:1 1791:1 1813:1 1839:1 1854:1 1882:1 1886:1 1914:1 1931:2 1936:1 1968:1 1997:1 1998:1 2017:1 2036:1 2051:1 2070:1 2089:1 2124:1 2151:1 2203:1 2204:1 2271:1 2292:1 2302:3 2326:1 2339:1 2350:1 2385:1 2440:1 2456:1 2521:1 2571:1 2602:1 2620:1 2635:1 2641:1 2671:1 2694:1 2705:2 2726:1 2799:1 2811:1 2821:2 2860:1 2866:1 2877:2 2897:1 2899:1 2906:2 2937:1 2998:1 
0.006212898862346262 0.006398364931997191 0.008161538358919383 0.001889688514132838 9:1 11:2 13:1 17:2 20:2 25:2 26:1 30:2 32:1 40:1 42:1 47:8 48:2 66:1 88:1 92:1 97:3 101:1 102:1 110:1 133:1 142:1 145:1 159:1 162:1 170:3 171:1 173:1 186:1 188:1 189:1 199:1 209:1 211:1 228:1 231:3 236:1 252:1 253:1 264:1 276:1 281:1 285:1 287:1 288:1 298:1 300:3 304:2 305:1 307:1 317:1 334:1 341:1 343:1 347:1 361:1 363:1 383:1 388:3 392:3 396:1 409:8 420:1 421:1 424:1 441:1 444:2 446:1 451:1 457:1 460:1 466:1 469:2 477:1 490:1 502:1 515:1 519:1 524:1 539:5 549:1 554:1 558:1 560:1 572:1 577:1 588:1 608:1 618:1 627:1 633:1 648:1 657:1 658:1 662:1 674:1 678:1 693:1 706:2 715:1 724:1 726:20 727:2 738:1 739:1 745:1 763:1 765:1 782:1 789:1 844:1 874:1 889:1 903:2 911:1 920:2 923:1 926:1 946:1 949:2 973:4 982:1 998:1 1005:1 1017:1 1047:1 1051:1 1071:1 1094:1 1127:1 1130:3 1145:1 1147:2 1148:1 1151:1 1177:1 1196:1 1202:1 1226:2 1227:1 1278:1 1322:1 1326:1 1336:1 1347:1 1378:2 1384:3 1409:1 1426:2 1427:1 1436:1 1440:1 1499:1 1500:1 1522:1 1537:1 1557:1 1567:1 1581:2 1590:1 1593:1 1646:1 1654:2 1658:1 1669:1 1698:2 1705:1 1757:1 1787:1 1791:1 1800:1 1839:1 1869:1 1882:2 1885:1 1938:1 2022:1 2053:1 2082:1 2138:1 2145:1 2146:1 2156:1 2161:1 2171:1 2204:1 2209:1 2256:1 2352:5 2404:1 2442:1 2473:1 2507:1 2525:1 2573:1 2587:2 2615:1 2636:1 2702:1 2737:1 2749:1 2796:1 2811:1 2812:1 2850:2 2879:2 2940:1 2958:1 2985:1 
0.003408915911843889 0 0 0.004237207941435012 1:2 6:1 26:1 30:1 31:1 34:1 48:1 70:1 73:1 92:5 100:1 102:1 114:1 166:1 170:4 174:1 180:1 194:1 196:1 208:1 231:1 235:1 243:1 255:1 273:1 281:1 287:1 288:2 294:2 301:1 307:1 314:1 378:1 392:3 394:1 406:1 409:3 428:1 441:1 499:1 504:1 513:1 515:1 516:2 531:1 539:5 550:2 558:1 566:1 570:2 577:1 589:1 640:1 657:1 662:1 663:1 665:2 678:2 708:1 719:2 726:2 738:4 773:1 789:2 799:1 816:1 827:1 828:2 834:1 837:1 840:1 852:1 855:1 873:1 889:1 905:1 916:1 924:1 925:1 952:2 961:2 962:1 963:1 964:1 973:2 979:1 992:1 1005:1 1025:1 1042:1 1060:1 1095:1 1101:3 1108:1 1114:1 1130:5 1139:1 1149:1 1162:1 1175:1 1182:1 1191:1 1211:1 1231:1 1244:1 1246:1 1296:1 1378:2 1381:1 1384:1 1401:1 1426:1 1440:1 1474:1 1475:1 1498:5 1562:1 1571:1 1587:1 1590:1 1617:1 1622:1 1654:2 1658:1 1683:1 1694:1 1695:1 1698:1 1703:1 1726:1 1740:1 1753:1 1754:1 1768:1 1781:1 1791:1 1800:2 1812:1 1817:1 1827:2 1857:1 1862:1 1931:1 1934:1 1988:1 2004:1 2038:1 2057:2 2072:1 2083:1 2118:1 2145:1 2150:1 2161:1 2170:2 2194:1 2202:1 2211:2 2233:1 2252:1 2258:1 2277:2 2278:1 2323:1 2346:1 2350:1 2351:1 2352:3 2395:1 2407:1 2443:1 2502:1 2532:2 2549:1 2565:1 2570:1 2612:2 2639:1 2656:1 2687:1 2738:1 2770:1 2775:1 2794:1 2811:1 2821:1 2850:1 2891:1 2907:1 2913:1 2922:1 2931:1 
0 0.002184969299707035 0 0 2:3 11:1 21:1 24:1 50:1 53:1 54:1 66:1 71:1 77:1 93:1 94:1 95:1 101:1 105:2 110:1 129:1 134:1 155:1 168:1 174:1 180:1 191:2 193:1 205:1 206:1 227:1 235:2 239:1 251:1 256:1 287:1 294:1 297:1 300:1 307:1 309:1 310:1 319:2 326:1 332:1 348:1 349:1 353:1 354:1 359:1 380:1 381:1 388:1 397:1 407:1 421:1 435:1 444:1 448:1 457:1 476:1 479:1 481:1 487:2 500:1 507:1 509:1 529:1 536:1 538:1 557:1 565:1 567:1 570:1 572:1 575:1 592:1 641:2 678:1 680:1 687:1 699:1 705:1 707:1 713:1 738:1 742:1 745:2 763:1 778:1 780:1 789:1 806:1 840:1 842:1 844:1 848:1 858:1 867:1 874:2 913:1 934:1 949:1 952:1 961:1 1002:1 1025:1 1042:1 1043:2 1093:2 1106:1 1108:1 1147:1 1155:1 1156:2 1164:1 1187:1 1190:1 1191:2 1195:1 1222:1 1240:1 1245:1 1261:1 1265:1 1271:1 1289:1 1313:1 1319:1 1341:1 1346:1 1355:1 1357:1 1367:1 1391:1 1408:1 1443:3 1463:1 1500:1 1571:1 1639:1 1643:1 1658:2 1671:2 1702:1 1705:1 1762:1 1803:1 1812:1 1826:1 1882:1 1913:1 1914:2 1961:1 1979:1 2040:1 2047:1 2117:1 2138:3 2148:1 2175:1 2211:1 2275:1 2350:1 2373:1 2404:1 2423:1 2436:1 2473:1 2475:2 2480:1 2502:1 2517:1 2582:1 2678:1 2700:2 2710:1 2721:1 2725:1 2728:1 2731:1 2811:1 2821:2 2837:1 2839:1 2884:1 2915:1 2935:1 2995:1 
0 0 0 0.003582608286302161 1:1 2:1 4:2 8:1 13:2 14:1 25:1 27:1 37:1 40:1 54:1 61:1 66:1 69:1 70:5 71:1 78:2 85:1 92:1 93:2 95:1 100:1 102:1 107:1 112:1 115:1 117:1 121:2 128:1 131:1 134:1 140:1 151:1 163:1 166:1 171:2 175:1 188:1 189:2 195:1 197:1 199:1 209:2 211:1 215:1 217:1 218:1 222:1 240:1 256:1 258:1 266:1 270:1 272:2 283:1 287:1 289:1 290:1 292:1 295:1 300:1 306:1 314:2 319:2 326:1 331:1 334:1 335:1 343:1 348:1 351:1 352:1 354:1 368:1 370:1 375:1 380:1 381:1 382:1 385:4 388:2 400:1 409:1 421:1 438:1 441:1 451:1 463:1 464:1 467:1 478:1 480:1 483:1 484:1 487:1 490:1 500:1 504:2 505:2 515:2 519:1 524:2 539:1 544:2 545:1 546:1 548:1 549:2 553:2 566:1 567:1 568:1 570:1 575:1 583:1 589:1 593:1 596:1 602:1 617:1 619:1 625:1 639:2 641:1 645:1 646:1 648:1 672:1 675:1 680:1 691:1 708:1 711:1 715:1 717:1 731:1 738:1 741:1 743:1 752:1 761:1 763:1 769:1 773:1 786:1 800:1 816:1 818:1 827:1 828:1 843:1 844:1 849:1 869:2 877:1 881:1 887:1 889:6 898:1 911:1 922:1 927:1 949:2 964:3 968:1 974:1 977:1 989:1 998:1 1002:1 1004:1 1013:1 1014:1 1029:1 1030:1 1035:2 1048:1 1057:1 1058:1 1062:2 1068:1 1071:1 1072:1 1075:1 1082:2 1085:1 1095:1 1101:1 1106:1 1113:1 1120:1 1129:1 1138:5 1140:1 1144:1 1148:1 1151:1 1153:1 1156:1 1169:1 1177:1 1191:1 1202:1 1205:1 1210:2 1213:2 1224:1 1234:2 1235:1 1244:3 1245:1 1246:1 1255:1 1265:1 1271:2 1280:1 1281:1 1292:1 1302:1 1311:2 1312:1 1319:1 1324:1 1347:1 1353:1 1357:2 1378:1 1380:1 1383:1 1389:2 1390:1 1401:1 1419:1 1427:1 1433:1 1443:1 1450:1 1465:1 1479:1 1488:1 1491:2 1498:1 1502:1 1521:1 1525:1 1541:1 1551:1 1552:1 1553:1 1567:2 1571:1 1579:1 1586:1 1590:1 1591:1 1592:1 1593:1 1597:1 1617:2 1650:1 1658:1 1688:1 1690:1 1697:2 1698:2 1704:1 1707:1 1742:1 1748:1 1754:1 1765:1 1774:1 1781:1 1782:1 1791:1 1795:1 1800:1 1805:1 1812:2 1816:1 1854:2 1862:1 1869:1 1879:1 1954:1 1963:1 1986:1 1987:1 1997:1 2004:1 2022:1 2027:1 2040:1 2044:1 2047:1 2055:1 2058:1 2067:1 2071:1 2125:1 2131:1 2138:1 2151:1 2170:1 2178:1 2188:1 2237:1 2251:1 2254:1 2278:1 2302:1 2310:1 2316:1 2326:2 2331:3 2333:1 2350:1 2360:1 2399:1 2403:1 2417:1 2465:1 2489:1 2494:1 2513:1 2529:1 2549:3 2555:1 2571:1 2600:1 2615:1 2628:1 2636:1 2651:1 2669:1 2703:1 2705:1 2712:1 2734:1 2750:1 2764:1 2767:2 2799:1 2811:1 2868:2 2884:1 2893:1 2907:1 2921:2 2940:1 2974:3 2985:2 2995:1 2998:1 
0 0 0 0.001660485723862155 4:2 6:1 18:1 20:2 25:2 26:1 29:1 32:5 34:1 36:1 39:1 40:1 56:1 64:1 66:1 69:1 70:1 74:1 75:1 78:1 85:1 87:2 97:1 99:1 104:1 105:1 107:2 109:1 110:1 120:1 128:1 133:1 137:2 140:1 144:1 145:1 146:1 159:1 163:2 173:2 183:1 185:1 188:1 193:1 196:1 197:1 199:1 208:1 213:1 222:1 236:2 239:1 240:1 244:1 256:2 258:1 265:1 268:1 278:2 281:3 283:1 286:3 287:1 288:1 289:1 298:1 307:1 309:1 310:1 324:2 331:1 332:1 334:3 343:4 344:1 347:1 348:1 351:1 355:1 359:1 375:2 377:1 388:1 398:1 403:1 406:1 420:1 423:1 424:2 429:2 436:1 438:1 457:1 459:1 463:2 470:1 478:1 479:1 484:1 490:1 499:1 503:1 514:1 515:1 519:3 524:1 532:1 535:1 543:1 546:1 549:1 558:3 564:1 570:2 575:1 593:1 602:1 608:3 613:2 618:1 631:1 639:1 648:1 663:1 667:1 673:1 699:1 713:2 727:2 731:1 736:1 738:2 748:1 759:1 761:1 763:1 779:1 782:1 786:1 805:1 807:1 814:1 818:1 840:1 843:1 848:3 849:1 852:1 865:1 868:1 872:1 873:1 878:1 886:1 892:1 901:1 906:2 911:1 921:1 924:2 929:1 942:1 946:1 948:1 951:2 952:5 961:1 962:1 964:1 970:1 989:1 998:1 1009:1 1011:1 1013:1 1014:1 1020:1 1031:1 1043:1 1057:2 1060:1 1062:1 1066:1 1071:1 1082:1 1095:1 1098:1 1101:1 1120:1 1124:1 1129:1 1151:1 1155:1 1156:1 1159:1 1168:2 1182:1 1191:1 1195:1 1196:1 1202:2 1209:1 1211:2 1214:1 1224:1 1228:2 1230:1 1236:2 1244:2 1255:1 1256:1 1257:1 1265:2 1273:1 1281:1 1285:2 1288:1 1289:2 1291:2 1292:1 1315:1 1326:1 1333:1 1341:1 1352:1 1367:2 1368:2 1378:1 1384:1 1391:2 1394:1 1397:1 1405:1 1432:1 1443:1 1448:1 1450:1 1462:1 1463:1 1473:1 1480:2 1499:2 1504:1 1513:1 1519:1 1529:1 1533:1 1537:1 1554:2 1592:1 1614:1 1637:1 1648:1 1672:1 1683:1 1694:2 1708:1 1709:1 1723:1 1726:1 1729:1 1739:1 1742:1 1744:1 1758:1 1768:2 1790:1 1791:2 1799:1 1801:1 1816:2 1822:1 1859:1 1864:1 1880:1 1882:1 1885:1 1924:2 1931:2 1951:1 1954:1 1977:1 1985:1 1986:2 1993:1 1997:1 2013:1 2017:1 2024:1 2027:2 2029:1 2040:1 2052:1 2060:1 2071:1 2075:1 2080:1 2083:1 2120:1 2128:1 2138:1 2147:1 2156:1 2158:1 2161:2 2170:1 2175:1 2196:1 2202:1 2204:2 2215:1 2228:1 2229:2 2239:1 2252:1 2268:1 2292:1 2321:1 2326:1 2331:2 2334:1 2335:2 2337:1 2341:1 2344:2 2351:2 2360:1 2375:1 2454:1 2470:1 2473:1 2499:1 2521:1 2526:1 2548:1 2568:1 2620:1 2625:1 2639:1 2681:3 2705:1 2710:1 2712:1 2726:1 2734:2 2739:1 2758:1 2767:1 2772:3 2779:1 2805:2 2811:1 2814:1 2817:2 2839:1 2901:1 2906:2 2911:2 2917:1 2927:1 2940:1 2944:1 2954:1 2966:1 2979:1 
0 0 0 0.002214833239701206 7:1 8:2 13:2 15:2 19:1 24:1 29:2 39:1 42:1 47:1 56:1 71:1 77:2 87:1 91:1 92:1 93:1 96:1 104:1 109:3 120:1 123:1 140:1 156:2 157:1 163:1 164:1 167:1 185:1 186:1 195:1 206:1 209:3 212:1 222:2 235:1 241:1 254:1 255:1 266:2 278:1 283:1 286:1 292:1 306:1 309:1 315:1 316:1 319:1 326:1 338:1 343:1 346:1 347:1 349:2 351:3 352:1 362:1 363:3 368:3 372:2 375:2 379:1 380:1 394:1 396:1 406:1 421:1 429:1 438:1 443:1 444:1 448:1 449:1 467:1 480:1 484:3 489:1 492:1 494:2 499:1 500:1 519:1 522:1 524:1 526:1 535:1 550:1 553:1 557:2 560:1 561:1 562:1 567:1 568:1 570:1 571:1 590:1 592:2 596:1 603:1 629:1 645:1 648:2 657:1 660:1 675:1 707:1 717:1 727:1 738:1 743:1 745:2 778:1 779:1 780:1 781:1 799:1 805:1 834:1 836:2 840:2 844:1 849:1 868:2 873:3 874:1 879:1 881:1 884:1 886:1 889:2 898:1 899:1 901:1 904:1 911:1 918:1 925:1 929:1 943:1 949:2 952:1 967:1 968:1 975:1 977:1 978:1 979:1 989:1 998:3 1013:1 1014:1 1020:1 1031:1 1035:1 1043:1 1047:1 1050:1 1051:1 1058:1 1082:1 1086:1 1095:1 1105:1 1113:1 1115:1 1132:1 1144:1 1145:2 1150:2 1154:1 1165:1 1169:1 1182:1 1191:1 1211:1 1213:1 1216:1 1243:1 1246:2 1261:1 1280:1 1289:1 1292:1 1303:2 1322:2 1347:1 1353:2 1357:1 1368:1 1374:1 1402:1 1423:1 1442:1 1443:2 1462:1 1463:1 1480:2 1484:1 1492:2 1498:1 1500:1 1501:1 1529:1 1541:1 1562:1 1567:1 1568:3 1587:2 1593:1 1594:1 1609:1 1616:1 1617:1 1619:1 1639:1 1649:1 1656:1 1683:1 1697:3 1698:1 1705:2 1710:1 1724:1 1732:1 1738:1 1744:1 1768:1 1781:2 1782:1 1791:1 1816:1 1837:1 1862:1 1864:2 1869:1 1885:1 1931:1 1933:1 1954:1 1961:1 1968:1 1985:1 1987:1 1993:2 1997:2 2011:1 2018:1 2027:2 2037:1 2062:1 2070:1 2082:2 2114:2 2116:1 2118:1 2138:1 2151:2 2158:1 2161:2 2170:1 2217:1 2256:1 2258:1 2278:1 2302:1 2310:1 2331:1 2333:1 2335:1 2339:1 2350:1 2367:1 2373:1 2407:1 2428:1 2464:1 2479:1 2494:1 2502:1 2519:1 2523:1 2549:2 2587:1 2612:1 2615:1 2636:1 2639:1 2641:1 2645:1 2661:1 2662:4 2669:1 2679:1 2681:1 2712:1 2738:2 2741:1 2772:2 2794:1 2795:1 2796:1 2802:1 2805:1 2820:1 2837:1 2858:1 2860:1 2868:1 2907:1 2922:2 2935:2 2939:1 2950:1 2974:1 2977:1 
0 0 0 0.0005524317125794573 6:2 7:2 8:2 10:2 11:1 13:1 20:1 24:2 25:4 26:2 27:1 32:1 34:1 35:1 37:1 43:1 46:1 48:1 54:1 56:1 61:2 65:1 66:1 67:2 68:1 70:2 73:2 74:1 75:1 77:1 78:1 79:1 83:2 86:1 90:2 91:1 92:1 93:1 94:1 100:1 102:1 103:1 105:1 109:1 114:1 117:1 119:1 120:1 123:2 128:2 131:2 132:1 133:1 139:1 140:2 146:2 147:1 149:1 150:1 155:1 156:3 159:1 160:1 163:2 170:1 173:1 175:1 179:1 180:1 183:1 184:1 185:2 188:1 193:2 195:1 196:4 199:1 205:2 206:1 211:1 213:1 222:1 228:2 235:1 236:1 239:2 249:2 252:2 265:2 266:1 272:1 276:1 277:1 279:1 281:1 282:1 287:1 289:1 290:2 292:1 295:3 297:2 298:2 300:1 301:1 304:1 305:2 311:1 314:1 326:1 332:1 334:1 348:1 349:1 355:2 362:1 368:2 372:1 379:3 381:2 382:3 385:2 388:2 391:1 392:1 396:1 400:1 403:2 406:1 410:1 412:2 421:2 425:1 427:1 429:1 438:1 440:1 445:1 447:1 451:2 455:1 456:2 458:1 460:2 461:1 464:1 465:1 467:1 478:2 482:1 484:1 497:2 500:1 505:1 509:2 511:1 512:1 515:1 517:1 545:1 546:1 547:1 548:1 549:1 550:1 557:1 559:1 562:2 565:1 568:1 569:1 575:1 589:1 595:1 596:2 597:1 606:1 608:1 612:2 617:1 618:3 619:1 625:1 628:1 629:1 631:1 636:1 639:1 641:1 642:1 658:1 660:2 665:2 672:1 693:4 698:1 699:2 704:1 705:3 707:1 710:2 724:1 733:1 735:1 738:3 745:1 748:1 759:5 760:1 761:2 763:1 778:1 780:1 782:1 783:1 785:1 786:1 788:1 789:2 793:1 794:2 799:1 804:1 805:4 818:2 823:1 830:2 839:1 840:1 848:1 849:2 852:2 858:2 863:1 865:2 868:3 869:1 870:1 872:1 873:3 874:2 879:1 889:1 890:2 893:1 898:1 901:1 903:1 904:1 911:1 913:2 916:1 917:2 924:2 927:1 929:2 937:1 943:1 951:1 956:1 961:1 962:1 967:1 968:2 979:1 982:1 983:1 984:1 987:1 990:1 998:2 1001:1 1004:1 1005:2 1007:1 1009:1 1013:1 1027:1 1030:2 1031:1 1032:1 1035:1 1045:1 1050:1 1051:2 1060:2 1062:1 1072:1 1082:1 1085:1 1086:1 1095:1 1101:2 1103:1 1105:1 1112:1 1116:1 1119:1 1120:1 1123:2 1127:1 1129:2 1136:2 1138:2 1139:2 1145:1 1146:1 1151:1 1153:2 1155:2 1157:1 1163:2 1165:1 1168:1 1172:1 1175:1 1182:2 1188:1 1191:2 1195:1 1196:2 1202:2 1204:1 1206:1 1209:1 1210:1 1215:1 1216:1 1221:1 1224:1 1230:1 1235:1 1240:1 1244:3 1250:1 1253:1 1261:3 1262:1 1270:2 1277:1 1281:2 1285:1 1288:1 1310:1 1311:1 1321:1 1322:2 1338:1 1346:2 1357:4 1361:1 1378:1 1380:1 1384:1 1408:1 1409:1 1411:1 1421:1 1423:1 1424:1 1426:2 1433:1 1435:3 1442:1 1443:1 1451:2 1457:1 1461:2 1473:1 1474:1 1491:1 1497:1 1498:1 1510:1 1511:1 1516:1 1526:2 1529:1 1537:1 1542:1 1543:2 1544:1 1549:1 1564:1 1567:2 1579:1 1581:1 1592:2 1593:1 1597:1 1611:2 1614:2 1617:2 1630:1 1634:4 1635:1 1637:1 1646:1 1654:1 1655:1 1672:2 1674:1 1685:1 1690:3 1694:1 1695:1 1696:1 1698:2 1699:1 1702:1 1707:1 1708:2 1717:1 1730:1 1737:1 1742:2 1748:1 1754:1 1764:1 1786:1 1800:2 1803:2 1812:1 1816:2 1827:1 1835:1 1839:1 1854:1 1859:2 1868:1 1880:1 1882:1 1885:1 1886:1 1896:1 1897:2 1898:1 1909:5 1914:1 1918:1 1925:2 1934:1 1940:1 1942:1 1954:3 1959:1 1961:1 1967:1 1971:1 1993:1 1995:2 2004:1 2009:1 2029:1 2030:1 2036:1 2040:4 2044:1 2047:3 2060:2 2062:1 2066:1 2071:1 2077:1 2116:1 2118:1 2120:2 2125:1 2128:2 2135:1 2138:3 2151:1 2157:1 2161:2 2162:1 2194:3 2202:1 2204:2 2215:1 2217:1 2224:1 2252:3 2257:1 2279:1 2295:1 2298:1 2316:2 2321:1 2326:2 2327:1 2331:4 2346:1 2352:2 2372:1 2379:1 2390:1 2396:3 2407:2 2437:1 2451:1 2460:1 2473:1 2478:1 2480:1 2504:1 2505:2 2506:4 2517:1 2526:1 2532:2 2548:1 2549:2 2577:1 2582:2 2588:1 2600:1 2610:1 2611:2 2612:1 2615:1 2631:1 2635:1 2636:2 2662:1 2678:1 2681:2 2682:1 2687:1 2690:1 2693:1 2698:1 2700:2 2703:1 2705:1 2707:1 2710:3 2712:1 2713:1 2718:1 2721:1 2733:2 2734:2 2737:2 2749:2 2760:1 2764:1 2767:1 2772:2 2795:2 2796:1 2799:3 2801:1 2811:1 2814:2 2815:1 2817:1 2819:1 2823:1 2851:1 2868:1 2879:1 2884:1 2890:1 2914:1 2922:2 2925:1 2933:1 2935:1 2937:2 2938:3 2942:1 2952:1 2965:1 2997:1 2998:1 
0.003015473911368391 0.00293515211404258 0.000897029085929755 0.003644668911365916 2:1 9:1 11:1 13:2 32:1 34:1 43:3 47:1 54:1 56:2 68:2 73:1 77:1 81:1 84:1 90:1 98:1 104:1 105:1 107:1 144:2 150:1 155:1 156:1 164:1 170:1 180:1 184:1 191:1 192:1 193:1 197:1 199:1 209:1 212:1 215:1 218:1 227:1 228:2 229:2 262:1 273:2 276:1 277:1 280:1 287:2 295:1 311:1 345:1 347:1 350:2 352:1 353:1 355:1 359:1 366:1 375:1 396:2 398:1 403:1 411:2 415:1 421:1 425:1 427:1 428:1 435:1 451:1 463:1 467:2 468:1 469:2 483:1 497:1 504:1 511:1 512:1 526:1 533:1 548:1 551:1 558:1 565:2 567:1 570:1 572:1 596:1 603:1 608:1 617:1 618:1 641:1 648:1 651:1 657:1 662:1 665:1 667:1 675:1 685:1 706:1 725:1 729:1 731:1 767:1 786:1 789:1 793:2 804:2 805:1 823:1 849:1 860:1 865:1 867:1 873:1 874:1 881:1 891:1 920:1 930:1 949:3 957:1 961:1 964:1 978:2 980:1 981:1 1011:1 1014:1 1017:2 1030:1 1043:1 1048:1 1053:1 1071:1 1082:1 1089:1 1105:1 1112:1 1114:1 1127:1 1130:2 1144:1 1145:1 1150:1 1153:3 1162:2 1165:1 1172:1 1196:1 1244:1 1259:1 1265:1 1274:2 1275:1 1276:1 1281:1 1288:1 1296:1 1310:1 1315:1 1332:1 1352:1 1368:2 1380:1 1397:1 1407:1 1413:1 1419:1 1424:1 1435:1 1451:1 1474:1 1480:3 1491:1 1541:1 1542:1 1543:1 1554:2 1564:1 1610:1 1637:1 1645:1 1650:1 1655:1 1672:1 1674:1 1708:1 1709:1 1754:1 1787:2 1813:1 1815:1 1864:1 1882:1 1908:1 1910:1 1911:1 1922:1 2017:1 2022:1 2058:1 2073:1 2090:1 2102:1 2105:1 2138:1 2147:1 2185:1 2196:1 2199:1 2221:1 2258:1 2283:1 2344:2 2346:1 2372:1 2373:1 2375:1 2404:1 2443:1 2451:1 2469:1 2541:1 2548:1 2561:1 2586:1 2599:1 2615:2 2616:2 2656:1 2676:1 2678:1 2679:1 2682:1 2687:1 2690:1 2699:1 2737:1 2749:2 2769:1 2794:1 2821:1 2839:1 2868:1 2870:1 2899:1 2928:1 2938:1 2974:1 
0.009010548738000038 0.001429679841430703 0 0.0007821239325915336 29:1 70:1 73:1 76:1 82:1 96:1 109:1 110:1 138:1 147:1 160:1 163:1 173:1 185:1 290:1 338:1 349:1 367:1 372:1 375:1 441:1 446:1 451:2 490:1 499:1 504:1 511:1 515:2 538:2 550:1 557:1 630:1 639:1 658:2 688:1 780:2 787:2 788:1 836:1 839:1 840:1 843:1 881:1 898:1 913:1 918:1 927:2 946:1 964:1 973:3 1108:1 1156:2 1179:1 1191:2 1233:1 1265:1 1331:1 1405:1 1442:1 1562:1 1610:1 1644:1 1694:1 1699:1 1707:1 1708:1 1753:1 1762:1 1781:1 1789:1 1816:1 1901:1 1910:1 2022:1 2151:3 2158:1 2170:1 2175:1 2194:1 2299:1 2351:1 2374:1 2378:1 2417:1 2480:1 2529:1 2549:1 2614:1 2616:1 2667:1 2681:1 2690:1 2764:1 2808:2 2822:1 2906:1 2917:1 2921:1 
0 0.0003771093136830078 0 0.0006033768915767922 3:1 4:2 6:1 7:1 8:1 11:1 12:1 24:1 25:3 26:1 32:2 34:2 35:1 36:1 37:1 39:1 42:1 48:1 53:1 56:1 62:1 68:1 70:2 71:1 73:2 74:1 77:3 78:3 79:1 81:3 82:1 83:1 84:1 89:1 95:2 96:1 97:1 102:3 105:2 107:2 117:1 119:1 120:2 123:1 124:1 128:1 132:1 134:1 140:2 141:4 143:1 144:2 146:1 148:1 154:1 156:2 159:1 166:1 167:2 173:1 175:2 180:1 182:1 185:1 187:1 188:2 189:2 192:2 194:2 195:2 196:1 198:1 209:1 217:1 222:1 227:3 228:2 240:2 247:1 252:1 259:1 260:1 262:1 264:1 267:1 268:1 270:1 276:3 277:1 279:1 280:2 281:4 286:2 287:1 295:1 296:1 297:1 300:1 301:1 302:1 303:1 304:1 309:1 315:1 317:1 319:1 320:1 323:1 326:2 327:1 330:2 332:1 334:2 335:1 341:1 343:1 348:3 349:3 355:2 366:1 367:3 371:1 379:1 380:1 385:2 388:1 390:1 391:1 396:2 398:1 400:2 401:1 403:2 406:1 407:2 410:1 411:1 412:2 419:1 420:3 421:2 424:1 425:2 428:1 438:1 440:1 441:2 442:1 445:1 447:2 449:2 452:1 456:1 458:2 460:1 463:1 464:1 467:3 468:1 473:1 476:1 478:1 482:1 487:2 494:1 497:2 503:2 504:1 505:3 507:1 509:2 516:1 531:1 536:1 538:2 541:1 564:1 565:2 568:2 577:1 590:3 594:1 596:1 602:1 604:2 606:1 608:2 615:1 617:1 625:2 627:1 629:1 633:2 637:2 640:1 641:1 651:1 657:1 658:1 669:1 678:1 688:1 693:1 695:1 699:2 704:1 705:1 707:1 713:1 715:1 725:3 736:2 739:1 743:1 747:1 761:1 762:1 765:1 770:1 771:1 773:1 779:1 782:2 786:1 787:1 788:2 796:1 805:1 814:1 817:1 832:2 839:1 844:1 847:1 848:3 849:1 852:4 854:1 865:1 869:1 873:1 874:1 878:1 879:1 887:2 889:3 901:1 905:1 906:2 910:2 911:1 920:1 922:2 923:1 924:2 930:1 937:1 948:3 949:2 952:2 961:1 962:2 966:2 970:1 972:1 973:2 978:1 1001:2 1004:1 1013:3 1017:2 1025:2 1030:5 1035:3 1036:1 1042:1 1050:2 1051:1 1058:1 1060:1 1061:1 1071:2 1073:1 1082:3 1095:2 1097:2 1103:1 1105:1 1108:1 1112:1 1114:2 1116:1 1120:1 1129:1 1144:1 1145:1 1152:1 1153:1 1156:1 1158:2 1161:1 1164:1 1168:1 1169:1 1173:2 1181:2 1191:1 1195:1 1216:1 1224:2 1226:2 1228:1 1230:1 1234:1 1241:1 1242:1 1246:2 1255:5 1260:1 1261:1 1265:1 1270:1 1271:2 1273:2 1276:1 1281:2 1288:1 1289:1 1291:1 1316:1 1331:4 1343:2 1355:1 1361:1 1374:1 1380:2 1392:1 1394:1 1396:1 1405:4 1406:1 1408:1 1412:2 1424:1 1431:1 1443:2 1461:1 1462:1 1463:1 1464:1 1474:1 1479:1 1480:2 1488:1 1491:2 1492:1 1501:2 1502:1 1504:4 1519:1 1537:1 1542:1 1549:1 1564:2 1575:1 1579:1 1587:3 1593:1 1607:1 1617:1 1644:1 1650:1 1654:1 1656:1 1658:1 1671:1 1672:2 1678:1 1694:1 1697:1 1698:1 1705:5 1709:1 1730:2 1742:2 1757:1 1762:1 1765:1 1778:2 1781:1 1786:1 1790:1 1799:1 1800:2 1811:2 1812:1 1817:1 1822:1 1852:1 1854:2 1859:2 1867:1 1869:1 1882:1 1885:1 1886:4 1895:1 1922:1 1924:1 1954:1 1961:4 1968:1 1987:2 1993:1 1994:1 1998:1 2004:1 2022:1 2026:1 2027:2 2037:1 2038:1 2047:1 2057:3 2060:1 2066:1 2071:2 2085:1 2092:1 2120:1 2128:1 2135:1 2146:1 2151:1 2162:2 2178:1 2196:1 2204:2 2221:1 2228:1 2235:1 2256:3 2258:1 2274:1 2279:1 2299:1 2326:2 2331:1 2350:1 2351:1 2356:1 2360:4 2362:1 2366:1 2379:1 2385:1 2420:1 2436:1 2443:4 2476:2 2480:1 2517:1 2544:1 2600:1 2611:1 2615:1 2616:1 2620:2 2654:2 2655:1 2660:1 2661:1 2662:1 2681:1 2703:1 2707:1 2711:1 2721:1 2733:1 2760:1 2767:1 2773:1 2777:1 2794:1 2804:1 2805:1 2808:1 2811:3 2814:2 2817:1 2821:3 2843:1 2850:1 2860:1 2879:1 2884:1 2886:1 2890:1 2899:1 2901:1 2906:1 2907:1 2915:2 2921:1 2929:1 2933:1 2935:1 2938:3 2963:1 2966:2 2971:1 
0 0 0 0.0009964552617142536 8:1 24:1 25:1 32:1 34:1 35:1 48:2 50:1 66:2 70:1 83:2 87:1 91:1 96:1 100:1 104:2 128:1 129:1 139:1 166:1 170:1 191:2 193:1 194:2 195:1 205:1 206:1 208:2 212:1 218:1 228:2 239:1 243:1 251:1 253:1 266:1 268:1 284:1 286:1 300:3 304:1 308:1 319:1 324:1 326:1 334:1 335:1 343:1 344:1 353:1 372:1 381:1 385:2 396:1 399:1 420:1 441:1 451:2 453:4 456:1 463:1 465:1 467:1 468:1 470:1 478:1 479:1 495:1 497:1 500:2 504:1 507:1 509:1 512:1 513:1 517:1 532:1 535:1 538:2 544:2 549:2 550:1 558:2 559:1 585:1 604:1 618:1 631:2 641:3 658:1 660:1 665:1 669:1 675:1 688:1 693:1 702:1 706:2 713:1 724:2 744:2 770:1 773:1 776:1 831:1 844:1 848:2 873:1 882:1 889:1 904:1 906:1 911:1 924:1 943:1 952:1 966:1 968:1 973:1 984:2 989:1 1017:1 1025:1 1035:1 1043:2 1045:1 1060:2 1063:1 1118:1 1123:1 1150:2 1151:1 1154:1 1191:2 1202:1 1213:1 1215:1 1227:1 1235:2 1242:1 1243:1 1246:1 1255:1 1266:1 1271:1 1281:2 1285:1 1291:1 1302:1 1331:2 1357:1 1380:1 1422:1 1426:1 1443:1 1461:1 1471:1 1499:1 1513:1 1518:1 1564:2 1567:1 1571:1 1584:1 1592:1 1593:2 1616:1 1639:1 1646:1 1658:1 1684:1 1699:1 1705:1 1719:1 1740:1 1778:1 1781:1 1787:1 1797:1 1800:1 1882:1 1925:2 1934:1 1954:1 1995:1 2017:1 2022:1 2027:1 2028:1 2057:1 2082:1 2116:1 2118:1 2125:1 2151:1 2156:1 2170:1 2204:2 2221:1 2277:1 2321:1 2339:1 2350:1 2352:1 2360:1 2372:1 2407:1 2420:1 2478:1 2494:1 2549:1 2562:1 2573:1 2575:1 2582:1 2678:1 2681:1 2711:1 2712:1 2731:1 2767:1 2772:1 2837:2 2858:1 2877:1 2901:1 2906:2 2921:1 2928:1 2965:1 2977:1 2986:1 
0.01743426277986731 0.01429761603290952 0.009992707643597706 0.007128984909146117 35:1 47:1 66:1 76:1 87:1 115:1 144:1 154:1 188:1 191:1 210:1 215:1 229:1 237:1 383:1 425:1 438:1 444:1 502:1 505:4 515:1 519:1 533:1 553:1 815:1 830:1 844:2 848:1 884:1 898:1 973:1 1130:1 1138:1 1151:1 1216:1 1325:1 1390:1 1405:1 1474:1 1564:1 1644:1 1730:3 1734:1 1799:1 1882:1 1961:1 1998:1 2204:2 2476:1 2494:1 2518:1 2811:1 2821:1 
0 0.001127964725154658 0 0.002021702790665217 3:1 10:1 12:1 13:1 17:1 24:2 26:1 27:1 34:1 39:1 43:1 57:1 65:1 75:1 81:4 87:1 89:1 90:1 94:1 97:1 99:1 102:2 105:3 106:1 108:1 119:2 120:1 123:2 140:1 157:1 160:1 170:1 173:1 174:1 175:1 177:1 180:1 182:1 186:1 191:1 193:1 196:1 209:1 222:1 229:1 235:1 236:3 247:1 257:2 258:1 264:1 268:2 270:1 271:1 278:1 283:1 289:1 292:1 295:1 309:1 310:2 311:2 316:1 318:1 332:1 334:2 336:1 338:1 343:1 348:1 349:1 353:1 354:2 355:1 358:1 359:2 364:1 366:2 371:2 379:1 380:1 381:1 382:1 385:2 388:1 390:1 401:3 402:1 403:1 413:1 420:1 429:1 441:3 445:1 446:1 453:2 456:1 460:1 464:1 468:1 479:3 494:1 495:2 497:1 499:1 501:2 512:2 515:3 517:2 522:1 526:1 528:1 536:1 551:1 553:1 567:1 572:1 577:1 592:2 595:1 596:1 602:1 603:3 604:1 608:3 613:2 615:1 617:1 627:1 635:1 637:1 641:1 642:1 648:1 662:1 663:1 665:1 667:1 675:1 688:1 707:1 708:1 712:1 713:2 733:1 736:1 742:1 748:1 778:3 782:1 783:1 786:1 788:1 796:4 799:1 810:1 836:1 839:1 840:2 845:1 849:1 865:3 867:1 868:1 871:1 883:1 889:3 916:1 925:1 926:1 948:3 949:4 952:4 959:1 961:1 962:1 964:1 967:1 987:1 1002:1 1014:1 1025:2 1032:2 1035:2 1042:1 1051:1 1053:1 1057:1 1059:1 1060:2 1072:1 1082:1 1086:1 1089:1 1093:1 1096:1 1097:1 1100:1 1103:2 1105:1 1106:2 1112:2 1113:1 1115:1 1116:1 1125:1 1129:1 1138:2 1139:1 1140:1 1149:1 1151:2 1153:2 1158:1 1160:1 1163:2 1165:1 1171:1 1187:1 1190:1 1202:1 1228:1 1237:3 1243:1 1246:1 1265:1 1291:2 1308:1 1310:2 1312:1 1319:1 1331:1 1340:1 1347:1 1357:1 1367:1 1382:1 1384:2 1422:2 1435:1 1444:1 1462:1 1463:1 1474:1 1490:1 1504:1 1505:1 1545:1 1549:1 1552:1 1554:1 1562:1 1579:3 1617:1 1644:1 1655:1 1672:1 1694:1 1697:1 1698:1 1705:1 1707:1 1730:1 1732:1 1748:1 1754:1 1775:1 1778:1 1782:1 1789:1 1799:1 1811:1 1816:1 1876:1 1897:1 1898:1 1909:1 1910:1 1916:1 1919:1 1922:1 1942:1 1954:1 1959:1 1968:1 1993:3 1994:1 2022:1 2028:1 2051:1 2057:1 2082:1 2114:1 2118:1 2128:1 2146:1 2151:1 2158:1 2179:1 2194:1 2202:1 2204:2 2232:1 2238:1 2239:1 2256:1 2258:1 2268:1 2306:1 2310:2 2316:1 2326:1 2331:1 2346:1 2350:1 2352:1 2360:2 2378:1 2383:1 2386:1 2404:1 2425:1 2473:2 2479:1 2480:1 2498:2 2526:1 2535:1 2564:1 2573:1 2575:1 2581:1 2587:1 2615:1 2616:1 2636:1 2639:1 2662:2 2665:1 2681:1 2690:1 2694:1 2699:1 2710:1 2711:1 2712:1 2716:1 2726:1 2733:1 2734:2 2736:1 2741:1 2749:1 2758:2 2771:1 2779:1 2796:1 2800:1 2811:1 2821:2 2839:2 2850:4 2868:1 2899:2 2903:1 2906:2 2918:1 2925:1 2944:1 2952:2 2957:1 2972:1 2986:1 
0 0 0 0.002056336676190533 2:3 4:1 7:3 8:1 10:1 12:1 13:1 14:1 17:3 18:2 19:1 24:1 25:1 26:1 29:2 33:1 34:1 35:1 39:1 42:1 43:2 48:3 50:1 54:1 62:1 66:1 67:1 69:1 74:1 75:1 77:2 78:2 79:3 81:1 83:6 85:1 86:1 89:1 90:1 91:2 92:1 94:4 95:3 100:1 101:1 102:1 104:2 107:1 109:1 114:1 120:3 131:2 138:2 144:2 154:1 156:2 157:1 158:1 161:2 162:1 163:1 164:4 168:1 170:1 171:1 173:1 174:1 177:1 178:1 179:1 182:2 184:1 185:1 191:1 194:1 196:2 198:2 202:1 205:2 206:2 208:1 209:1 211:1 213:1 215:1 218:1 219:1 220:1 222:3 227:3 228:1 235:1 239:3 252:1 255:1 256:2 257:1 265:1 268:1 269:2 270:2 272:1 273:1 275:1 276:1 277:1 280:1 281:1 282:1 283:1 284:1 286:1 287:1 288:1 289:2 290:3 298:1 301:1 303:2 304:1 311:3 324:1 331:1 334:3 335:1 336:1 340:1 341:1 343:1 345:1 347:4 349:1 350:1 351:2 354:1 355:1 358:2 367:1 368:2 370:1 371:2 372:1 375:1 378:1 379:2 380:1 381:1 382:5 383:2 388:1 394:2 396:2 398:2 400:1 402:2 403:1 410:2 413:1 420:2 421:1 425:2 433:2 435:1 441:1 442:1 447:1 451:2 453:4 455:1 456:1 457:2 458:2 463:1 464:2 465:1 470:1 480:2 482:2 489:1 491:2 492:1 494:2 495:2 497:2 498:1 500:2 503:2 504:1 511:2 512:2 515:3 518:1 526:1 527:1 528:1 529:1 535:1 536:1 538:1 541:2 543:1 546:1 548:2 550:1 554:1 557:1 558:3 559:1 560:4 564:4 565:2 566:1 567:1 570:1 574:1 581:1 587:2 589:1 591:1 592:1 593:1 595:2 596:2 602:1 603:2 604:1 606:1 613:1 617:4 625:1 631:1 633:1 637:1 641:3 645:1 648:2 652:1 656:1 658:1 665:2 669:1 674:1 678:1 686:1 687:1 688:1 699:2 702:1 705:1 706:4 708:1 710:1 711:1 715:1 721:1 731:1 733:1 736:2 738:2 741:1 744:1 745:1 747:1 748:1 759:1 761:1 762:1 773:3 779:1 780:2 786:1 795:1 799:2 804:3 806:1 811:2 815:1 817:1 818:3 823:1 827:2 830:1 837:1 840:2 844:3 847:1 848:1 849:1 851:1 852:1 868:2 869:1 871:2 873:1 874:4 875:1 877:1 878:1 881:1 885:1 887:2 890:2 891:1 892:1 898:1 899:1 903:1 913:1 922:2 923:1 924:1 925:1 927:1 929:1 931:2 933:1 934:1 943:1 951:2 952:5 961:1 962:1 965:1 966:2 968:1 970:1 987:2 992:1 995:1 998:1 1001:2 1002:2 1013:1 1016:1 1021:1 1025:1 1030:2 1032:1 1035:1 1036:2 1043:2 1044:1 1047:2 1050:1 1051:4 1053:1 1056:1 1057:2 1058:1 1063:1 1068:1 1071:1 1082:2 1093:2 1095:1 1101:1 1103:2 1105:1 1116:2 1120:1 1121:1 1129:2 1136:3 1140:2 1144:1 1145:2 1146:1 1150:1 1151:1 1153:2 1154:1 1156:1 1162:1 1163:2 1168:1 1172:2 1181:1 1182:2 1188:1 1190:1 1195:2 1196:2 1201:1 1202:1 1209:1 1210:5 1228:2 1230:2 1233:2 1234:1 1235:1 1237:2 1241:1 1244:4 1245:1 1252:1 1260:3 1261:1 1271:2 1285:2 1288:4 1291:4 1292:1 1296:2 1302:1 1309:1 1310:1 1321:1 1326:1 1331:1 1333:1 1335:1 1347:1 1352:1 1354:1 1357:4 1360:1 1361:1 1367:1 1368:1 1380:1 1388:1 1394:1 1406:2 1407:1 1408:1 1409:1 1415:2 1430:1 1432:2 1433:1 1437:2 1442:1 1443:1 1448:2 1451:2 1453:1 1454:1 1461:2 1463:1 1469:1 1471:2 1473:2 1492:1 1498:1 1502:1 1506:1 1513:1 1518:1 1519:1 1523:1 1526:1 1529:3 1535:1 1542:1 1543:1 1553:1 1554:2 1556:1 1564:1 1568:2 1577:1 1578:1 1579:1 1581:1 1592:5 1593:1 1597:1 1607:1 1609:1 1614:1 1618:1 1622:1 1637:1 1639:3 1644:1 1648:1 1650:1 1652:1 1658:1 1672:2 1683:2 1685:2 1687:1 1690:1 1697:2 1702:1 1703:1 1704:3 1705:5 1708:3 1726:4 1728:1 1734:1 1742:2 1748:1 1761:2 1765:4 1778:1 1781:2 1790:1 1791:1 1799:3 1800:1 1805:1 1811:2 1816:4 1835:1 1839:1 1847:1 1857:1 1859:1 1869:3 1879:1 1885:1 1897:1 1909:1 1916:1 1919:1 1931:1 1933:1 1936:1 1949:1 1951:1 1967:2 1971:1 1979:1 1983:1 1986:2 1987:1 1993:1 1997:1 1998:1 2009:1 2013:1 2018:1 2022:3 2027:1 2040:1 2044:2 2047:2 2066:1 2070:1 2071:3 2073:1 2075:1 2077:1 2081:2 2082:1 2085:1 2093:1 2104:2 2106:1 2113:1 2114:2 2116:1 2117:1 2118:1 2120:2 2138:1 2146:2 2150:1 2155:1 2156:1 2157:1 2161:2 2166:1 2170:1 2178:1 2181:1 2183:1 2185:3 2194:2 2202:2 2203:1 2204:5 2205:1 2212:1 2221:2 2238:2 2252:1 2258:2 2279:1 2292:1 2299:2 2310:3 2314:1 2316:2 2321:1 2333:1 2335:1 2344:2 2350:2 2357:2 2372:1 2379:1 2386:1 2390:1 2396:1 2404:2 2423:1 2425:3 2436:1 2437:1 2443:1 2468:1 2480:1 2488:1 2523:2 2529:2 2535:1 2548:1 2571:1 2582:2 2587:2 2603:1 2614:1 2615:3 2616:1 2625:1 2632:1 2635:1 2636:2 2639:1 2655:2 2656:1 2662:1 2667:1 2676:1 2678:1 2682:1 2683:1 2690:2 2699:1 2700:1 2703:1 2705:1 2706:1 2710:1 2711:2 2712:1 2721:1 2724:1 2734:3 2738:2 2752:1 2754:1 2764:2 2767:2 2770:1 2779:1 2790:1 2793:1 2795:2 2800:1 2801:4 2805:1 2811:3 2814:1 2816:1 2821:1 2826:1 2827:1 2830:1 2835:1 2839:1 2861:1 2865:1 2870:1 2893:1 2906:3 2911:1 2912:1 2917:1 2923:1 2927:1 2928:2 2937:2 2939:1 2944:1 2965:1 2966:1 2971:2 2974:2 2977:1 2985:1 2998:2 
0.004557040775665934 0.005845968638239212 0.005908510920962342 0.008104634512178428 30:1 33:1 34:1 57:1 87:1 90:1 91:1 100:1 101:1 121:1 123:1 137:1 146:1 154:1 186:1 190:1 212:3 215:1 235:1 268:1 271:1 280:2 291:1 304:1 314:1 319:1 330:1 332:1 335:1 347:1 349:1 381:1 388:1 400:1 406:1 411:2 424:1 429:1 462:1 469:1 505:1 509:2 516:1 538:2 553:1 565:3 583:1 608:2 615:1 627:1 678:1 688:1 699:1 727:1 743:1 759:1 767:1 773:1 805:1 836:1 844:1 889:1 906:1 917:1 964:2 972:1 973:1 978:1 989:1 1013:1 1032:1 1042:1 1050:1 1082:1 1097:1 1103:1 1107:1 1108:1 1130:1 1155:1 1175:1 1181:2 1233:1 1246:1 1255:1 1256:1 1273:1 1281:1 1310:1 1346:2 1378:1 1380:1 1397:1 1406:2 1407:1 1421:1 1435:1 1442:1 1480:3 1483:1 1504:1 1554:3 1567:1 1574:1 1593:1 1614:1 1618:1 1644:1 1695:1 1717:1 1757:1 1806:1 1809:1 1872:1 1936:1 2044:1 2073:2 2146:1 2148:1 2183:1 2185:1 2287:1 2296:1 2309:1 2339:1 2350:1 2473:1 2616:1 2687:1 2703:1 2793:1 2808:1 2816:1 2821:1 2848:1 2897:1 2906:1 2921:2 
0 0 0 0.0001768286682629811 4:3 8:1 10:2 11:1 18:1 26:2 29:1 34:4 37:3 39:1 40:1 42:1 43:1 47:1 53:1 56:1 65:1 66:1 67:2 70:2 71:2 75:1 77:2 78:1 79:1 81:2 83:2 87:1 94:1 95:3 96:1 97:1 98:1 100:1 104:3 105:1 107:1 109:1 115:1 119:3 120:1 125:1 133:1 140:1 144:1 147:2 148:1 150:1 152:1 155:1 156:3 157:1 160:3 163:1 164:1 167:1 169:1 170:1 173:1 175:2 178:1 182:2 186:1 196:5 199:1 200:1 202:1 205:1 208:1 209:1 212:1 215:1 217:1 222:1 228:1 233:1 235:1 236:3 237:1 239:3 240:2 249:1 251:1 252:2 263:1 265:1 268:1 269:1 272:2 273:1 276:1 277:3 279:1 280:1 281:1 285:1 286:4 288:2 289:1 290:2 300:1 301:2 304:3 307:1 308:1 309:2 314:1 315:1 318:1 319:1 326:1 329:1 330:1 332:2 334:2 335:1 336:2 338:1 343:4 346:1 347:2 348:1 351:2 356:1 358:2 363:2 364:1 367:1 368:3 372:3 379:2 380:2 382:1 383:1 385:1 388:1 389:1 391:1 396:1 399:1 400:4 403:1 406:1 407:1 409:1 411:1 416:1 419:1 420:1 421:2 422:1 425:1 426:2 429:1 438:1 439:1 441:2 442:1 445:1 446:1 450:1 451:1 453:1 458:1 464:2 465:1 468:1 472:1 478:1 479:1 481:2 482:1 483:1 484:1 488:1 489:1 492:1 494:6 497:1 499:1 501:1 503:1 511:1 513:1 515:1 517:4 524:2 529:1 531:2 533:1 536:2 538:1 539:1 545:1 549:2 553:1 557:5 558:1 565:2 569:1 571:1 581:1 585:1 589:3 596:2 599:1 602:1 604:1 606:1 614:1 615:1 617:1 618:3 621:1 625:1 627:1 631:4 634:2 637:3 639:2 641:1 645:2 657:2 658:2 665:1 666:1 671:1 685:1 688:1 689:1 706:1 707:4 710:1 715:1 726:1 731:1 736:1 741:2 744:2 745:1 755:1 759:1 763:1 765:2 767:1 768:1 771:1 773:1 776:2 780:1 783:2 788:1 805:2 806:1 814:4 815:1 818:1 823:1 827:1 829:1 838:1 839:1 840:2 843:1 844:1 848:3 849:2 852:2 858:1 860:2 863:1 868:3 869:1 872:1 873:2 874:3 875:1 877:1 887:4 891:2 892:1 898:1 905:2 906:1 911:1 913:1 916:1 920:1 926:1 927:3 931:1 932:1 943:1 946:1 948:1 949:1 950:1 952:2 957:2 964:1 966:2 972:1 984:1 999:1 1000:1 1002:1 1005:1 1009:1 1013:1 1014:1 1015:1 1024:1 1025:2 1030:1 1035:1 1039:1 1042:1 1043:1 1045:1 1051:1 1057:1 1071:2 1073:1 1075:2 1082:1 1083:1 1086:2 1097:1 1098:1 1101:1 1105:1 1106:2 1112:1 1113:1 1120:2 1121:1 1123:1 1129:1 1133:1 1135:1 1138:1 1140:1 1143:2 1144:1 1149:3 1150:2 1152:2 1156:1 1162:1 1163:1 1168:2 1169:1 1172:1 1175:2 1176:1 1181:1 1188:2 1191:3 1195:1 1196:1 1206:1 1210:1 1211:2 1212:1 1213:2 1217:1 1228:1 1234:1 1235:1 1237:1 1240:1 1244:3 1245:1 1246:1 1247:1 1248:1 1252:1 1255:1 1267:1 1271:3 1281:4 1285:1 1287:2 1289:1 1292:1 1302:3 1310:2 1326:1 1333:2 1335:1 1341:3 1347:2 1348:1 1352:1 1355:2 1363:1 1374:1 1375:1 1380:2 1384:1 1388:1 1391:1 1405:2 1407:1 1409:1 1411:2 1413:2 1416:1 1422:1 1442:1 1443:2 1444:1 1448:2 1451:2 1462:1 1467:1 1478:2 1502:1 1513:1 1519:1 1522:1 1525:1 1531:1 1545:1 1546:1 1549:1 1552:1 1556:1 1562:1 1567:1 1586:1 1591:1 1592:1 1594:1 1609:2 1610:1 1614:4 1618:1 1637:1 1643:1 1644:1 1646:1 1650:4 1654:1 1656:2 1658:4 1671:1 1672:2 1683:1 1685:2 1689:1 1694:2 1698:1 1705:1 1708:1 1709:1 1726:1 1742:2 1746:1 1749:1 1757:1 1758:1 1768:1 1782:1 1790:2 1811:1 1816:1 1822:1 1823:1 1835:1 1839:3 1850:1 1859:1 1868:1 1882:2 1885:2 1886:2 1898:1 1917:1 1922:2 1924:1 1925:2 1931:1 1954:3 1963:1 1968:1 1971:1 1986:3 1987:1 1988:1 1995:1 1997:1 2004:2 2013:1 2022:1 2027:2 2028:1 2029:1 2030:1 2040:1 2044:1 2070:1 2071:1 2075:2 2082:1 2083:2 2118:1 2120:2 2138:1 2142:1 2144:1 2146:1 2161:6 2162:1 2182:1 2183:2 2202:1 2204:2 2205:1 2212:1 2229:1 2235:1 2237:1 2238:1 2256:1 2258:1 2277:1 2302:1 2310:1 2321:1 2331:6 2333:1 2335:2 2358:1 2362:1 2380:1 2383:1 2385:1 2386:1 2394:1 2396:1 2397:1 2424:1 2425:1 2440:1 2454:2 2465:1 2473:2 2485:1 2490:1 2494:2 2502:1 2506:1 2517:2 2519:1 2523:1 2528:1 2532:2 2535:1 2548:1 2549:1 2584:1 2587:1 2590:1 2600:1 2614:1 2615:1 2626:1 2636:2 2662:1 2667:1 2669:1 2670:1 2678:2 2681:1 2710:2 2711:1 2712:1 2716:1 2718:2 2726:1 2733:1 2737:1 2738:1 2741:1 2749:1 2758:2 2764:1 2767:3 2772:1 2777:1 2779:1 2793:2 2795:1 2799:2 2805:1 2808:1 2811:1 2814:1 2827:1 2846:1 2852:1 2906:1 2928:1 2929:1 2933:1 2935:2 2938:1 2940:2 2964:1 2966:2 2977:2 2980:1 2985:1 2986:1 2994:1 2995:1 2998:1 
0 0 0 0.002983427072875661 2:1 4:2 5:1 7:1 8:1 13:1 16:1 18:2 19:1 20:1 25:1 26:1 29:1 32:1 33:2 35:1 37:1 46:1 56:1 61:1 66:1 68:1 69:2 70:2 77:1 82:1 83:1 90:1 92:1 94:1 95:1 96:1 97:1 98:1 99:1 102:1 105:1 112:2 115:1 119:1 128:3 133:2 137:1 138:1 139:1 151:1 152:1 153:1 156:1 157:1 164:1 168:1 171:1 174:1 175:1 179:1 182:1 193:1 194:4 195:3 196:3 198:1 204:1 206:1 215:2 218:5 222:2 240:1 253:1 254:1 255:1 266:1 268:3 273:1 277:2 278:1 279:1 281:2 286:2 289:1 294:1 295:4 300:1 306:2 311:1 314:2 316:3 317:1 318:1 335:1 336:1 347:1 349:1 354:1 355:1 359:1 366:2 367:1 368:2 375:1 378:1 380:1 381:1 382:1 383:4 385:1 388:2 389:4 392:2 393:1 394:1 396:1 397:1 398:1 401:1 403:3 407:1 420:1 423:1 425:2 426:1 429:1 436:1 440:1 441:2 442:1 446:1 449:1 453:3 456:2 459:2 461:1 463:1 465:2 468:1 478:1 481:1 484:1 487:2 488:4 489:1 492:1 494:2 495:2 497:2 498:1 501:3 502:1 505:1 511:2 513:2 515:3 516:4 517:1 519:1 524:1 531:1 535:1 536:2 541:2 544:1 545:1 548:1 554:1 564:1 565:1 566:1 567:1 568:1 587:2 589:1 590:1 593:1 594:1 597:1 600:1 606:1 615:1 624:1 625:1 631:2 636:1 637:1 648:1 652:1 653:1 658:3 662:1 678:1 688:5 691:1 699:1 700:1 708:1 709:1 710:1 725:4 738:1 739:1 744:1 748:2 759:1 763:1 782:2 785:1 786:1 787:1 804:1 806:1 814:3 815:1 823:2 830:1 832:1 833:1 834:1 840:1 848:1 849:1 859:1 868:1 873:2 874:1 877:1 878:1 881:2 883:2 887:2 889:1 898:2 903:1 904:1 906:1 918:1 920:1 922:1 924:2 925:1 929:1 933:1 943:1 946:1 948:1 952:1 957:1 962:1 966:1 968:2 970:1 984:1 986:1 987:1 988:2 999:1 1007:2 1014:1 1017:1 1025:1 1032:1 1035:1 1036:1 1042:2 1047:1 1050:3 1055:1 1058:1 1060:1 1062:2 1063:1 1075:1 1086:2 1089:1 1093:1 1095:2 1096:1 1097:1 1101:1 1103:1 1105:2 1106:1 1107:2 1112:2 1114:1 1116:1 1123:1 1127:1 1129:2 1136:1 1138:2 1143:1 1145:1 1146:1 1149:1 1151:1 1152:2 1153:2 1154:1 1156:1 1162:1 1163:1 1165:1 1168:1 1187:2 1191:1 1192:1 1205:1 1206:1 1211:2 1224:2 1228:1 1235:1 1237:1 1243:1 1244:2 1246:3 1271:3 1280:1 1281:2 1285:1 1291:1 1296:1 1302:1 1303:1 1309:1 1311:1 1315:1 1319:1 1322:1 1324:1 1331:1 1340:2 1355:1 1357:2 1367:1 1382:1 1391:1 1392:1 1394:1 1397:1 1401:1 1405:4 1406:1 1409:1 1430:1 1437:2 1443:1 1448:1 1451:1 1454:1 1458:1 1479:2 1502:1 1503:2 1511:1 1516:2 1519:1 1532:1 1541:1 1545:1 1546:1 1554:2 1562:1 1564:1 1567:4 1568:3 1579:1 1592:2 1594:1 1610:1 1611:1 1614:1 1617:1 1619:1 1622:1 1643:1 1646:1 1648:1 1650:1 1654:1 1655:1 1685:1 1695:2 1698:4 1702:2 1705:1 1708:2 1711:1 1732:1 1748:1 1754:1 1760:1 1762:1 1768:1 1775:1 1778:1 1781:1 1782:3 1789:1 1791:2 1800:2 1803:2 1806:1 1811:1 1812:1 1822:1 1826:1 1847:1 1860:1 1864:1 1882:1 1883:2 1910:1 1916:1 1917:1 1924:1 1925:1 1935:1 1951:1 1954:1 1988:1 2009:2 2022:1 2027:1 2040:1 2044:1 2055:1 2057:1 2060:1 2071:1 2075:1 2094:1 2120:1 2125:1 2127:1 2135:1 2138:1 2146:2 2150:1 2152:1 2161:1 2163:1 2170:1 2183:2 2196:1 2202:3 2204:1 2217:1 2221:1 2224:1 2233:1 2235:1 2238:1 2239:1 2243:1 2252:3 2258:4 2259:1 2268:1 2299:2 2309:1 2326:1 2333:1 2339:1 2350:1 2351:1 2367:1 2390:1 2397:1 2417:1 2420:1 2423:1 2432:1 2439:1 2440:1 2465:1 2474:1 2535:1 2549:1 2562:1 2568:1 2587:1 2588:1 2610:1 2612:1 2614:1 2616:2 2619:1 2620:1 2656:2 2658:1 2660:1 2676:2 2677:1 2699:1 2703:1 2712:1 2716:1 2721:1 2726:1 2733:2 2738:1 2764:1 2767:2 2793:1 2797:1 2814:1 2816:1 2826:2 2829:1 2843:1 2868:1 2870:2 2897:1 2900:1 2906:1 2915:1 2917:1 2921:2 2928:1 2937:3 2939:1 2977:1 2985:1 2986:1 2998:2 
0 0 0 0.005491815334054709 8:1 17:1 19:1 24:2 29:2 30:1 31:1 32:2 34:1 37:1 51:1 54:1 60:1 67:1 68:1 78:1 81:1 83:2 90:1 95:2 100:1 102:1 105:1 114:1 115:1 131:1 138:1 152:1 162:2 164:1 179:1 184:1 194:1 195:1 207:1 209:1 228:2 237:1 239:1 240:1 246:1 247:1 252:1 258:1 265:2 271:1 279:1 283:1 298:1 304:1 311:1 314:1 336:1 344:1 350:1 358:1 361:1 366:1 371:2 375:2 382:1 383:2 398:1 401:1 403:1 412:1 425:1 440:1 442:1 452:2 470:2 478:1 482:1 483:1 490:1 492:1 494:1 500:1 504:1 511:1 512:1 513:1 515:1 518:1 519:1 522:1 529:1 535:2 536:2 546:1 547:1 564:1 565:2 568:1 574:1 595:1 622:1 625:1 632:1 641:2 648:1 658:3 691:1 736:1 739:1 741:1 745:1 759:1 761:2 767:1 780:1 781:1 782:1 799:1 805:2 806:1 844:2 848:1 852:1 868:1 873:1 877:1 881:1 891:1 913:1 918:1 924:1 927:1 929:1 936:1 943:1 946:1 952:1 966:1 970:2 974:1 984:1 999:1 1001:1 1016:2 1025:1 1029:1 1032:1 1035:1 1036:1 1039:1 1043:1 1060:1 1086:1 1139:1 1140:1 1143:2 1145:1 1153:1 1154:1 1156:1 1168:1 1169:1 1206:1 1210:1 1224:1 1231:1 1233:1 1255:2 1267:1 1271:1 1285:1 1288:1 1291:1 1302:1 1309:1 1319:1 1328:1 1333:2 1341:1 1353:1 1368:1 1405:2 1413:1 1426:2 1435:2 1451:1 1461:1 1465:1 1471:1 1479:1 1481:1 1502:1 1529:1 1533:1 1549:1 1552:1 1562:1 1564:3 1601:1 1618:1 1634:1 1639:1 1671:2 1673:1 1683:1 1684:1 1685:1 1694:1 1696:1 1704:1 1705:2 1707:1 1728:1 1729:1 1749:1 1758:1 1762:1 1782:1 1799:2 1803:1 1805:2 1811:1 1812:4 1822:1 1826:1 1827:1 1854:1 1874:1 1883:1 1885:1 1894:1 1895:2 1901:1 1954:1 1971:1 1986:1 1987:1 1993:1 1995:1 2009:1 2017:2 2022:1 2029:1 2040:1 2058:1 2071:1 2085:1 2116:3 2120:1 2136:1 2156:1 2204:1 2207:1 2214:1 2228:1 2235:1 2239:1 2299:1 2310:1 2326:1 2346:1 2359:1 2367:1 2397:1 2406:1 2407:1 2423:1 2480:1 2517:1 2567:1 2599:1 2614:1 2616:1 2639:2 2655:1 2658:1 2667:1 2676:1 2710:1 2712:1 2726:1 2734:2 2737:2 2741:1 2769:1 2771:1 2795:1 2805:1 2808:1 2811:2 2814:1 2898:1 2901:2 2910:1 2928:1 2933:1 2937:1 2944:3 2952:1 2966:2 2985:1 2993:1 
0 0 0 0.00185988853637429 6:1 13:1 19:1 32:1 33:1 53:1 56:1 66:2 67:1 68:1 77:3 81:1 87:1 91:1 93:1 94:1 95:1 96:1 103:1 112:2 117:1 120:1 124:1 133:2 134:1 136:1 137:1 139:1 143:1 146:1 155:1 156:2 160:1 163:1 164:3 167:1 168:1 173:1 174:1 178:1 180:1 182:1 185:1 191:1 195:1 209:1 215:1 218:2 224:1 228:2 236:1 239:1 252:1 254:1 256:2 258:1 260:1 261:1 265:1 269:1 272:2 281:1 283:1 295:2 297:1 298:2 301:1 308:1 310:1 311:1 312:1 315:1 316:1 330:1 332:1 335:1 343:2 346:2 349:2 355:1 366:5 376:1 377:1 382:1 383:1 388:2 389:1 394:1 400:2 401:2 403:1 412:1 424:1 425:1 438:1 441:1 447:1 451:2 453:1 456:2 457:3 461:1 464:1 465:1 468:1 481:1 487:1 488:1 495:1 497:1 501:1 502:1 504:1 509:1 513:1 515:1 523:1 535:1 536:2 544:1 546:1 549:1 554:1 557:3 558:1 559:1 562:2 564:1 566:1 574:1 577:1 590:1 595:2 617:1 619:1 620:1 624:2 626:1 630:1 631:1 634:1 638:2 639:1 642:1 648:1 657:1 658:2 665:1 672:1 674:1 675:2 678:1 695:1 699:2 708:2 710:1 713:1 725:2 736:2 738:2 743:2 744:3 752:1 776:2 785:2 804:2 811:1 816:1 817:1 822:1 823:1 830:1 843:1 844:1 848:1 850:1 855:1 858:1 871:1 873:2 874:1 875:1 879:2 881:2 898:2 905:1 911:2 918:1 920:1 924:1 931:1 943:1 952:2 964:1 965:1 988:1 989:1 999:1 1000:1 1004:1 1011:1 1021:1 1030:1 1043:2 1050:1 1060:1 1062:1 1066:1 1071:1 1073:1 1075:2 1098:1 1100:1 1113:2 1118:1 1138:1 1140:1 1143:2 1144:1 1145:2 1150:2 1153:4 1154:2 1156:1 1157:1 1169:1 1187:1 1191:1 1204:4 1209:2 1210:1 1228:1 1230:1 1233:3 1240:1 1244:1 1246:1 1247:1 1256:1 1259:2 1261:1 1267:1 1271:1 1273:1 1281:1 1285:2 1286:1 1287:1 1300:1 1309:1 1311:1 1313:1 1335:1 1338:1 1352:1 1363:1 1374:1 1378:2 1381:1 1382:1 1388:1 1401:1 1405:1 1413:1 1415:1 1422:1 1430:1 1435:2 1451:1 1465:1 1471:2 1473:1 1479:1 1488:2 1499:1 1507:1 1522:1 1543:1 1546:1 1549:1 1554:2 1557:1 1567:1 1568:2 1574:1 1579:1 1587:1 1592:1 1593:1 1594:2 1613:2 1616:1 1617:1 1637:1 1645:1 1674:1 1681:1 1683:1 1694:1 1697:2 1704:1 1705:1 1707:2 1726:2 1728:2 1732:1 1737:1 1760:1 1782:1 1787:1 1799:1 1803:1 1806:1 1809:1 1822:2 1827:1 1850:1 1857:2 1869:1 1885:1 1898:1 1902:1 1920:1 1921:1 1925:2 1942:1 1954:1 1959:2 1962:1 1987:1 1993:1 1997:1 1998:1 2004:2 2017:2 2035:1 2040:2 2047:1 2052:1 2058:1 2061:1 2066:1 2073:6 2081:1 2082:2 2083:2 2089:1 2108:1 2114:2 2116:1 2118:2 2120:1 2138:3 2146:1 2147:2 2148:1 2158:3 2161:1 2194:1 2213:1 2229:1 2232:1 2239:1 2283:2 2295:1 2310:1 2331:2 2338:1 2346:1 2351:1 2359:2 2373:1 2392:1 2407:3 2417:1 2421:1 2437:1 2479:1 2489:1 2538:1 2548:2 2549:1 2555:1 2562:1 2573:1 2587:1 2603:1 2614:1 2616:1 2620:1 2636:1 2655:1 2656:1 2695:1 2700:1 2705:1 2706:1 2707:1 2711:1 2712:1 2716:1 2718:1 2731:1 2737:1 2739:1 2748:1 2754:1 2764:2 2795:1 2796:1 2811:2 2814:1 2821:1 2858:1 2868:1 2890:2 2897:1 2899:1 2901:2 2938:1 2940:1 2989:1 
0.02884175604384353 0.01752807660091591 0.01069745999952332 0.01573538212691816 2:1 34:1 46:1 81:1 102:1 137:1 144:1 222:2 258:1 270:1 275:1 283:1 324:1 337:1 343:1 380:1 381:1 385:1 421:1 538:1 657:1 658:1 745:1 793:1 847:1 889:1 935:1 952:1 978:1 1331:1 1357:1 1394:1 1451:1 1454:1 1504:1 1564:1 1702:1 1742:1 2116:1 2341:1 2768:1 2874:1 2921:1 2977:1 
0.02976517152510251 0.01817163968066862 0.01604989444663601 0.002611374357515732 20:1 47:1 79:1 142:1 179:1 256:1 272:1 283:1 301:1 353:1 392:1 396:1 409:2 410:1 444:2 484:1 557:1 560:2 567:1 570:1 608:1 619:1 651:1 767:1 770:1 828:1 889:2 906:1 971:1 1017:1 1032:1 1097:1 1103:1 1149:1 1265:1 1412:1 1502:1 1529:1 1543:1 1815:1 2036:1 2075:1 2170:1 2209:1 2302:1 2339:1 2423:1 2521:1 2694:1 2839:1 2884:1 2890:1 2891:1 
0 0 0 0.0007856304292078797 10:1 18:1 20:1 26:1 28:1 29:1 32:1 39:2 47:1 53:1 70:1 71:1 73:4 74:1 79:1 84:1 86:1 89:1 90:1 91:1 94:1 96:1 102:2 104:3 115:2 120:1 131:1 134:1 139:2 140:1 154:1 155:1 159:1 170:1 171:1 179:1 195:2 196:2 206:1 209:1 239:1 241:1 255:1 258:1 262:1 268:1 284:1 288:1 289:1 320:1 324:1 326:5 331:1 336:2 341:1 343:1 349:1 351:1 356:1 357:1 383:1 394:1 400:2 401:1 410:2 427:1 434:1 445:1 447:1 467:2 470:2 481:1 482:1 488:1 494:1 495:1 497:2 504:1 505:1 513:1 533:2 535:1 538:1 546:1 548:1 550:1 564:1 577:1 585:1 589:1 606:1 617:1 632:1 637:1 639:1 649:1 658:1 665:1 681:1 694:1 699:1 713:1 736:2 744:1 745:1 768:1 780:2 792:1 804:1 811:1 830:2 836:2 843:1 844:1 845:1 848:2 850:1 867:1 868:1 874:1 879:1 885:1 891:1 901:1 903:1 905:2 918:1 920:1 927:2 929:1 948:1 949:1 952:1 962:1 966:1 973:1 1004:1 1007:1 1030:2 1050:1 1056:1 1060:1 1082:1 1086:1 1106:1 1107:1 1114:1 1118:1 1138:1 1145:2 1163:1 1169:1 1188:2 1191:1 1213:2 1224:1 1228:1 1233:2 1267:1 1274:1 1281:1 1310:1 1331:3 1340:1 1357:1 1378:1 1379:1 1384:2 1404:1 1406:1 1411:1 1430:1 1435:1 1437:1 1443:2 1450:1 1473:1 1482:1 1502:1 1543:1 1545:2 1554:1 1564:2 1568:2 1571:1 1578:1 1592:3 1594:1 1618:1 1634:1 1644:1 1648:1 1656:1 1658:3 1674:1 1699:1 1703:2 1707:1 1717:1 1723:1 1730:1 1732:1 1742:2 1754:1 1800:2 1816:1 1850:2 1859:1 1882:1 1931:1 1933:1 1968:1 2004:1 2017:1 2027:1 2028:1 2057:1 2070:1 2071:2 2073:1 2075:1 2085:1 2117:1 2138:1 2142:1 2145:1 2146:1 2148:1 2151:1 2174:1 2194:1 2202:1 2204:1 2252:1 2256:1 2283:1 2305:1 2309:1 2326:1 2335:1 2350:1 2373:1 2375:1 2417:1 2443:1 2454:1 2485:1 2529:1 2530:1 2532:1 2565:1 2600:1 2616:1 2632:1 2639:1 2640:1 2665:1 2681:1 2699:1 2705:2 2721:1 2737:2 2763:1 2767:2 2768:1 2771:1 2773:1 2800:1 2808:1 2817:1 2821:2 2847:1 2868:1 2870:1 2899:1 2921:2 2922:1 2938:1 2954:1 2956:1 2986:2 2998:1 
0.006456948660260661 0.004527326889764869 0.001307824267941812 0 7:1 24:1 32:1 76:1 98:1 120:1 140:1 149:1 195:1 208:1 228:1 240:1 258:1 279:1 295:1 333:1 336:1 338:1 348:1 427:1 442:1 456:1 460:1 464:1 487:1 519:1 543:1 544:1 547:1 561:1 595:1 602:1 608:1 658:2 711:1 729:1 782:1 796:1 814:1 860:1 878:1 913:1 961:1 964:1 968:1 1082:2 1093:1 1097:3 1115:1 1156:1 1237:2 1241:1 1243:1 1255:1 1257:1 1507:1 1542:1 1567:1 1592:1 1645:1 1671:1 1749:1 1758:1 1797:1 1800:2 1839:1 1862:2 2116:1 2138:1 2148:1 2204:1 2331:1 2351:1 2404:1 2456:1 2478:1 2549:1 2553:1 2614:1 2636:1 2681:1 2811:2 2821:1 2858:1 2868:1 2911:1 2921:1 
0 0.0005111814968140689 0.0003928315055342736 0.0008172600860743473 1:1 16:1 35:1 42:1 56:1 74:1 77:3 83:2 94:1 119:1 152:1 155:1 156:1 164:1 180:1 194:1 196:1 202:1 205:1 207:1 208:1 215:1 218:1 224:1 239:1 243:2 247:1 255:1 262:1 267:1 270:3 272:2 275:1 278:1 281:1 282:2 285:2 287:1 290:1 293:1 300:1 305:1 313:1 324:1 332:1 341:1 343:1 347:2 349:2 350:2 354:1 359:1 366:1 368:1 375:1 388:1 389:1 392:2 394:1 403:1 406:1 409:1 411:4 425:1 427:1 441:1 446:2 450:1 456:1 465:1 470:1 473:2 480:1 488:1 489:1 494:1 500:1 507:1 515:2 517:1 519:1 528:1 546:1 547:1 553:1 557:2 560:1 567:1 577:1 578:1 585:1 602:1 625:2 627:2 630:1 631:1 639:1 657:2 663:1 671:1 685:1 699:1 706:1 726:6 729:1 738:1 762:1 785:1 786:1 805:1 818:2 823:1 830:1 843:1 859:1 874:1 888:1 899:1 911:1 918:2 929:2 956:1 961:3 962:1 979:1 985:1 990:1 1007:2 1016:1 1025:2 1027:1 1039:1 1046:1 1058:1 1064:1 1068:1 1101:1 1113:1 1115:1 1119:1 1123:1 1127:1 1136:1 1138:1 1149:1 1150:2 1180:1 1195:1 1196:1 1211:1 1237:1 1244:2 1246:1 1265:1 1266:1 1267:1 1274:1 1276:1 1281:1 1285:1 1291:1 1296:1 1314:1 1347:1 1353:1 1355:2 1359:1 1384:1 1390:1 1394:1 1405:2 1409:1 1432:1 1437:1 1442:1 1450:1 1480:1 1492:1 1500:1 1503:1 1518:1 1519:1 1529:1 1537:1 1543:1 1555:1 1562:1 1564:1 1568:1 1579:1 1587:1 1609:1 1639:1 1643:1 1672:1 1674:1 1694:1 1698:2 1702:1 1707:2 1711:1 1721:1 1726:2 1732:1 1754:3 1761:1 1774:1 1781:1 1791:2 1806:1 1812:1 1816:1 1839:1 1850:1 1909:1 1916:1 1925:1 1942:1 1968:1 2009:1 2017:2 2022:1 2027:1 2055:1 2057:1 2089:1 2104:1 2114:1 2116:1 2125:1 2128:1 2138:1 2151:1 2158:1 2162:1 2202:1 2220:1 2233:1 2239:1 2258:1 2278:1 2291:1 2334:1 2385:1 2437:1 2473:1 2486:1 2489:1 2517:1 2532:2 2540:1 2548:1 2608:1 2615:1 2616:2 2636:1 2641:1 2655:1 2656:1 2681:1 2699:2 2705:1 2710:1 2711:1 2737:1 2754:2 2758:1 2767:1 2801:1 2835:1 2870:1 2906:2 2907:2 2917:1 2920:1 2921:1 2930:1 2986:1 
0 0.0003799096438148076 0 0 1:1 2:1 19:1 20:1 24:1 25:1 33:1 34:1 46:1 47:3 73:1 77:1 90:2 91:1 94:1 97:1 101:1 103:1 119:1 131:1 140:2 156:1 161:1 164:1 170:1 173:1 174:1 180:1 189:1 196:3 198:1 204:1 206:1 207:1 229:1 235:1 237:3 239:1 244:1 247:1 265:1 267:1 272:2 278:2 281:1 283:1 286:1 295:1 301:1 311:1 320:2 333:1 340:2 349:3 353:2 354:2 358:3 366:1 380:1 382:1 383:1 394:1 396:1 398:1 401:3 406:1 407:2 418:1 421:1 428:1 429:2 441:2 447:1 453:1 459:1 480:1 483:1 487:3 507:1 515:1 520:1 533:1 538:2 543:1 551:3 568:1 577:1 593:1 603:1 609:1 615:1 619:1 628:1 652:1 663:1 665:1 685:1 687:1 694:1 696:1 706:1 725:1 729:1 741:1 761:1 765:1 772:1 782:1 785:1 788:1 805:1 829:1 834:1 840:1 842:1 849:1 869:1 873:3 874:1 899:1 905:1 911:1 913:2 929:2 933:1 948:5 962:2 973:1 1007:1 1011:1 1014:1 1030:1 1050:1 1053:1 1071:2 1075:1 1096:1 1100:1 1101:1 1118:1 1119:1 1127:1 1130:1 1131:1 1139:1 1151:1 1169:1 1191:1 1210:1 1211:1 1237:6 1244:1 1250:1 1259:1 1265:1 1270:1 1276:1 1288:1 1309:1 1310:1 1322:1 1335:1 1352:1 1355:1 1363:1 1368:1 1401:1 1405:1 1442:1 1469:2 1479:1 1488:1 1499:2 1502:1 1543:1 1545:1 1549:1 1551:1 1567:4 1571:1 1591:1 1593:1 1594:1 1606:1 1613:1 1619:1 1643:1 1658:1 1672:2 1697:2 1702:1 1708:1 1720:1 1726:1 1740:1 1742:1 1763:1 1764:1 1768:1 1774:1 1800:2 1803:1 1806:2 1808:1 1826:1 1835:1 1839:1 1862:2 1878:1 1879:1 1886:1 1892:1 1897:1 1919:1 1925:1 1961:1 1972:1 1988:1 1993:1 1997:1 2017:3 2044:1 2053:1 2072:1 2075:1 2120:1 2125:1 2138:1 2158:1 2161:2 2170:1 2178:1 2185:1 2189:1 2226:1 2230:1 2258:3 2310:1 2331:1 2339:2 2349:1 2377:1 2391:1 2417:1 2420:1 2428:1 2479:1 2500:1 2539:1 2549:1 2596:1 2694:2 2706:2 2710:2 2758:1 2767:1 2771:1 2772:1 2775:1 2805:1 2811:1 2816:2 2870:1 2890:1 2906:1 2918:1 2930:2 2942:1 2954:1 2998:1 
