svm_type c_svc
kernel_type linear
nr_class 5
total_sv 1376
rho -0.354019 -0.854122 -0.378107 -0.837468 -0.577494 0.0125252 -0.763406 0.48521 0.159153 -0.29704
label 5 4 2 3 1
nr_sv 309 303 265 258 241
SV
0 3.020079836083319e-06 0 0 6:3 7:1 15:1 26:2 29:1 31:1 32:1 44:1 50:2 54:1 61:1 63:1 69:1 73:1 92:1 100:3 122:1 127:1 132:1 133:1 134:1 136:1 137:1 150:2 158:1 159:2 161:1 182:2 197:1 198:1 200:1 205:1 209:1 215:2 220:1 223:1 245:1 249:1 251:1 252:4 263:2 266:1 293:1 298:1 299:1 301:4 308:2 321:1 324:1 340:1 342:1 346:1 351:1 352:1 364:3 371:1 372:1 380:1 387:1 392:1 395:5 396:1 399:1 401:2 407:1 414:1 431:3 436:1 443:2 455:1 462:1 464:1 469:1 474:1 479:1 481:1 489:1 490:1 493:3 496:1 507:1 515:1 516:2 525:2 528:1 549:1 558:1 566:1 574:1 575:2 576:1 581:1 582:1 583:1 585:1 586:1 588:1 590:1 592:1 597:3 599:1 622:1 632:1 638:1 646:2 663:1 665:1 670:1 672:1 685:1 686:1 687:1 688:1 695:2 696:2 700:1 703:1 707:2 721:5 724:1 727:1 735:1 736:1 742:1 752:1 760:1 768:1 779:1 791:1 796:2 807:1 814:2 818:1 819:1 824:1 826:1 827:1 838:1 855:1 861:1 864:7 865:1 881:1 888:1 894:2 895:1 906:1 907:1 912:1 918:1 920:1 927:2 940:1 942:1 954:1 963:1 967:2 973:1 986:1 992:1 1000:1 1006:2 1014:1 1030:1 1033:2 1056:2 1078:1 1097:2 1100:1 1108:1 1112:1 1142:1 1162:2 1164:1 1167:5 1169:1 1171:1 1190:1 1193:1 1204:2 1210:1 1217:3 1256:1 1259:1 1270:1 1275:1 1279:2 1290:1 1291:1 1312:1 1315:1 1318:1 1324:1 1334:1 1342:2 1344:2 1346:1 1351:3 1367:2 1371:1 1399:1 1408:1 1414:1 1419:1 1422:2 1439:1 1444:1 1445:1 1459:1 1461:4 1462:1 1483:1 1491:1 1494:1 1495:2 1497:1 1511:1 1512:1 1515:3 1520:1 1525:1 1526:1 1527:1 1529:2 1530:1 1533:1 1556:2 1557:1 1559:1 1567:1 1570:2 1583:1 1586:1 1599:1 1613:1 1619:1 1620:2 1632:1 1645:1 1647:2 1679:1 1697:1 1698:1 1715:1 1725:1 1732:1 1734:1 1739:1 1750:2 1754:3 1802:2 1816:1 1818:1 1823:1 1833:1 1845:1 1851:1 1855:1 1860:1 1865:1 1882:3 1887:1 1893:1 1895:1 1896:1 1899:1 1910:1 1919:1 1925:1 1926:1 1929:1 1948:1 1962:3 1967:4 1968:1 1973:1 1978:1 1982:1 1991:1 1992:2 1996:1 2000:1 2008:1 2022:5 2025:2 2029:1 2031:2 2033:1 2046:2 2054:1 2069:3 2076:1 2091:1 2095:2 2109:2 2110:2 2115:1 2116:1 2124:2 2130:1 2132:2 2143:1 2148:1 2150:2 2174:2 2178:2 2195:1 2209:2 2210:1 2214:1 2220:1 2227:1 2229:1 2246:1 2251:1 2257:2 2261:1 2266:1 2286:1 2294:1 2296:1 2310:3 2312:2 2321:1 2323:1 2330:1 2338:1 2343:2 2349:1 2356:1 2361:1 2365:2 2374:2 2379:1 2390:2 2391:1 2394:2 2409:1 2412:2 2430:1 2439:3 2443:3 2457:2 2458:6 2470:2 2479:1 2480:1 2485:2 2493:3 2500:1 2507:2 2534:1 2544:1 2545:3 2546:1 2551:1 2555:8 2562:1 2579:1 2580:1 2585:1 2618:1 2627:1 2628:1 2647:1 2650:1 2652:1 2657:1 2666:1 2683:2 2707:2 2708:1 2709:1 2711:1 2714:1 2718:1 2721:1 2726:1 2747:1 2753:1 2757:1 2762:1 2792:1 2797:1 2799:1 2812:1 2815:1 2821:1 2828:2 2845:2 2846:1 2852:1 2857:1 2858:2 2866:1 2881:2 2901:1 2922:1 2945:1 2947:2 2955:1 2969:3 2991:1 
0.002975495498358832 0 0 0.00308281458262215 18:1 26:2 35:1 37:1 46:1 55:1 58:2 66:1 78:1 86:2 99:1 100:1 103:1 104:1 106:1 122:1 150:1 168:1 199:1 207:1 209:1 211:2 218:2 229:1 230:1 246:2 249:1 258:1 270:1 272:1 274:1 281:1 284:1 296:1 301:1 318:1 324:1 327:1 334:1 339:1 349:1 362:1 364:1 367:1 381:1 395:1 400:1 414:2 422:1 437:2 443:1 446:1 457:1 464:1 477:1 486:1 490:1 497:1 524:1 534:1 539:1 542:2 559:1 563:1 575:1 592:1 618:1 636:1 643:2 644:1 649:1 657:1 658:3 681:1 683:1 687:1 689:1 691:1 697:1 707:1 724:1 736:1 739:1 751:1 768:1 773:1 775:1 776:1 779:1 785:2 804:1 826:1 834:1 837:1 838:2 841:1 849:2 865:1 877:1 878:1 883:1 886:1 888:3 892:1 894:1 896:1 906:1 919:1 920:1 926:2 928:1 939:1 948:1 953:1 965:1 972:1 975:2 994:2 999:1 1000:1 1002:1 1014:2 1031:1 1039:1 1042:1 1048:1 1049:1 1052:1 1056:1 1081:2 1090:1 1097:1 1128:1 1162:1 1163:1 1173:1 1174:2 1179:1 1185:1 1203:1 1204:1 1212:1 1213:1 1235:5 1244:1 1256:1 1257:2 1272:1 1274:1 1283:2 1325:1 1332:1 1334:1 1355:1 1374:1 1376:1 1377:1 1382:1 1409:1 1411:1 1417:1 1440:3 1442:1 1445:2 1446:1 1453:1 1464:1 1465:1 1482:1 1489:1 1527:1 1539:1 1550:1 1570:1 1571:1 1573:3 1578:2 1597:2 1605:1 1615:1 1629:1 1632:1 1637:1 1639:1 1646:1 1668:1 1670:1 1671:1 1678:1 1688:1 1697:1 1699:1 1700:1 1704:1 1715:1 1719:1 1727:1 1736:1 1737:1 1759:1 1764:1 1765:3 1767:1 1770:1 1796:1 1812:1 1824:1 1891:1 1898:1 1901:1 1904:1 1926:1 1963:1 1965:1 1973:4 1976:2 1994:1 1999:1 2003:3 2004:1 2009:1 2011:1 2022:1 2056:1 2067:1 2072:1 2074:1 2087:1 2091:1 2098:1 2109:1 2110:2 2112:2 2124:1 2125:1 2128:2 2141:1 2142:1 2148:1 2156:1 2184:1 2185:1 2187:1 2189:1 2193:1 2201:2 2205:1 2207:1 2210:1 2212:1 2216:3 2220:1 2229:1 2232:2 2241:2 2248:1 2270:1 2279:1 2283:1 2287:2 2312:1 2314:1 2324:1 2326:1 2338:1 2343:1 2364:1 2370:1 2377:1 2423:1 2439:1 2442:1 2451:1 2473:1 2477:1 2480:1 2487:1 2488:1 2500:1 2515:1 2520:1 2544:3 2550:1 2552:1 2554:1 2556:1 2563:1 2565:3 2577:2 2584:1 2603:1 2617:1 2618:1 2619:1 2621:1 2628:1 2630:1 2641:1 2648:1 2655:1 2663:1 2672:1 2674:1 2688:1 2711:1 2714:1 2721:1 2732:1 2757:2 2759:1 2777:1 2802:1 2805:1 2829:1 2831:1 2833:1 2838:1 2846:1 2860:1 2868:3 2872:1 2878:1 2881:1 2887:1 2932:1 2949:1 2956:2 2962:1 2982:1 2993:1 
0 0.0008839213007546302 0 0 5:1 14:1 19:1 20:1 27:1 50:1 59:1 68:1 83:1 84:1 103:1 108:1 110:1 117:1 133:1 136:2 149:1 173:1 198:1 203:1 229:1 232:1 236:2 257:2 264:2 278:1 281:1 327:1 330:1 334:1 339:1 356:3 360:1 361:1 380:1 396:1 401:1 413:1 427:2 456:2 459:1 473:1 491:4 496:1 498:2 505:1 515:1 517:2 520:1 539:1 544:1 548:1 555:1 556:1 567:1 569:1 575:1 591:1 600:1 601:2 603:2 605:1 606:1 613:1 619:3 667:1 681:1 704:1 710:1 717:1 722:1 724:1 737:1 738:1 747:1 757:1 760:1 761:1 808:1 814:1 816:1 825:1 833:1 842:1 843:1 846:1 863:1 870:1 887:1 899:1 904:1 914:1 939:3 946:1 948:1 971:1 984:1 995:1 999:2 1004:1 1037:1 1046:1 1064:1 1073:1 1074:1 1097:1 1100:1 1107:1 1123:1 1128:1 1137:2 1139:1 1144:1 1145:1 1147:1 1149:2 1151:1 1164:1 1174:1 1185:1 1186:1 1216:1 1221:1 1222:1 1247:1 1258:1 1267:1 1280:1 1289:1 1297:1 1304:1 1306:1 1309:1 1315:1 1318:1 1322:1 1325:1 1332:1 1335:1 1391:1 1396:1 1416:1 1432:3 1440:1 1453:1 1463:1 1476:1 1488:1 1492:1 1520:1 1522:1 1538:2 1542:1 1564:1 1607:1 1609:1 1620:1 1624:1 1630:4 1651:1 1656:1 1657:1 1663:1 1665:1 1667:1 1669:1 1675:1 1693:1 1700:1 1735:1 1761:5 1770:2 1786:1 1802:3 1820:1 1839:3 1840:1 1869:1 1882:1 1904:1 1931:1 1935:2 1938:1 1940:2 1951:1 1952:1 1959:1 1961:1 1998:1 2000:1 2018:1 2036:1 2039:1 2074:1 2080:2 2103:1 2104:1 2119:1 2126:1 2148:1 2155:1 2190:1 2201:2 2205:1 2208:1 2211:1 2218:1 2226:1 2233:1 2234:1 2240:1 2243:1 2253:1 2261:1 2279:1 2304:1 2331:2 2332:1 2360:1 2378:1 2386:2 2394:1 2421:1 2430:1 2438:1 2442:3 2451:1 2459:1 2467:1 2471:2 2475:1 2483:1 2488:1 2505:1 2525:1 2529:1 2534:1 2593:2 2602:1 2604:1 2637:1 2664:1 2667:1 2677:1 2682:1 2685:1 2687:1 2688:2 2707:1 2785:1 2811:1 2852:1 2873:1 2912:1 2954:1 2967:1 2968:1 2971:1 2976:1 2986:1 
0.007403966089839717 0.0009290518822369347 0.0009547533464752637 0.01236681395365829 58:7 79:1 93:2 136:1 175:1 188:1 198:1 226:2 240:1 252:2 271:1 377:1 469:1 477:1 575:1 648:1 720:1 736:1 746:1 775:1 935:1 937:2 939:1 954:1 1011:2 1048:1 1128:1 1139:1 1169:1 1433:1 1467:2 1594:1 1607:1 1645:1 1715:1 1736:1 1839:1 1856:1 1970:1 1974:1 2037:2 2080:2 2139:1 2181:3 2239:1 2241:1 2250:1 2347:2 2411:1 2425:1 2455:1 2565:2 2604:1 2665:1 2886:1 2916:1 2940:2 2975:1 2984:1 2992:1 
0.001279026207906602 0 0 0 7:2 22:1 24:6 26:1 36:1 37:1 47:1 54:1 58:1 115:1 117:2 122:2 129:1 157:1 164:1 165:1 182:1 188:1 197:1 209:1 210:1 213:1 221:1 232:1 242:1 258:1 263:1 265:2 280:2 281:2 283:1 310:2 311:1 321:1 331:1 338:1 343:2 344:1 346:1 361:1 362:1 363:1 367:1 379:1 396:1 409:1 410:1 414:1 425:1 437:1 442:1 443:1 454:1 464:1 466:1 473:1 480:1 488:1 499:1 514:1 516:1 527:1 543:1 546:1 581:1 584:1 586:2 592:1 595:2 611:1 616:1 643:3 649:1 663:1 664:1 670:1 672:1 679:1 696:1 716:1 719:1 720:1 737:1 742:1 769:2 775:1 784:1 795:1 803:1 815:1 825:2 829:1 833:1 848:1 865:2 868:1 872:2 884:1 888:3 917:5 943:2 971:1 972:1 979:1 983:2 1012:1 1016:2 1048:2 1051:1 1054:1 1065:1 1106:1 1113:1 1130:1 1145:1 1163:1 1184:1 1204:2 1211:1 1223:1 1267:1 1288:1 1297:1 1304:1 1320:1 1323:1 1337:1 1342:1 1348:1 1391:1 1408:2 1409:1 1446:1 1462:1 1467:1 1486:1 1491:1 1494:1 1495:1 1509:1 1510:1 1511:1 1519:2 1522:1 1530:1 1531:1 1573:1 1591:1 1624:1 1632:1 1647:2 1649:1 1650:1 1673:1 1674:1 1695:1 1697:2 1701:2 1713:1 1721:1 1744:1 1748:1 1755:1 1760:1 1764:1 1769:3 1785:1 1803:1 1820:1 1831:1 1846:2 1847:1 1866:1 1881:1 1883:1 1889:1 1901:1 1903:3 1909:1 1914:1 1963:2 1973:3 1980:1 1987:1 2056:1 2104:1 2106:1 2132:1 2137:1 2145:1 2155:1 2158:1 2163:2 2168:1 2173:1 2180:1 2198:1 2210:1 2216:2 2218:1 2231:1 2234:1 2257:1 2285:1 2287:1 2299:1 2317:1 2323:1 2332:1 2336:1 2377:1 2397:1 2398:1 2413:1 2432:2 2442:1 2456:1 2483:4 2487:1 2488:1 2500:1 2518:2 2529:1 2530:1 2545:2 2550:1 2564:1 2580:2 2585:1 2596:1 2621:1 2636:1 2644:1 2669:2 2711:2 2721:1 2730:1 2735:1 2825:1 2828:1 2846:1 2857:1 2881:1 2897:1 2900:1 2928:1 2947:1 2953:1 2970:1 2971:1 
0 0 3.52680666869042e-05 0 32:1 36:1 41:1 62:1 159:1 162:1 171:1 187:1 194:1 205:3 211:2 217:2 219:2 233:1 235:1 252:2 255:1 258:2 302:1 310:1 323:1 331:1 355:1 375:1 381:1 408:1 429:1 440:1 449:1 450:1 462:1 490:2 494:1 496:1 516:1 525:1 535:2 548:1 558:2 600:1 621:1 635:1 650:1 663:1 695:1 711:1 718:1 724:1 776:1 798:1 824:1 827:1 830:1 849:1 878:1 886:1 887:1 888:1 895:1 965:2 986:2 990:1 994:3 1000:2 1009:1 1020:1 1102:1 1148:1 1154:1 1166:1 1182:1 1185:1 1204:1 1228:1 1248:1 1262:1 1265:1 1270:1 1295:1 1303:1 1328:1 1350:1 1353:1 1357:2 1374:1 1379:1 1390:3 1397:1 1421:2 1430:1 1443:1 1467:2 1469:1 1470:1 1492:1 1523:1 1547:1 1553:1 1565:1 1589:1 1600:1 1604:1 1633:1 1672:1 1701:2 1703:2 1728:1 1745:1 1755:2 1823:1 1896:1 1907:1 1924:1 1956:1 1958:1 1973:1 2004:1 2017:1 2027:1 2048:1 2077:1 2078:1 2081:1 2084:1 2132:1 2178:1 2203:1 2205:1 2231:3 2263:1 2264:1 2265:1 2269:2 2272:1 2273:1 2300:1 2329:1 2377:1 2390:1 2416:1 2488:5 2506:1 2525:1 2553:1 2574:1 2580:1 2607:1 2623:1 2646:1 2653:1 2689:1 2711:2 2741:1 2745:1 2751:1 2757:1 2768:1 2770:2 2790:1 2791:1 2846:1 2913:1 2921:2 2923:1 
0.004389996504658572 0.004228506350063059 0.005301638094887899 0.001737424273928708 29:1 47:1 54:1 93:2 101:2 151:1 160:1 162:1 198:1 220:1 229:1 268:2 271:1 294:2 320:2 323:1 339:1 394:1 438:2 460:1 463:1 491:1 507:1 536:1 569:1 616:1 647:1 656:1 659:1 667:1 682:1 699:1 707:1 725:1 759:1 771:1 928:1 941:1 949:1 961:1 963:1 1022:1 1023:1 1046:1 1089:1 1169:1 1188:1 1300:1 1318:1 1336:1 1347:1 1364:1 1382:2 1401:1 1417:1 1452:1 1486:1 1512:1 1545:1 1554:1 1585:1 1589:1 1597:1 1610:1 1616:1 1635:1 1652:1 1654:1 1656:1 1658:1 1708:1 1711:1 1714:1 1722:1 1734:2 1739:1 1746:1 1766:1 1783:1 1792:1 1805:1 1834:1 1987:1 1998:1 2008:1 2015:1 2050:1 2098:1 2113:1 2178:2 2201:1 2216:2 2265:1 2314:1 2347:1 2378:1 2383:1 2419:1 2421:1 2433:1 2469:1 2470:1 2473:1 2487:1 2516:1 2533:1 2566:1 2604:1 2609:1 2636:1 2652:1 2675:1 2677:1 2688:1 2696:1 2717:1 2727:1 2741:1 2755:1 2770:2 2795:1 2825:1 2856:1 2873:1 2966:1 2990:1 
0.005594898550230728 0 0.004788153403914659 0.001610582501281517 51:1 58:2 80:1 110:1 117:1 174:1 213:1 226:1 242:1 274:1 293:1 320:2 323:2 385:1 386:1 428:1 499:1 505:1 511:1 526:1 533:1 593:1 605:1 622:1 705:1 723:1 845:1 899:1 920:1 931:3 965:1 1024:1 1051:1 1184:1 1263:1 1351:1 1411:1 1419:1 1620:1 1709:1 1764:1 1806:1 1918:1 2054:1 2157:1 2169:1 2207:1 2299:1 2556:1 2577:2 2731:1 2772:3 2802:1 2825:1 2861:1 
0 0 0.001375766362891663 0 17:1 23:1 32:1 41:1 53:1 60:1 77:2 82:1 85:1 107:1 123:1 135:1 138:1 167:1 182:1 236:1 237:1 245:1 246:1 267:1 283:1 303:1 307:1 314:1 323:1 346:1 361:1 365:4 366:1 367:1 397:1 401:2 425:1 445:1 508:1 515:1 518:1 526:1 530:1 532:1 535:1 563:1 609:1 630:1 633:2 648:4 720:1 725:1 728:2 745:1 756:1 762:2 766:1 804:2 828:1 853:1 857:1 878:1 884:1 886:1 890:1 907:1 938:1 956:2 965:1 1013:1 1014:1 1017:1 1026:1 1030:1 1046:1 1070:1 1073:1 1089:1 1090:1 1095:1 1097:2 1107:1 1123:1 1129:1 1146:1 1154:1 1172:1 1204:1 1205:1 1224:1 1227:1 1248:1 1266:1 1282:2 1287:1 1294:1 1296:1 1317:1 1320:1 1329:1 1335:1 1354:1 1357:2 1364:1 1391:1 1400:1 1408:1 1409:1 1414:1 1433:1 1461:1 1466:2 1476:1 1494:1 1512:1 1517:1 1518:2 1526:1 1543:1 1560:1 1600:1 1654:1 1686:1 1690:1 1758:1 1773:1 1788:1 1833:1 1847:1 1858:1 1903:2 1909:3 1919:1 1941:2 1948:1 1954:1 1967:1 1974:1 2006:1 2021:1 2032:1 2038:1 2077:1 2176:1 2184:1 2197:2 2244:2 2271:1 2287:1 2294:1 2320:1 2356:1 2359:1 2414:3 2447:1 2480:1 2485:1 2507:1 2527:1 2541:1 2545:1 2546:1 2577:1 2651:2 2672:1 2682:1 2703:1 2726:1 2771:1 2783:1 2793:1 2833:1 2908:1 2949:1 2956:1 2986:1 
0 0.002260712063327763 0.0001548936324253143 0 6:2 9:1 18:1 22:1 31:1 33:1 35:1 38:1 40:1 46:2 49:1 61:2 63:1 85:4 92:2 95:1 96:1 106:1 110:1 113:1 128:1 133:1 138:1 151:2 157:1 159:1 174:1 176:1 179:2 200:1 201:1 208:1 217:1 220:1 251:1 252:2 260:1 263:1 265:1 279:1 313:2 322:1 325:1 328:1 340:1 349:1 350:1 354:1 364:1 365:1 382:2 395:1 414:1 419:2 422:1 430:3 438:1 446:1 449:1 455:1 458:1 460:1 464:2 468:1 478:1 496:1 506:1 517:1 528:1 535:3 541:2 562:1 565:1 570:1 576:1 582:1 594:1 595:1 602:1 635:1 643:1 652:1 678:1 694:1 696:1 699:1 702:1 703:1 704:1 712:1 714:1 725:1 730:1 759:1 769:1 772:1 776:1 785:1 794:1 797:1 798:1 803:2 821:1 829:1 840:1 855:2 864:1 865:1 872:1 874:1 877:1 879:1 883:1 910:1 911:1 942:1 964:1 972:2 973:1 975:1 979:1 991:1 996:1 998:3 999:1 1014:1 1035:1 1036:1 1043:1 1047:2 1051:1 1069:1 1077:1 1102:2 1106:1 1119:1 1126:1 1128:1 1133:1 1157:1 1158:1 1159:1 1168:1 1175:1 1177:1 1178:1 1181:1 1184:1 1187:2 1204:1 1210:1 1217:1 1253:1 1259:1 1269:1 1288:1 1291:1 1298:1 1302:1 1304:1 1306:1 1314:1 1319:1 1327:1 1328:2 1334:1 1337:1 1340:2 1357:1 1360:1 1375:1 1382:1 1426:1 1438:1 1489:1 1497:1 1522:1 1527:1 1528:1 1537:1 1542:1 1544:1 1545:1 1546:1 1547:1 1554:1 1562:1 1569:1 1577:2 1586:1 1595:1 1604:1 1612:2 1616:1 1647:1 1667:1 1670:1 1704:1 1727:1 1750:1 1765:1 1787:1 1792:1 1824:1 1845:1 1848:1 1850:1 1855:2 1864:1 1885:1 1888:1 1891:1 1892:1 1898:1 1903:3 1918:1 1928:1 1929:1 1973:1 1975:1 1984:4 2003:1 2008:1 2022:2 2031:1 2037:1 2041:1 2047:1 2048:1 2068:1 2098:1 2111:1 2132:1 2144:1 2150:1 2178:1 2186:1 2190:1 2193:1 2211:1 2214:1 2217:1 2226:1 2241:1 2255:1 2257:1 2274:1 2277:1 2306:1 2314:1 2324:1 2325:1 2329:1 2348:1 2350:1 2360:1 2365:1 2377:1 2392:1 2412:1 2443:1 2453:1 2457:1 2458:1 2459:1 2469:1 2494:1 2498:1 2499:2 2502:1 2513:2 2517:1 2545:1 2554:1 2558:1 2571:1 2577:1 2584:1 2589:1 2592:1 2600:1 2612:1 2618:1 2668:1 2669:1 2696:1 2713:1 2715:1 2722:1 2744:1 2747:1 2758:1 2775:1 2782:1 2804:1 2805:1 2808:2 2825:1 2828:1 2837:1 2846:1 2849:1 2853:1 2854:1 2855:1 2875:1 2887:1 2899:1 2900:1 2905:1 2928:1 2934:1 2940:1 2941:1 2947:1 2952:1 2978:2 2993:1 
0 0 0 0.0006075757863513982 18:1 41:1 61:1 66:1 79:1 95:1 96:1 103:1 125:2 133:1 150:1 157:1 174:1 197:1 213:1 242:1 246:1 275:1 277:1 283:1 298:1 299:1 316:1 325:1 369:1 371:1 395:3 398:1 401:1 419:1 436:1 518:1 533:1 535:1 540:1 582:1 584:1 594:1 595:1 669:1 682:1 687:1 731:1 736:1 737:2 754:1 763:1 804:1 878:1 899:1 941:1 953:1 957:1 991:1 1003:1 1032:1 1037:1 1062:1 1063:1 1071:1 1092:1 1093:1 1109:1 1165:1 1186:1 1276:1 1300:1 1334:2 1337:1 1347:1 1348:1 1351:1 1364:1 1419:1 1422:1 1448:1 1487:1 1607:1 1630:1 1632:3 1678:5 1681:2 1696:1 1704:1 1762:1 1765:1 1778:1 1783:1 1803:1 1836:1 1878:1 1891:1 1973:1 2003:3 2011:1 2012:1 2022:1 2063:2 2068:1 2072:1 2093:1 2096:1 2128:1 2177:1 2184:2 2205:2 2236:1 2239:1 2242:1 2262:1 2269:1 2299:2 2310:1 2319:1 2358:1 2394:1 2412:1 2447:2 2467:1 2480:10 2493:2 2533:1 2553:1 2556:1 2579:2 2580:1 2592:1 2604:1 2623:2 2664:1 2708:1 2717:1 2734:1 2777:2 2782:2 2824:1 2841:1 2844:1 2858:1 2861:1 2873:1 2878:1 2926:1 2929:1 2949:1 2955:1 
0.003358188541842494 0.004290935629963927 0 0.006559768672976963 45:1 46:2 60:1 67:1 81:1 89:1 90:1 108:1 124:1 138:1 214:1 223:1 251:1 280:1 284:1 307:2 325:1 328:1 364:1 365:1 449:1 460:1 486:1 487:1 518:1 548:1 624:1 661:2 675:1 678:1 731:1 756:2 765:1 767:1 804:1 811:1 857:1 915:1 925:1 928:1 933:1 983:1 1009:1 1024:1 1068:1 1090:1 1091:1 1109:1 1129:1 1146:1 1161:1 1219:1 1257:1 1276:1 1277:1 1299:1 1303:1 1340:1 1347:1 1376:1 1510:1 1526:1 1542:1 1550:1 1551:1 1567:1 1604:1 1607:1 1609:1 1655:1 1731:1 1755:1 1796:1 1957:2 2014:1 2056:1 2063:1 2168:1 2207:1 2257:1 2307:1 2343:1 2361:2 2386:1 2389:1 2438:1 2553:1 2585:1 2626:1 2646:1 2683:1 2711:1 2771:1 2832:1 2838:1 2876:1 2902:1 2919:1 2974:1 2984:1 
0.002965747432899656 0.003579111372990562 0.004309208297260965 0.002559920454021058 41:1 45:1 66:1 83:1 84:1 108:1 133:1 138:1 140:1 150:1 156:1 169:1 190:1 291:1 299:1 307:3 313:1 328:1 344:1 362:1 365:1 368:1 371:1 375:1 400:1 416:1 419:1 475:1 491:1 495:1 504:1 507:1 523:1 526:1 565:1 579:1 588:1 606:1 611:1 624:1 639:1 660:1 690:1 711:1 737:1 748:1 767:1 778:1 806:1 815:1 816:1 817:1 821:1 861:1 873:1 882:1 891:1 907:1 909:2 927:1 972:1 980:1 981:1 996:1 1021:1 1022:1 1039:1 1045:1 1046:1 1048:1 1066:1 1104:1 1106:1 1134:1 1167:1 1169:1 1216:2 1242:1 1279:1 1286:1 1287:1 1303:1 1304:2 1309:1 1312:1 1318:1 1331:1 1343:1 1347:1 1350:1 1366:2 1406:1 1413:1 1474:1 1476:2 1516:1 1540:1 1552:1 1570:1 1576:1 1600:2 1618:1 1632:1 1649:1 1657:1 1667:1 1669:1 1686:1 1691:1 1692:1 1695:1 1707:2 1724:1 1730:2 1735:1 1743:1 1756:1 1790:2 1792:1 1807:1 1812:1 1850:1 1852:1 1890:1 1891:1 1907:1 1940:2 1959:1 1975:1 1987:1 1998:1 2020:1 2026:1 2031:1 2035:1 2068:1 2142:1 2151:1 2164:1 2172:1 2179:1 2193:1 2215:1 2226:1 2233:1 2236:1 2237:1 2245:1 2299:1 2308:1 2361:1 2392:1 2394:1 2423:1 2451:1 2453:1 2459:1 2462:1 2496:1 2532:1 2537:1 2543:1 2572:1 2577:1 2578:1 2597:1 2601:1 2621:1 2649:1 2663:1 2672:2 2674:1 2688:1 2722:1 2782:1 2787:1 2860:1 2864:1 2970:1 2971:1 2981:1 2995:1 
0.008389543497687344 0 0 0.00243314123356081 17:1 33:1 41:3 129:1 138:1 219:1 226:1 242:1 263:1 274:1 306:1 320:2 432:1 486:1 507:1 509:1 517:1 532:2 556:1 581:3 657:1 677:3 722:1 759:3 760:2 775:1 825:3 942:1 1048:1 1051:1 1082:1 1109:1 1169:1 1183:1 1185:2 1299:1 1335:1 1346:1 1387:1 1494:1 1501:2 1557:1 1573:2 1586:3 1607:1 1617:1 1651:2 1698:1 1742:1 1803:2 1820:1 1854:2 1873:1 1880:1 1938:1 2075:2 2103:1 2115:2 2117:2 2178:1 2181:1 2201:1 2216:1 2233:1 2251:1 2270:1 2349:1 2393:2 2412:1 2488:1 2665:1 2681:1 2710:1 2799:2 2806:1 2856:1 2939:1 
0.002939583761301654 0 0 5.512735878246523e-05 17:1 94:1 112:1 168:1 216:1 257:2 271:1 310:2 312:1 345:1 374:1 389:2 416:1 427:1 428:1 457:1 486:1 487:1 495:1 498:1 517:4 533:2 546:1 563:1 573:1 595:1 639:1 678:1 681:2 693:1 717:1 731:2 815:2 825:6 891:1 908:1 924:1 928:1 946:1 988:1 1004:1 1048:1 1059:1 1109:1 1123:1 1157:1 1181:1 1263:1 1287:1 1350:1 1371:1 1380:1 1381:1 1382:1 1387:1 1410:1 1444:2 1601:1 1604:1 1630:4 1654:1 1668:2 1697:1 1727:5 1733:1 1742:2 1760:1 1761:1 1807:1 1888:1 1894:2 1921:1 1938:1 2004:1 2037:1 2046:1 2059:1 2136:2 2181:3 2225:1 2233:1 2294:1 2332:1 2397:1 2442:1 2455:1 2513:1 2544:1 2565:2 2591:1 2659:1 2688:1 2729:1 2772:1 2780:1 2795:2 2806:1 2838:1 2852:1 2857:1 2864:2 2880:1 2939:1 
0.008635454827447181 0.0004504048326261711 0.006241564873689357 0.00733394975156385 19:2 33:1 108:2 184:1 232:1 251:2 253:1 263:1 297:1 339:1 419:1 439:1 469:1 502:2 542:1 573:1 581:1 667:1 759:2 769:1 783:1 854:1 894:1 937:1 1027:2 1048:1 1049:1 1052:1 1070:1 1073:1 1095:1 1122:1 1226:1 1299:1 1362:2 1388:1 1437:1 1581:1 1655:2 1693:1 1727:3 1764:1 1814:1 1844:1 1948:1 1963:1 2064:1 2125:1 2314:1 2398:1 2467:1 2482:1 2485:1 2519:1 2640:1 2693:1 
0.001264949602114549 0 0 0.005028161374786799 12:1 27:1 36:4 49:1 58:1 94:2 122:3 141:1 198:1 201:1 203:1 210:1 230:1 234:1 241:1 251:3 258:1 276:1 281:2 306:1 317:1 318:1 381:1 437:2 470:1 505:1 517:1 518:1 619:1 620:1 643:2 656:1 671:1 746:2 760:1 783:1 834:1 871:1 874:1 890:1 899:1 908:1 934:1 949:4 961:1 984:1 988:1 1018:1 1042:1 1048:2 1051:1 1090:1 1128:1 1162:1 1167:2 1169:1 1212:1 1235:1 1239:1 1275:1 1299:1 1315:1 1320:1 1338:1 1346:2 1375:1 1389:1 1430:1 1472:1 1474:1 1501:6 1516:1 1541:2 1594:1 1607:1 1620:1 1645:1 1647:1 1667:1 1690:1 1701:1 1796:2 1820:2 1894:1 1914:1 1923:1 1957:1 1963:1 1970:2 1974:1 2013:2 2025:1 2056:1 2063:1 2090:1 2115:1 2200:1 2215:1 2241:1 2251:3 2270:1 2299:1 2339:2 2361:1 2386:1 2439:1 2483:2 2506:1 2525:1 2526:1 2541:1 2589:2 2640:1 2671:1 2688:1 2721:2 2796:1 2803:1 2817:1 2825:1 2859:2 2863:1 2894:3 2975:1 
0 0 0 0.0004303686109400881 29:1 35:1 41:1 63:1 66:1 67:1 78:2 81:1 82:1 94:1 99:1 112:1 149:1 151:1 157:1 159:2 188:1 197:1 204:1 214:1 223:1 225:1 226:7 250:1 268:1 277:1 280:1 290:3 292:2 294:1 299:1 324:1 333:1 336:3 348:1 362:1 364:1 367:2 371:1 390:1 406:1 408:1 493:1 513:1 516:1 533:1 535:4 563:1 569:1 576:1 586:1 592:1 624:1 644:2 675:1 696:1 724:1 731:2 769:1 772:1 804:1 809:1 811:1 838:1 841:1 851:1 861:1 872:2 876:1 889:1 907:1 920:1 922:1 925:1 928:1 942:1 989:1 1014:6 1017:1 1033:1 1047:1 1080:1 1087:1 1090:2 1091:1 1092:1 1094:1 1097:1 1103:1 1106:1 1141:1 1162:2 1168:1 1169:1 1175:1 1186:1 1199:1 1214:1 1225:1 1226:1 1227:1 1239:2 1273:1 1282:1 1299:1 1315:1 1318:1 1340:1 1345:2 1357:1 1387:1 1395:1 1405:2 1414:1 1419:1 1433:1 1450:1 1458:1 1479:1 1491:1 1515:1 1519:1 1524:1 1526:1 1528:1 1551:1 1568:2 1570:1 1576:1 1577:1 1586:1 1589:3 1642:1 1647:1 1703:1 1721:1 1733:1 1759:1 1778:1 1783:2 1790:1 1802:1 1819:1 1822:2 1843:1 1881:1 1883:1 1890:1 1901:1 1903:1 1918:1 1934:1 1940:2 1960:1 1970:1 1973:1 2003:1 2013:1 2063:1 2072:2 2085:1 2091:1 2112:1 2116:1 2177:1 2178:1 2181:6 2193:1 2220:1 2227:1 2239:1 2251:3 2261:1 2304:1 2305:1 2317:1 2336:1 2342:1 2344:1 2350:1 2356:1 2366:1 2394:1 2397:1 2459:2 2492:2 2495:1 2530:1 2553:3 2579:1 2582:1 2604:1 2620:1 2643:1 2645:1 2651:1 2672:1 2683:1 2691:1 2707:1 2799:1 2800:1 2803:1 2825:1 2859:1 2875:1 2906:1 2948:1 2991:1 
0 0.001866319310971899 0.0003616411099419339 0 5:1 8:2 14:1 38:2 50:1 54:1 77:1 85:1 86:1 89:1 92:1 105:1 114:1 117:1 142:1 150:1 157:2 171:2 177:2 179:3 180:1 181:3 194:1 225:1 230:1 237:1 241:1 251:2 261:1 264:1 287:1 291:1 296:2 303:1 309:2 316:1 318:1 329:1 330:1 333:1 336:1 343:1 373:1 377:1 385:1 387:1 388:3 389:1 395:1 401:2 405:1 413:1 433:1 440:1 446:1 449:2 461:1 468:1 475:1 478:1 480:1 490:1 493:1 495:1 507:1 510:1 514:1 521:1 526:1 529:1 535:1 556:2 564:1 571:2 577:1 584:1 601:1 608:1 614:1 615:1 618:1 630:1 643:1 648:1 666:1 672:2 675:2 685:1 693:1 696:1 716:1 720:1 725:1 734:1 735:1 740:1 756:3 761:1 763:1 791:1 803:1 804:2 806:1 833:1 837:1 849:1 853:1 856:1 862:1 873:1 878:1 883:2 895:1 896:1 907:1 910:1 920:1 922:1 930:2 931:1 947:1 959:1 960:2 961:1 971:1 984:1 998:1 1000:1 1013:1 1026:1 1032:1 1033:1 1035:1 1069:1 1100:2 1108:1 1116:1 1130:1 1139:1 1146:1 1173:1 1175:1 1179:2 1184:1 1188:1 1192:1 1197:1 1215:1 1217:1 1218:1 1220:1 1223:1 1229:1 1232:1 1245:1 1249:1 1256:1 1261:1 1264:3 1281:1 1282:1 1286:1 1292:1 1294:1 1298:1 1321:1 1357:3 1367:1 1369:1 1376:1 1382:1 1392:1 1397:2 1402:2 1416:1 1417:2 1419:2 1424:2 1427:1 1428:1 1432:1 1439:2 1456:1 1490:1 1525:1 1527:1 1548:1 1551:1 1567:1 1584:1 1585:1 1593:1 1610:1 1614:1 1617:1 1629:1 1630:3 1638:1 1647:1 1657:1 1667:1 1684:1 1704:1 1709:1 1723:1 1725:1 1732:1 1741:1 1750:1 1778:2 1795:2 1804:1 1814:1 1817:1 1820:1 1823:1 1824:1 1832:1 1849:1 1853:1 1854:2 1864:1 1876:1 1888:1 1895:1 1911:2 1915:2 1916:2 1919:1 1927:3 1947:1 1956:1 1957:1 1960:1 1970:1 1981:1 1984:2 1987:1 1988:1 1991:1 2026:1 2038:1 2042:1 2049:1 2074:1 2076:1 2081:1 2090:1 2093:1 2101:1 2104:1 2111:3 2144:2 2160:1 2166:1 2168:1 2170:1 2176:1 2184:2 2200:1 2208:1 2219:1 2267:1 2269:1 2285:1 2294:1 2299:1 2329:1 2332:2 2336:1 2365:1 2378:1 2389:2 2396:1 2409:2 2418:1 2447:1 2453:1 2460:1 2488:1 2512:1 2514:1 2529:2 2531:1 2543:1 2570:1 2571:1 2599:1 2605:1 2629:1 2636:1 2640:1 2642:1 2643:1 2664:1 2666:1 2669:1 2675:1 2677:1 2681:1 2685:1 2689:2 2693:1 2694:1 2702:1 2705:1 2725:1 2726:1 2735:1 2749:1 2771:1 2772:2 2797:1 2806:1 2822:2 2823:1 2824:2 2838:1 2853:1 2855:1 2856:1 2859:1 2861:1 2875:1 2882:1 2912:1 2930:1 2935:1 2940:2 2952:1 2954:1 2955:1 2960:1 2976:1 2984:1 2990:1 
0 0 0 0.0001342305326741314 8:1 9:1 11:1 12:1 22:1 30:1 38:1 46:1 48:1 49:1 57:1 69:1 94:1 114:1 134:1 138:1 140:1 163:1 178:1 186:1 194:1 211:1 257:1 268:1 280:1 283:1 287:1 291:1 292:1 309:1 311:1 321:1 325:1 330:1 344:1 352:1 359:1 360:1 365:1 383:1 386:2 393:1 395:1 397:1 407:1 410:1 424:1 430:2 442:1 443:1 455:1 457:1 472:1 499:1 515:2 518:1 530:1 532:2 533:1 567:1 575:1 579:2 588:1 596:1 623:1 643:1 645:1 647:1 649:1 659:1 663:1 676:1 687:1 691:1 692:2 706:1 716:1 725:2 730:1 753:1 761:2 763:1 769:2 770:1 781:1 785:1 804:1 814:2 819:1 838:1 857:1 860:1 864:2 866:1 875:1 888:1 891:1 896:1 897:1 898:1 914:1 918:1 934:1 942:1 959:1 996:2 998:1 1006:1 1007:1 1010:1 1024:1 1026:1 1027:1 1045:1 1061:2 1082:1 1104:2 1105:1 1108:1 1122:2 1126:1 1144:1 1147:1 1161:1 1169:1 1170:1 1192:1 1198:1 1202:1 1219:1 1224:1 1240:1 1247:1 1253:1 1256:1 1263:1 1264:1 1275:2 1280:1 1281:1 1282:2 1285:1 1290:1 1303:1 1318:1 1327:1 1329:1 1330:1 1334:1 1339:1 1350:1 1354:1 1358:2 1377:1 1392:2 1396:1 1411:1 1430:1 1436:1 1466:3 1482:1 1485:1 1488:1 1490:1 1492:1 1531:1 1538:1 1542:2 1551:1 1562:1 1564:1 1576:1 1577:2 1583:1 1601:1 1602:1 1606:1 1607:1 1612:1 1616:1 1629:1 1633:1 1647:1 1654:2 1657:1 1663:1 1664:1 1665:1 1671:1 1690:1 1694:1 1701:3 1727:2 1732:1 1736:2 1739:2 1751:1 1752:1 1754:1 1758:1 1786:1 1808:1 1829:1 1830:1 1834:1 1853:1 1863:1 1878:1 1890:1 1903:1 1918:1 1940:1 1945:1 1973:2 1987:1 1992:1 2003:1 2013:1 2020:1 2029:1 2042:1 2054:2 2056:1 2058:1 2059:1 2109:1 2115:1 2120:2 2124:1 2125:1 2130:1 2148:1 2156:1 2167:1 2175:1 2185:1 2205:1 2213:1 2232:1 2245:1 2248:1 2251:2 2270:1 2277:1 2282:2 2299:1 2314:1 2317:1 2332:1 2336:1 2356:1 2362:1 2378:1 2383:1 2402:1 2432:1 2457:2 2472:1 2495:1 2499:1 2520:1 2543:1 2556:1 2588:1 2596:1 2603:1 2629:1 2633:1 2638:1 2650:1 2659:1 2664:1 2667:1 2671:1 2694:1 2702:1 2703:1 2722:1 2762:1 2788:1 2799:1 2801:1 2815:2 2821:1 2824:1 2828:3 2833:1 2834:1 2836:1 2846:2 2851:1 2853:1 2859:2 2866:1 2874:1 2890:1 2906:1 2927:2 2933:1 2936:1 2940:1 2944:1 2946:1 2991:1 
0.004687613619827741 0.0008883246269950424 0.004915337313992791 0.0003106719738404782 13:1 32:2 36:1 60:1 82:1 85:1 105:1 181:1 189:1 198:1 203:1 209:1 232:1 252:1 291:1 299:1 307:1 333:1 382:1 400:1 416:2 427:1 430:1 458:1 478:1 491:1 505:1 508:1 524:1 556:1 560:1 569:1 592:2 608:1 660:1 661:2 724:1 745:2 756:1 782:1 812:1 814:1 828:1 840:2 851:1 854:1 888:1 890:1 896:1 913:2 917:1 920:1 930:1 943:2 959:1 994:1 1009:1 1019:1 1127:1 1162:1 1174:1 1182:2 1203:1 1223:1 1225:1 1229:1 1257:1 1262:1 1281:1 1289:1 1300:1 1370:1 1409:1 1419:1 1500:1 1501:2 1503:1 1610:1 1645:1 1721:1 1722:1 1772:1 1790:1 1816:1 1821:2 1889:1 1975:1 1981:1 1992:1 2020:1 2053:1 2110:1 2112:1 2182:1 2231:1 2239:1 2240:1 2242:1 2250:1 2281:1 2306:1 2324:1 2338:1 2345:1 2374:1 2380:1 2429:1 2470:1 2473:1 2499:1 2588:1 2594:1 2605:1 2628:1 2642:1 2663:1 2704:2 2706:1 2708:1 2711:1 2722:1 2728:1 2772:1 2812:1 2842:1 2886:1 2901:1 2913:2 2928:1 2963:1 2964:1 2970:1 2993:1 
0 0.0001590185705637653 0 0 1:1 47:2 57:1 79:1 92:1 101:2 123:2 125:2 133:1 138:1 175:1 178:1 202:1 204:1 237:1 247:1 277:1 289:1 329:1 360:1 376:1 414:2 419:4 443:2 521:1 523:1 528:1 535:1 562:1 569:1 576:2 595:5 622:1 660:1 661:1 687:1 730:1 731:1 732:1 734:1 747:1 754:1 761:1 798:1 811:1 812:1 912:1 951:1 957:1 967:1 999:1 1009:1 1039:1 1050:1 1065:1 1117:1 1155:1 1157:1 1172:1 1176:1 1177:1 1184:1 1210:1 1221:1 1245:1 1254:4 1274:1 1317:3 1319:1 1335:1 1419:1 1445:1 1489:1 1522:1 1523:1 1533:2 1546:1 1547:1 1555:1 1565:15 1577:1 1589:1 1612:3 1631:1 1634:1 1647:1 1652:1 1724:1 1737:1 1751:4 1765:2 1767:1 1771:1 1794:1 1800:1 1824:1 1840:1 1843:3 1855:1 1946:6 1973:1 1977:1 1980:1 1981:2 2009:1 2022:1 2062:1 2090:1 2150:1 2161:1 2170:1 2180:1 2183:1 2186:1 2190:1 2191:1 2198:1 2239:1 2248:2 2284:1 2298:1 2344:1 2358:3 2386:1 2453:1 2458:3 2462:1 2509:3 2546:1 2555:1 2562:2 2579:1 2586:1 2617:3 2667:1 2675:1 2690:1 2733:1 2742:1 2747:1 2758:1 2815:1 2836:1 2855:1 2909:3 2912:2 2921:1 2928:1 2930:1 2946:1 2947:1 2970:1 2998:1 
0 0.0004727873251941848 0 0 12:1 19:1 22:1 32:1 38:1 53:1 66:1 67:1 70:1 78:1 81:1 98:1 100:1 103:1 108:1 110:1 113:2 122:3 151:1 169:1 171:1 176:1 181:1 184:1 193:1 201:1 210:1 214:1 217:1 222:1 226:1 237:1 241:1 248:1 249:2 251:1 277:1 281:2 307:1 311:1 312:1 334:1 351:1 354:1 356:1 359:1 365:1 371:1 373:1 381:4 396:1 409:1 424:1 427:1 430:1 435:1 437:1 450:1 465:1 478:1 491:1 496:1 499:1 515:1 533:1 558:1 577:1 620:1 629:1 631:1 643:1 663:1 694:1 696:2 701:1 702:1 727:1 735:1 762:1 771:1 838:1 840:2 842:1 845:2 862:1 863:1 871:1 884:1 907:1 908:1 919:1 920:1 953:1 956:3 988:1 990:2 1000:1 1001:2 1012:1 1018:1 1039:1 1050:1 1062:1 1066:1 1081:4 1089:1 1093:1 1097:1 1103:1 1107:1 1121:1 1123:1 1134:1 1145:1 1146:1 1147:1 1155:1 1163:1 1167:2 1169:1 1199:1 1227:1 1250:1 1251:1 1256:1 1275:1 1277:1 1280:1 1282:1 1314:1 1315:2 1325:6 1338:1 1344:3 1346:2 1352:1 1364:1 1414:1 1433:1 1439:1 1451:1 1473:1 1491:1 1523:1 1524:1 1531:1 1534:1 1544:1 1545:1 1570:1 1577:1 1590:1 1630:1 1640:1 1652:1 1664:3 1665:1 1668:1 1669:1 1679:1 1695:1 1697:1 1709:1 1711:1 1724:1 1761:2 1764:1 1788:1 1829:1 1861:1 1873:1 1879:1 1883:1 1888:1 1896:1 1936:1 1941:2 1953:1 1973:2 1974:1 1995:1 2032:2 2039:1 2045:1 2107:1 2145:2 2150:1 2161:1 2166:1 2180:1 2192:1 2226:1 2238:1 2249:1 2270:1 2277:1 2290:1 2342:1 2374:1 2375:1 2378:1 2400:1 2407:1 2417:2 2451:2 2492:1 2495:1 2508:1 2521:1 2533:5 2545:1 2571:1 2576:1 2579:3 2580:1 2589:1 2621:2 2633:1 2638:2 2659:1 2680:1 2683:1 2688:1 2690:1 2789:1 2824:1 2846:1 2847:1 2848:2 2850:1 2859:1 2865:1 2873:1 2879:1 2886:2 2890:1 2894:1 2913:1 2924:1 2925:1 2955:1 2984:1 2998:1 
0.001168218298905302 0 0.0005166060436669107 0.004648435227557406 35:1 44:2 58:1 60:1 61:1 78:1 93:1 114:1 120:1 122:1 151:1 167:1 183:1 240:1 251:2 252:1 253:2 269:1 294:1 325:1 385:1 425:1 427:3 462:1 463:1 532:1 558:1 624:2 637:1 657:1 765:1 783:3 829:1 858:2 888:1 996:1 1023:1 1047:1 1053:1 1242:1 1267:2 1288:1 1299:1 1338:1 1345:1 1347:1 1358:1 1461:1 1494:1 1525:1 1551:1 1552:1 1661:1 1724:1 1735:1 1760:1 1808:1 1835:1 1843:1 1891:1 1940:1 1946:1 1948:1 1963:1 1967:3 2003:3 2006:1 2065:1 2181:1 2205:1 2239:1 2261:1 2404:1 2467:1 2482:1 2484:1 2510:1 2617:1 2672:1 2760:1 2772:2 2862:1 2899:1 2913:1 2968:1 2992:1 
0.001127456002319672 0 0 0 3:1 11:1 26:1 32:1 35:1 38:1 50:1 107:2 111:1 113:1 122:1 126:1 138:1 155:1 163:1 180:1 211:1 215:1 229:1 238:3 250:1 252:4 264:1 283:1 299:1 301:1 311:1 334:1 336:2 342:1 364:1 379:1 391:1 401:1 405:1 407:1 414:1 433:2 434:1 437:1 450:1 452:1 455:1 460:1 501:1 522:1 528:1 535:2 540:1 558:1 564:1 570:1 577:1 578:1 629:1 638:1 653:1 658:1 660:1 662:1 675:1 694:1 709:1 713:1 714:2 717:1 743:1 768:1 804:1 839:1 843:1 848:1 849:2 875:1 887:1 890:1 931:1 932:1 966:1 967:1 980:1 990:1 998:1 1000:2 1002:1 1003:2 1007:1 1009:1 1014:1 1021:1 1026:1 1027:1 1056:1 1126:1 1129:1 1146:1 1165:1 1176:1 1201:1 1202:1 1204:1 1209:2 1240:1 1247:1 1253:1 1255:1 1296:2 1301:1 1307:1 1312:1 1319:1 1368:1 1372:1 1389:1 1404:3 1405:1 1413:1 1419:1 1427:1 1436:2 1457:1 1460:1 1480:1 1482:1 1484:1 1486:1 1487:2 1490:1 1497:1 1498:1 1519:1 1522:1 1523:1 1535:1 1547:1 1554:1 1590:1 1611:1 1614:1 1615:1 1647:1 1656:1 1657:1 1667:1 1674:1 1703:2 1704:1 1713:1 1718:1 1749:1 1750:1 1759:1 1822:1 1828:1 1860:1 1873:1 1876:1 1878:1 1937:1 1957:2 1968:1 1969:1 1988:1 2026:1 2031:1 2037:1 2038:1 2044:1 2047:1 2051:1 2067:1 2073:1 2087:1 2098:1 2104:1 2135:1 2142:1 2144:1 2145:1 2151:1 2184:1 2187:1 2193:1 2209:1 2214:1 2219:1 2227:1 2231:1 2262:1 2269:2 2270:1 2277:2 2297:1 2309:1 2325:1 2336:1 2341:1 2389:1 2401:1 2415:1 2418:1 2461:1 2462:1 2499:1 2506:1 2541:1 2546:1 2553:1 2562:1 2605:1 2610:1 2617:1 2642:1 2652:1 2660:1 2669:1 2692:1 2711:2 2714:1 2741:1 2811:2 2824:1 2844:1 2846:1 2908:1 2909:1 2943:1 2967:1 2968:1 2990:1 
0 0.0007465235359956094 0 0 1:1 36:1 55:2 71:1 79:1 93:6 94:1 101:1 120:1 128:1 129:1 132:1 143:1 148:1 186:1 198:1 204:1 220:1 230:12 243:1 262:1 321:1 336:2 354:1 389:1 396:1 397:1 409:1 434:1 437:2 465:1 513:2 524:1 526:1 555:1 583:1 586:1 616:1 619:1 621:1 639:4 657:2 673:1 691:1 692:1 698:7 712:1 734:2 746:9 769:1 785:1 804:1 833:1 861:1 877:1 926:1 935:1 938:1 970:1 986:1 1004:1 1011:1 1019:1 1029:1 1050:1 1051:2 1058:3 1062:1 1072:1 1085:1 1097:3 1107:1 1123:2 1185:1 1204:7 1216:1 1218:1 1231:1 1235:1 1239:1 1298:1 1300:1 1318:1 1329:2 1352:1 1382:2 1386:1 1398:1 1414:1 1418:1 1432:1 1447:1 1460:1 1467:1 1477:2 1487:4 1518:1 1579:1 1581:1 1597:1 1599:1 1625:1 1645:2 1687:1 1697:1 1702:1 1703:1 1720:1 1728:1 1754:1 1764:1 1776:1 1799:1 1813:1 1820:6 1837:6 1906:1 1923:3 1926:1 1977:1 1987:1 2019:1 2023:1 2030:1 2033:1 2034:1 2078:1 2123:1 2124:1 2148:1 2165:1 2167:1 2198:1 2231:1 2237:1 2238:1 2261:1 2286:1 2288:1 2302:1 2319:1 2364:1 2375:1 2455:3 2473:2 2491:2 2494:1 2529:1 2530:1 2531:1 2545:1 2564:7 2568:2 2573:1 2576:1 2587:3 2608:1 2621:1 2637:1 2690:1 2714:1 2726:1 2761:1 2788:1 2795:1 2799:1 2807:1 2830:1 2836:1 2862:1 2879:1 2911:1 2935:2 2961:1 2995:1 2998:1 
0.002446063437951104 0.002765148796806142 0.001674563700097654 0.0006344924238182052 4:1 22:1 45:1 46:1 53:1 63:1 64:1 70:1 76:1 83:1 84:1 99:1 105:1 110:1 114:1 120:1 122:2 129:1 132:2 133:1 145:1 152:1 153:1 154:1 163:1 169:1 177:1 182:1 187:2 202:1 209:1 219:1 224:1 225:1 233:1 238:1 240:1 244:1 245:1 256:1 261:1 264:1 271:1 272:1 281:1 283:1 286:1 287:1 288:1 290:1 291:1 292:1 296:2 301:1 303:1 309:1 310:1 313:1 317:1 322:1 323:1 333:1 334:1 336:1 354:1 355:1 356:1 365:1 366:1 383:1 390:1 391:1 398:2 400:1 401:1 404:1 422:1 434:1 442:1 443:1 459:1 466:1 476:1 481:1 483:1 489:1 493:1 499:1 501:1 513:1 525:1 533:1 540:1 542:1 552:2 560:1 561:1 578:1 579:1 582:1 583:1 588:1 596:1 602:2 611:2 619:1 620:1 623:1 635:1 640:1 643:1 644:1 649:2 656:3 658:1 664:1 668:1 678:2 680:1 681:1 688:1 690:1 692:1 694:1 695:1 697:1 704:1 714:1 718:1 725:2 736:1 747:1 751:1 772:1 774:1 788:1 790:1 804:1 815:1 821:1 824:1 828:1 835:1 836:1 851:1 856:2 865:2 867:1 871:1 872:1 884:2 888:2 890:1 892:1 895:1 902:1 907:1 913:1 918:1 921:1 922:1 928:1 931:1 943:2 946:1 954:1 960:1 967:1 975:1 984:1 991:1 992:1 1014:1 1041:2 1045:1 1046:2 1049:1 1064:1 1077:1 1090:1 1092:1 1099:1 1101:1 1108:1 1115:1 1120:1 1129:4 1131:1 1139:1 1157:1 1162:2 1165:1 1176:1 1180:1 1192:2 1196:1 1200:1 1209:1 1210:3 1211:1 1223:1 1230:1 1245:1 1247:1 1259:2 1265:1 1270:1 1271:1 1277:1 1289:1 1291:1 1300:1 1303:1 1318:1 1326:1 1328:1 1337:1 1341:1 1350:1 1353:1 1383:1 1384:1 1390:1 1401:1 1408:1 1423:1 1430:1 1436:1 1442:1 1446:1 1466:1 1471:1 1472:1 1482:1 1500:1 1503:2 1514:1 1536:1 1541:1 1546:2 1555:1 1559:1 1560:1 1573:1 1578:2 1579:1 1580:1 1584:1 1599:1 1605:1 1616:1 1617:1 1623:2 1630:1 1632:4 1634:1 1641:1 1642:1 1646:2 1647:2 1651:1 1656:1 1664:1 1667:1 1701:2 1708:1 1713:1 1716:1 1724:1 1729:2 1731:1 1748:1 1750:1 1768:1 1771:1 1772:1 1788:1 1801:1 1803:1 1805:1 1809:3 1817:2 1821:1 1823:1 1827:1 1831:1 1832:1 1834:1 1841:1 1843:1 1845:1 1847:1 1848:1 1853:1 1857:1 1866:1 1873:1 1878:1 1902:1 1912:1 1916:1 1924:1 1932:2 1948:1 1953:1 1954:1 1957:1 1960:1 1961:1 1963:7 1982:3 2000:1 2004:1 2011:1 2020:1 2022:1 2028:1 2041:1 2045:1 2058:1 2065:1 2066:1 2079:1 2085:1 2092:1 2093:1 2096:1 2105:1 2122:1 2124:1 2142:1 2144:1 2152:1 2153:1 2169:1 2185:1 2186:1 2189:1 2191:1 2205:2 2218:1 2226:1 2227:1 2238:1 2263:1 2265:1 2274:1 2282:1 2299:1 2304:1 2314:1 2323:1 2328:1 2352:1 2370:1 2383:1 2385:1 2387:1 2396:1 2404:1 2416:1 2419:1 2423:1 2430:1 2452:1 2456:1 2466:1 2469:1 2483:3 2503:1 2504:1 2516:1 2526:1 2531:1 2534:1 2535:1 2539:1 2548:1 2558:1 2563:1 2573:1 2575:1 2584:1 2596:1 2603:1 2607:1 2612:1 2621:1 2624:1 2627:1 2632:1 2644:1 2646:1 2650:1 2652:1 2664:1 2674:1 2685:1 2694:1 2702:1 2707:1 2710:1 2726:1 2732:1 2738:2 2752:1 2755:1 2758:2 2760:1 2762:2 2775:1 2776:1 2799:1 2801:1 2810:3 2822:1 2824:1 2826:2 2838:1 2839:1 2851:1 2855:1 2862:1 2875:3 2885:1 2887:1 2893:1 2899:1 2900:1 2913:1 2919:1 2925:1 2936:1 2955:1 2957:1 2974:1 2991:1 2995:1 2999:1 
0.006470338839244105 0.001761395633342299 0.003320730111153671 0.004862336680222703 29:1 45:1 50:1 64:1 68:1 85:1 90:1 94:1 125:1 149:1 160:1 197:1 217:1 252:1 276:1 283:1 296:1 297:2 311:1 339:1 343:1 370:1 371:1 386:1 441:1 465:1 473:1 483:1 500:1 516:2 527:1 534:1 535:1 546:1 550:1 554:1 575:1 580:1 586:1 587:1 647:1 667:1 677:1 713:1 721:1 752:1 785:2 829:2 887:1 918:1 985:1 986:1 1054:1 1064:1 1100:1 1118:1 1159:1 1162:1 1169:1 1171:1 1185:1 1203:1 1235:1 1260:1 1270:1 1299:1 1337:1 1356:1 1370:1 1401:1 1419:1 1428:1 1431:1 1448:1 1476:1 1501:1 1508:1 1526:1 1567:1 1610:1 1639:1 1650:1 1665:1 1711:1 1713:1 1751:1 1758:1 1764:1 1789:1 1821:1 1845:1 1891:1 1915:1 1928:1 1940:1 1941:1 2003:1 2031:1 2045:2 2056:1 2078:1 2098:1 2139:1 2160:1 2183:1 2189:1 2251:1 2271:1 2277:1 2286:1 2297:1 2348:1 2353:1 2357:1 2404:1 2427:1 2473:1 2489:1 2497:1 2519:1 2529:1 2533:1 2548:1 2571:1 2577:1 2579:1 2583:1 2589:2 2596:1 2605:1 2617:1 2656:1 2671:1 2677:1 2681:1 2687:1 2711:1 2718:1 2745:1 2772:2 2806:1 2826:1 2837:1 2848:1 2860:1 2865:1 2905:1 2917:1 2935:1 2955:1 2998:2 
0.003317217553469129 0.00126205071744487 0.001448514555034203 0.001105165528407058 5:3 43:1 50:1 60:1 66:1 71:4 74:1 80:1 83:1 97:1 101:1 122:1 131:1 149:1 161:1 168:1 171:1 180:1 183:1 187:1 188:1 190:1 199:1 230:1 235:1 239:1 242:1 243:1 244:1 251:1 252:1 254:1 255:1 258:1 262:1 272:1 281:1 285:1 289:1 294:1 302:1 306:1 310:1 314:1 327:1 333:1 336:1 339:1 346:1 355:2 357:1 360:1 365:1 368:1 377:1 383:2 396:1 398:1 400:1 401:1 406:1 408:1 409:2 419:2 421:1 427:1 465:1 469:1 486:2 498:1 504:1 507:1 525:1 527:1 529:1 533:2 535:3 536:1 561:1 563:1 569:1 580:1 581:1 612:1 616:2 618:1 623:1 624:2 634:2 640:1 641:1 643:1 652:1 692:1 693:1 710:1 711:1 712:1 716:1 720:1 725:1 728:1 729:1 731:1 745:1 753:1 757:1 762:1 778:1 779:1 783:1 784:1 787:1 816:1 833:2 842:1 847:1 851:1 863:1 866:2 871:1 877:1 881:1 883:1 887:1 890:1 893:1 923:1 933:1 937:2 946:1 954:1 959:1 962:1 971:1 975:1 1012:1 1023:1 1075:1 1089:1 1097:1 1098:1 1115:1 1121:1 1122:3 1123:2 1127:1 1131:1 1144:1 1167:1 1170:1 1172:1 1174:2 1186:2 1189:1 1204:1 1206:2 1213:2 1216:1 1229:1 1243:1 1250:1 1254:1 1255:1 1258:2 1267:1 1269:1 1271:1 1276:2 1285:1 1292:1 1294:1 1303:1 1340:1 1343:1 1344:1 1352:1 1364:1 1365:1 1366:1 1378:1 1393:1 1397:1 1408:1 1419:1 1420:1 1441:1 1444:1 1453:1 1455:1 1457:1 1460:1 1475:1 1477:1 1478:1 1479:1 1492:2 1507:1 1511:2 1516:2 1518:1 1524:1 1549:1 1567:1 1575:1 1577:1 1594:1 1597:1 1598:1 1607:1 1610:1 1625:1 1630:2 1648:1 1652:1 1668:3 1674:1 1682:2 1700:1 1707:1 1710:1 1721:1 1733:2 1742:1 1745:1 1747:1 1761:1 1776:1 1779:1 1791:1 1796:1 1802:1 1805:1 1814:2 1837:1 1839:1 1840:1 1846:1 1850:1 1868:1 1869:1 1876:1 1896:2 1902:1 1947:1 1965:2 1966:1 1976:1 1977:1 1982:1 1987:1 1990:1 1998:1 2001:1 2013:1 2034:1 2047:1 2053:1 2054:1 2059:2 2061:1 2067:1 2068:1 2078:1 2080:2 2083:1 2108:1 2112:1 2113:1 2140:1 2145:1 2154:1 2156:1 2157:1 2158:1 2159:1 2168:1 2179:1 2181:1 2222:1 2231:1 2233:1 2239:1 2240:1 2248:1 2253:1 2272:1 2292:1 2330:1 2331:1 2332:1 2336:1 2338:2 2345:1 2355:1 2357:1 2374:1 2384:1 2386:1 2393:1 2406:1 2414:2 2417:1 2420:1 2422:1 2432:1 2436:1 2451:1 2466:1 2489:1 2491:1 2494:1 2498:2 2505:1 2509:1 2514:1 2517:1 2529:1 2544:2 2557:1 2570:1 2576:1 2578:2 2602:1 2614:1 2624:1 2625:1 2626:1 2641:1 2648:1 2649:1 2682:1 2693:1 2696:1 2699:1 2702:1 2711:1 2717:2 2723:1 2725:1 2726:1 2750:1 2778:1 2780:1 2782:1 2787:1 2791:1 2829:1 2846:1 2854:1 2860:1 2868:1 2877:1 2904:1 2932:1 2936:1 2945:1 2946:1 2982:1 2985:1 
0.0002511540882688984 0 0.002741973585311266 0 28:2 36:1 55:1 58:5 59:1 80:2 83:1 87:1 114:1 151:1 161:1 174:2 191:1 227:1 313:1 328:1 331:1 371:1 437:1 514:1 525:1 573:1 585:1 627:1 691:1 705:1 717:1 746:1 764:1 773:1 779:1 824:1 825:1 835:1 836:1 842:2 849:1 887:1 939:2 947:1 968:1 993:1 1004:2 1006:1 1058:3 1063:1 1123:1 1137:1 1138:2 1143:1 1181:1 1235:1 1332:2 1346:1 1347:1 1370:1 1381:1 1382:1 1398:1 1401:1 1463:1 1551:1 1582:1 1587:1 1607:1 1624:1 1645:1 1697:2 1700:1 1712:1 1730:2 1742:1 1744:1 1752:1 1779:1 1818:2 1825:1 1829:1 1901:2 1948:1 1958:1 2004:1 2017:1 2018:1 2037:2 2048:1 2057:1 2059:1 2090:1 2153:1 2160:1 2199:1 2204:1 2278:1 2281:1 2296:1 2302:1 2408:1 2414:1 2442:3 2494:1 2540:1 2567:1 2710:1 2725:1 2763:1 2768:1 2782:1 2873:1 2894:1 2897:1 2905:1 2912:1 2931:1 2957:1 
0.002568563270047469 0 0.001653482076784156 0 7:1 12:1 17:1 48:1 50:1 86:1 122:1 129:1 151:1 155:1 174:1 175:1 211:1 238:1 246:1 287:1 345:1 352:1 356:1 374:1 408:1 450:1 451:1 457:1 465:2 497:1 503:1 515:1 530:1 536:1 541:1 548:1 628:1 639:1 660:1 701:1 711:1 728:1 746:1 810:1 898:2 911:1 915:1 917:1 937:1 1023:1 1038:1 1059:1 1075:1 1084:1 1097:2 1107:4 1111:1 1113:1 1123:2 1139:2 1146:1 1154:2 1159:1 1160:1 1253:1 1263:1 1268:1 1272:1 1331:1 1346:1 1354:1 1389:1 1394:1 1409:1 1434:1 1480:1 1525:1 1538:2 1551:1 1566:1 1568:1 1586:1 1594:1 1601:1 1636:1 1685:1 1700:1 1701:1 1733:1 1746:1 1761:1 1769:1 1788:2 1839:1 1846:1 1856:1 1863:1 1882:1 1887:1 1889:1 1921:1 1940:1 1952:1 1964:1 1967:1 1977:1 2019:1 2032:1 2064:1 2129:1 2148:1 2153:1 2177:1 2228:1 2277:1 2282:1 2288:1 2318:1 2342:2 2346:1 2347:1 2360:1 2366:1 2430:1 2434:1 2435:1 2488:1 2571:1 2618:2 2649:1 2662:1 2699:1 2727:1 2770:1 2895:1 2921:1 2932:1 2983:1 
0 0 0.000411431545808767 0.001008277148427609 27:2 32:1 38:3 54:1 65:1 66:1 70:1 78:1 85:1 93:1 110:1 125:1 148:2 152:1 157:1 170:1 179:1 181:1 201:1 209:2 228:1 232:1 237:1 275:3 299:1 302:1 348:1 349:1 364:1 388:1 394:1 395:1 406:1 414:2 420:2 443:1 444:1 450:1 485:1 493:1 499:1 535:1 538:1 551:1 559:1 579:1 582:1 617:1 623:1 637:1 638:1 657:1 662:1 682:1 688:1 696:1 700:1 730:2 739:1 769:2 772:1 777:1 780:1 791:1 793:1 795:1 803:1 819:1 833:1 834:1 839:1 847:1 853:1 860:1 872:9 880:1 888:1 913:1 914:1 924:1 931:1 932:1 956:1 965:1 967:1 992:1 994:1 1000:1 1009:1 1010:1 1031:1 1045:1 1052:1 1055:1 1082:1 1095:1 1103:1 1104:1 1118:1 1150:1 1204:4 1213:1 1219:1 1262:1 1283:1 1304:2 1311:1 1323:1 1354:1 1357:1 1466:1 1496:1 1509:1 1519:1 1534:2 1537:1 1556:1 1568:1 1577:4 1579:1 1586:1 1590:1 1595:1 1614:1 1620:1 1638:1 1640:1 1647:1 1671:1 1678:1 1713:1 1722:1 1726:1 1755:1 1759:2 1760:1 1853:1 1885:1 1887:1 1888:2 1895:1 1903:4 1925:2 1948:1 1954:1 1957:1 1994:1 2003:1 2022:2 2024:1 2051:1 2086:1 2116:1 2174:1 2184:1 2213:2 2255:1 2271:1 2305:1 2306:4 2328:1 2339:1 2343:1 2345:1 2364:1 2395:1 2402:1 2410:1 2411:1 2419:1 2440:2 2458:3 2466:1 2467:1 2470:1 2482:1 2488:1 2490:1 2499:1 2521:1 2528:1 2556:3 2580:1 2584:2 2597:1 2599:1 2612:1 2614:1 2645:1 2651:2 2677:1 2702:1 2706:1 2711:1 2722:2 2728:1 2731:1 2741:1 2753:1 2762:1 2781:2 2800:1 2818:1 2822:1 2844:2 2845:1 2846:3 2858:2 2873:1 2875:3 2884:1 2888:1 2892:1 2913:1 2932:1 2936:1 2966:2 2968:1 2972:1 2973:1 
0.003196492815318894 0.002087930904348749 0.001881148376554321 0.0006589768701972208 1:1 5:1 11:1 18:1 32:1 40:1 46:2 49:2 53:1 76:1 79:2 81:1 83:1 95:1 97:1 106:1 110:1 114:1 116:1 124:1 128:3 129:1 132:1 140:2 146:1 149:1 151:1 152:1 157:2 166:1 174:2 181:1 192:1 199:1 200:1 201:1 204:1 205:1 209:1 223:2 230:1 231:1 232:1 243:2 245:1 249:1 252:3 265:1 276:1 285:1 289:1 292:1 296:1 299:1 308:1 311:1 315:1 324:1 333:1 337:1 347:1 354:1 361:2 362:1 381:2 396:1 399:1 404:1 409:1 413:1 414:1 420:1 431:1 436:1 437:1 454:1 455:2 466:1 468:1 488:1 507:1 510:1 516:1 534:1 535:1 540:1 542:2 554:1 574:1 580:1 620:1 622:1 631:1 632:1 647:1 650:1 657:1 661:1 664:1 679:1 681:1 683:1 685:1 686:1 694:1 703:1 712:1 714:1 715:1 730:1 735:1 736:3 742:1 748:1 751:1 752:1 756:1 766:1 768:1 791:1 804:1 808:1 817:1 828:1 835:1 837:1 841:1 849:1 854:1 858:2 872:1 876:1 878:1 899:1 913:1 914:1 922:1 932:1 934:1 935:1 944:1 985:1 994:2 998:1 1001:1 1003:2 1004:1 1008:1 1013:2 1016:2 1020:1 1026:1 1029:1 1056:1 1067:1 1069:1 1071:1 1087:1 1088:1 1092:1 1100:1 1101:1 1106:1 1113:1 1116:1 1118:1 1133:1 1144:1 1146:1 1155:2 1162:1 1164:1 1168:1 1173:1 1184:1 1193:1 1196:2 1214:1 1219:1 1220:1 1224:1 1228:1 1235:1 1239:1 1244:1 1253:1 1269:1 1274:1 1279:1 1288:1 1291:1 1304:2 1310:1 1312:1 1326:1 1340:1 1346:1 1363:1 1372:1 1373:1 1375:1 1383:1 1387:1 1400:1 1409:1 1413:1 1414:1 1422:1 1429:1 1434:1 1436:1 1445:2 1456:1 1468:1 1470:1 1478:1 1484:1 1490:1 1501:1 1510:1 1511:1 1515:2 1519:1 1521:1 1530:2 1534:2 1539:1 1548:1 1549:1 1554:1 1562:1 1564:1 1573:2 1582:1 1600:1 1606:1 1628:1 1631:1 1632:1 1651:1 1658:1 1673:1 1674:1 1696:1 1697:1 1701:2 1703:2 1721:1 1724:1 1725:1 1730:1 1733:2 1750:1 1751:1 1760:1 1787:1 1792:1 1805:1 1808:1 1817:1 1820:1 1824:1 1828:1 1830:1 1833:1 1855:1 1870:2 1879:1 1883:1 1892:1 1903:1 1905:1 1918:1 1926:1 1942:1 1952:1 1957:2 1960:1 1984:1 1986:1 1993:1 1998:1 1999:1 2003:2 2016:1 2022:1 2035:1 2045:1 2053:1 2059:1 2076:1 2080:1 2086:1 2093:1 2095:1 2110:1 2120:1 2124:2 2135:1 2142:1 2150:1 2172:1 2177:1 2178:1 2184:3 2211:1 2213:1 2217:1 2231:1 2240:1 2249:1 2250:3 2268:1 2275:1 2278:1 2291:1 2302:2 2304:1 2307:2 2312:2 2319:1 2336:1 2343:1 2344:1 2348:1 2350:1 2351:1 2358:2 2361:1 2371:1 2378:1 2385:1 2388:1 2391:1 2402:1 2406:1 2410:1 2416:1 2426:2 2453:1 2454:2 2456:1 2459:2 2461:1 2473:1 2478:1 2484:1 2485:1 2502:1 2504:1 2522:1 2527:1 2528:1 2539:1 2545:1 2547:1 2548:1 2556:1 2557:1 2565:2 2572:1 2574:1 2590:1 2592:1 2598:1 2599:1 2610:1 2614:1 2621:2 2627:1 2642:1 2650:1 2657:1 2691:1 2703:2 2710:1 2711:1 2714:1 2716:1 2719:2 2738:1 2745:1 2757:1 2765:1 2766:1 2776:1 2791:1 2792:1 2825:1 2827:1 2855:1 2861:1 2864:1 2865:1 2870:1 2871:1 2882:1 2886:1 2891:1 2892:1 2905:1 2919:1 2925:1 2929:1 2930:1 2932:1 2938:1 2943:1 2947:1 2949:1 2956:1 2959:1 2961:1 2974:1 
0 0.001916747174349558 0 0.001574656676406327 8:1 17:1 29:1 31:1 41:1 47:1 60:1 67:1 73:1 82:1 92:2 94:1 95:1 107:1 110:1 117:1 120:2 128:1 138:1 149:2 151:1 152:2 163:2 166:2 170:1 187:2 201:1 220:1 223:1 235:1 240:1 242:1 243:1 252:1 259:3 264:1 266:1 273:1 274:1 277:1 278:1 281:1 283:1 284:2 286:1 289:1 293:1 307:1 356:1 365:1 379:8 388:1 391:2 401:1 407:1 414:2 416:1 425:1 426:1 430:1 431:2 435:2 443:1 452:1 458:1 470:1 477:1 496:1 498:1 499:1 500:1 501:1 511:1 512:1 518:3 524:1 535:3 540:1 562:1 565:2 567:1 573:1 592:2 613:1 623:1 626:2 640:1 643:1 649:1 660:1 661:2 667:1 675:1 679:1 694:1 697:1 705:1 714:1 718:2 730:2 731:3 733:1 736:1 737:1 743:1 754:2 763:1 772:1 773:1 792:1 797:1 814:2 815:1 819:1 824:2 830:1 848:1 851:1 855:1 857:1 866:1 872:1 907:2 915:1 921:1 928:1 930:1 934:1 942:1 954:3 955:1 957:1 966:1 1001:1 1004:1 1005:2 1026:1 1027:1 1030:2 1035:1 1062:1 1095:2 1108:1 1129:1 1158:1 1163:1 1173:1 1193:1 1194:1 1196:1 1199:1 1218:1 1219:2 1235:1 1236:1 1264:1 1282:1 1290:1 1316:1 1347:1 1350:1 1355:1 1361:1 1385:1 1388:1 1409:1 1412:1 1417:1 1418:1 1423:1 1427:1 1440:1 1441:1 1454:1 1466:3 1486:1 1496:1 1504:1 1519:2 1520:1 1522:2 1528:2 1531:2 1533:1 1537:1 1556:1 1558:1 1565:1 1569:1 1575:1 1576:1 1589:2 1604:2 1612:1 1616:1 1624:1 1636:1 1643:1 1657:1 1670:1 1680:1 1681:1 1691:1 1705:1 1722:1 1734:1 1742:1 1755:1 1756:1 1762:2 1765:1 1770:1 1774:1 1785:2 1786:1 1806:1 1814:1 1816:1 1834:1 1836:1 1852:1 1868:1 1879:1 1885:1 1891:2 1895:1 1903:1 1918:1 1919:1 1922:1 1940:1 1944:1 1946:1 1988:1 1998:1 2003:2 2048:1 2054:2 2056:2 2060:1 2063:2 2072:1 2091:1 2093:1 2097:1 2108:2 2115:1 2128:1 2130:1 2135:1 2163:1 2165:1 2171:1 2172:1 2174:1 2177:1 2186:1 2190:1 2195:1 2223:1 2228:1 2231:2 2240:1 2245:1 2251:1 2260:1 2264:1 2277:1 2313:1 2324:2 2328:1 2329:1 2348:1 2350:1 2356:1 2368:1 2369:1 2373:1 2386:1 2409:1 2412:1 2449:1 2451:1 2461:1 2479:1 2484:1 2488:2 2493:1 2522:2 2533:1 2556:1 2577:1 2589:1 2598:1 2600:1 2604:1 2605:1 2607:1 2612:1 2614:3 2629:1 2630:2 2640:1 2643:2 2652:1 2660:1 2671:1 2708:1 2711:3 2723:1 2738:1 2758:1 2762:1 2765:2 2774:1 2816:1 2823:1 2843:1 2853:1 2890:1 2909:1 2913:1 2925:1 2929:1 2931:2 2932:1 2939:1 2943:1 2949:1 2952:1 2955:3 2971:1 2993:1 
0.001892836515744963 0.001059654169166629 0.0002666509519872464 0.001692422274260087 9:1 19:1 41:1 50:1 99:1 101:1 114:1 120:1 138:1 152:1 179:1 182:1 216:1 219:1 278:1 311:2 329:1 365:1 401:1 419:1 473:1 519:1 532:1 594:1 619:1 657:1 673:1 696:1 728:1 849:1 932:1 959:1 1047:1 1134:1 1191:1 1271:1 1281:1 1351:1 1362:1 1382:1 1387:1 1396:1 1401:1 1424:1 1446:1 1470:1 1494:1 1524:1 1567:1 1571:1 1576:1 1585:1 1586:1 1593:1 1597:1 1630:1 1632:1 1647:1 1667:1 1688:1 1709:1 1737:1 1750:1 1761:1 1784:1 1843:2 1855:1 1941:1 1946:1 2004:1 2017:1 2034:1 2068:1 2094:1 2188:1 2198:1 2214:1 2238:1 2241:1 2246:1 2324:1 2342:1 2348:1 2395:1 2444:1 2475:1 2546:2 2586:1 2608:1 2614:1 2619:1 2637:1 2686:1 2701:1 2711:1 2745:1 2782:2 2806:1 2846:1 2877:1 2959:1 
0.02039550081607746 0.002446273073985046 0.007983219838874263 0.009167436201379912 78:1 128:1 151:1 296:1 320:1 506:1 518:1 526:2 647:1 792:1 942:1 948:1 954:2 1046:1 1129:1 1149:1 1299:1 1363:1 1379:2 1548:1 1607:2 1629:2 1778:1 1781:1 1881:2 1946:1 2014:1 2053:1 2060:1 2085:1 2219:1 2242:1 2251:1 2255:1 2361:1 2459:2 2461:1 2519:1 2548:1 2604:1 2607:1 2639:1 2689:1 2760:1 2805:1 2902:1 2913:1 2939:1 2976:2 
0.007893294911799846 0.003431004734027261 0.003425005267394525 0.005129125084143891 3:1 14:1 26:1 36:1 51:1 56:1 60:1 102:1 122:1 138:1 162:1 167:2 168:1 186:1 197:1 226:1 248:1 259:1 272:1 281:1 306:1 311:1 319:2 345:1 374:1 377:2 382:1 394:1 396:1 430:1 434:1 450:1 463:1 474:1 481:1 507:1 508:1 517:1 533:1 592:2 609:1 631:1 657:1 681:1 685:1 712:1 716:1 725:1 756:1 768:1 769:1 773:1 800:1 829:1 836:1 860:1 865:1 878:1 880:1 886:1 887:1 920:1 954:1 970:1 979:1 998:1 1011:1 1034:1 1039:1 1065:1 1098:1 1140:1 1154:1 1165:1 1169:1 1176:1 1191:1 1203:1 1204:1 1206:1 1209:1 1213:1 1225:1 1235:1 1240:1 1260:1 1287:1 1292:1 1302:1 1329:1 1338:1 1344:1 1345:1 1374:1 1380:1 1391:1 1405:1 1417:1 1419:1 1422:2 1442:1 1450:1 1482:1 1591:1 1594:1 1616:1 1617:1 1632:1 1634:2 1636:1 1637:1 1644:1 1647:1 1669:1 1675:1 1693:1 1696:1 1706:1 1720:1 1722:1 1724:1 1736:1 1760:1 1783:1 1810:1 1820:1 1831:1 1832:1 1834:1 1837:1 1917:1 1919:2 1961:1 1967:1 1973:1 1984:1 2010:1 2039:1 2048:1 2060:1 2097:1 2098:1 2102:1 2184:1 2190:1 2197:1 2226:1 2231:1 2250:1 2256:1 2264:1 2287:1 2290:1 2317:1 2325:1 2327:1 2336:1 2367:1 2370:1 2420:1 2496:1 2510:1 2543:1 2548:1 2550:1 2590:1 2608:1 2629:1 2649:1 2660:1 2669:1 2674:1 2684:1 2688:1 2811:1 2812:1 2814:1 2817:2 2827:4 2859:1 2906:1 2922:1 2943:1 2968:1 
0.002460539291241265 0 0 0.001223371002895373 49:1 50:2 71:1 78:2 84:3 121:1 122:3 136:1 138:1 143:1 193:1 203:1 236:1 258:1 264:2 310:1 315:1 334:1 335:1 339:1 346:2 381:1 389:1 409:1 427:1 453:1 455:1 492:1 514:1 520:1 529:1 563:1 569:1 589:1 610:2 613:1 618:1 619:1 624:2 634:2 635:1 644:1 681:1 693:1 752:2 761:2 762:1 779:1 842:1 909:1 962:1 988:1 1039:2 1048:1 1062:1 1079:1 1082:3 1091:1 1098:1 1134:1 1185:1 1237:1 1251:1 1310:1 1315:1 1335:6 1344:2 1346:1 1364:2 1409:1 1413:1 1424:1 1476:1 1547:1 1571:1 1648:1 1667:2 1669:4 1682:1 1697:1 1715:1 1728:1 1742:2 1749:1 1751:1 1798:1 1818:1 1837:1 1865:1 1914:1 1946:1 1976:1 1993:1 2006:1 2016:1 2032:1 2066:1 2081:2 2089:1 2094:2 2141:1 2150:1 2153:1 2207:1 2232:1 2233:3 2235:1 2239:1 2254:1 2268:1 2298:1 2304:1 2316:3 2381:1 2413:1 2414:2 2425:1 2428:3 2488:2 2492:1 2508:1 2515:1 2544:1 2554:1 2565:2 2578:1 2593:2 2619:1 2782:2 2811:6 2853:1 2948:1 
0 0.0001828706838160708 0 0 3:1 5:1 7:2 27:1 35:2 38:1 48:1 74:1 99:3 137:2 149:1 157:8 167:1 181:3 182:14 188:1 197:1 199:1 238:1 240:1 251:1 252:2 253:4 285:1 291:1 318:1 330:2 334:1 348:2 356:1 361:1 362:2 364:1 371:1 372:1 374:1 396:1 401:1 413:1 417:3 443:1 457:1 473:2 490:1 498:1 515:1 517:2 520:1 533:1 548:1 579:1 620:2 630:3 638:1 652:1 662:2 670:1 686:1 689:1 700:4 722:1 743:1 745:2 751:1 756:1 761:2 763:1 772:1 773:1 831:1 833:2 842:3 850:4 865:1 867:1 872:1 884:1 887:1 890:1 896:3 912:1 913:1 916:1 917:4 931:1 939:2 943:1 946:2 959:3 966:1 1014:2 1015:1 1033:1 1057:1 1067:1 1089:2 1107:1 1117:1 1123:1 1129:1 1130:4 1146:1 1168:1 1172:1 1186:2 1217:1 1219:1 1253:1 1254:2 1256:2 1269:1 1282:1 1294:1 1314:1 1315:1 1321:1 1342:1 1363:1 1366:1 1373:1 1404:9 1436:1 1448:2 1451:1 1464:1 1466:4 1473:2 1477:1 1494:1 1514:6 1519:1 1526:2 1550:1 1557:1 1568:1 1570:3 1583:1 1595:1 1610:1 1612:2 1620:2 1621:1 1630:1 1646:1 1648:2 1663:8 1664:1 1695:1 1707:1 1726:1 1735:3 1749:2 1761:5 1768:4 1769:4 1771:1 1779:2 1783:1 1798:3 1848:1 1855:1 1878:2 1903:1 1919:1 1927:1 1931:1 1959:1 1962:1 2022:1 2085:1 2104:2 2124:1 2137:3 2193:3 2233:1 2244:1 2271:2 2343:1 2360:1 2379:1 2384:3 2390:1 2395:1 2418:1 2419:1 2421:1 2430:1 2448:1 2506:1 2526:1 2565:1 2571:1 2576:1 2599:1 2612:1 2613:1 2618:1 2657:1 2663:1 2667:1 2672:1 2677:1 2707:3 2732:1 2745:3 2769:1 2775:1 2804:2 2805:1 2816:1 2825:1 2866:1 2892:1 2901:1 2906:1 2951:1 2982:1 2983:5 2990:1 
0 0 0 0.0003330904787118321 38:1 81:2 128:3 226:3 252:1 277:1 308:1 372:1 455:2 492:1 496:1 498:1 515:2 535:1 569:2 661:1 731:2 756:1 850:1 888:1 954:1 1014:1 1046:1 1109:1 1123:1 1225:2 1254:1 1282:1 1309:1 1347:1 1511:4 1519:1 1531:1 1551:1 1664:2 1703:1 1814:1 1905:1 1940:1 1975:1 2088:1 2128:1 2178:1 2181:3 2191:1 2193:1 2231:2 2342:1 2390:2 2444:1 2467:1 2562:1 2572:1 2695:1 2711:4 2789:1 2824:1 
9.104096854983218e-05 0.001842865753443366 0 0 1:1 14:1 22:1 55:1 58:1 84:1 86:1 93:1 100:1 135:1 161:1 164:1 184:1 191:1 193:1 198:1 226:1 228:1 263:1 273:1 277:1 280:1 282:1 300:1 330:1 334:1 336:1 340:2 353:1 364:1 365:1 371:1 375:1 389:1 390:1 398:1 404:1 408:1 420:1 427:1 441:1 445:1 452:1 457:1 460:1 463:1 465:1 468:1 486:1 495:2 498:1 511:1 515:1 526:1 558:1 608:1 612:2 631:2 648:1 666:1 671:1 677:1 680:1 687:2 716:1 721:2 731:1 736:1 746:2 748:3 752:2 762:1 775:1 831:1 833:1 834:1 837:1 847:2 853:1 869:1 877:1 909:1 919:1 933:1 959:1 971:1 992:1 1020:1 1023:2 1037:1 1042:1 1055:1 1072:1 1082:1 1089:1 1094:1 1097:1 1134:4 1139:1 1142:1 1146:1 1147:1 1162:1 1174:1 1179:1 1186:1 1189:1 1197:1 1201:1 1255:1 1256:1 1258:1 1271:1 1277:1 1281:1 1297:1 1325:1 1340:1 1346:2 1359:1 1392:1 1405:1 1435:1 1440:1 1451:1 1467:1 1473:1 1518:1 1526:1 1534:1 1541:1 1553:1 1568:1 1591:1 1595:1 1631:1 1655:1 1740:1 1751:1 1761:1 1798:1 1813:1 1814:2 1818:2 1820:1 1838:1 1856:1 1887:1 1900:2 1901:2 1932:1 1954:1 1955:1 1957:1 1965:1 1970:1 1974:1 1991:1 2016:1 2029:1 2030:1 2032:1 2039:1 2040:1 2041:1 2058:1 2063:1 2067:1 2088:1 2104:1 2114:1 2138:1 2156:1 2172:1 2176:1 2181:1 2189:1 2193:1 2286:2 2307:1 2329:1 2331:1 2372:1 2373:1 2385:2 2386:1 2405:1 2406:1 2408:2 2414:1 2488:1 2492:1 2494:1 2500:1 2505:1 2511:1 2525:1 2543:1 2564:2 2608:2 2626:2 2644:1 2652:1 2661:1 2662:1 2672:2 2684:1 2703:1 2723:1 2775:1 2811:2 2828:1 2860:1 2862:1 2883:1 2897:1 2904:1 2958:1 
0.0002149317958254803 0.0006158616645928501 0 0.0001608015233054222 3:1 7:3 10:1 27:1 37:1 43:1 50:5 64:1 67:1 93:1 95:1 105:1 121:1 129:1 136:1 150:1 161:1 174:1 185:1 187:1 193:1 198:1 200:1 203:1 204:1 208:1 211:1 212:1 213:2 217:1 230:1 233:1 294:1 298:1 300:1 303:1 306:1 324:1 356:2 384:2 389:1 392:1 423:1 436:1 450:1 458:1 465:1 473:1 474:1 478:1 483:1 496:1 498:2 499:1 500:1 506:1 512:1 515:6 517:3 533:3 536:1 539:1 541:1 550:1 575:1 587:1 598:1 599:1 618:1 619:1 623:1 665:1 713:1 720:1 730:1 753:2 765:1 831:1 842:1 850:1 861:1 865:1 891:1 895:1 918:1 919:1 924:1 926:1 932:1 933:1 962:2 975:1 988:1 1005:2 1012:1 1014:1 1039:1 1073:1 1093:1 1107:3 1112:1 1123:1 1143:1 1149:1 1154:1 1160:1 1167:3 1169:1 1179:1 1189:1 1217:2 1240:2 1241:1 1264:1 1273:1 1288:1 1293:2 1295:1 1310:1 1315:1 1325:1 1346:1 1369:1 1373:1 1391:1 1394:2 1397:1 1399:1 1408:1 1422:1 1424:1 1427:1 1430:1 1432:1 1433:2 1451:1 1455:1 1474:1 1480:1 1484:1 1488:1 1491:1 1509:1 1517:1 1521:1 1525:1 1538:1 1543:1 1557:2 1560:1 1568:3 1583:1 1585:1 1597:1 1606:2 1607:1 1615:1 1630:1 1633:1 1647:1 1658:1 1659:2 1664:2 1667:2 1672:1 1677:1 1683:1 1723:1 1728:1 1740:2 1761:1 1769:1 1772:1 1799:1 1836:1 1839:3 1854:2 1856:1 1881:2 1883:1 1889:1 1901:1 1914:1 1931:1 1935:1 1945:1 1967:2 1985:1 1993:1 2004:1 2026:2 2032:1 2048:1 2063:1 2064:1 2080:1 2109:1 2137:2 2139:1 2145:1 2155:1 2159:1 2162:1 2173:1 2174:1 2177:1 2189:1 2197:1 2220:1 2232:1 2244:1 2262:1 2279:1 2286:1 2291:1 2314:1 2327:1 2339:2 2344:1 2347:1 2381:1 2386:2 2395:1 2397:1 2408:1 2424:1 2438:1 2446:1 2467:1 2475:1 2479:1 2480:1 2488:2 2489:1 2513:1 2524:1 2544:1 2557:1 2573:1 2593:1 2613:1 2628:1 2630:1 2636:1 2655:1 2656:2 2670:1 2696:1 2716:1 2729:1 2783:1 2791:2 2796:1 2825:1 2844:1 2856:1 2863:2 2879:2 2909:1 2935:1 2969:1 2971:3 2983:2 2984:2 
0.000923383369749612 0 0 0 3:1 7:5 24:13 36:2 48:4 55:2 79:1 84:1 115:1 124:1 148:1 151:2 193:1 226:1 258:1 311:2 339:1 340:1 370:1 374:3 375:1 428:1 475:1 485:1 511:1 515:2 517:1 532:2 542:1 561:1 608:1 663:1 671:1 707:1 778:1 833:1 865:4 894:2 917:1 1011:1 1012:2 1023:1 1039:1 1066:1 1089:1 1091:2 1117:1 1165:2 1226:1 1235:1 1315:4 1325:1 1329:2 1331:1 1345:2 1356:1 1359:1 1375:1 1433:1 1451:1 1452:1 1468:1 1473:1 1478:1 1501:1 1529:1 1534:1 1586:1 1617:1 1637:1 1669:1 1721:1 1761:1 1779:1 1862:1 1863:1 1865:1 1881:1 1901:1 1914:1 1955:1 1964:1 1970:1 1974:1 2001:1 2030:2 2064:1 2094:2 2137:1 2145:2 2208:1 2215:1 2216:2 2228:1 2265:1 2286:2 2291:1 2293:1 2316:1 2332:1 2397:1 2403:1 2408:1 2421:1 2430:1 2467:2 2469:1 2471:1 2485:1 2490:1 2496:1 2503:1 2515:1 2519:2 2543:1 2565:1 2571:3 2619:1 2638:4 2669:1 2727:1 2735:1 2745:2 2770:1 2778:2 2805:1 2809:1 2825:3 2833:2 2848:1 2894:1 2983:4 
0 0 0.0006637357835124443 0 30:1 33:1 37:1 40:2 60:1 98:1 99:1 128:1 134:1 149:1 157:3 182:1 226:2 245:1 251:1 272:1 291:3 347:1 379:7 382:2 401:1 422:1 438:1 464:2 486:1 493:1 499:1 518:2 520:1 532:1 549:1 590:1 591:1 593:1 603:1 623:2 652:2 669:1 670:1 685:1 694:2 700:1 702:1 704:1 714:1 730:1 740:1 777:1 789:1 814:1 838:1 848:1 893:1 931:2 937:1 966:1 983:1 996:1 1010:1 1011:1 1013:1 1015:1 1026:1 1094:2 1103:1 1109:1 1191:1 1217:1 1225:1 1247:1 1282:2 1283:1 1291:1 1294:1 1297:1 1320:2 1326:1 1340:1 1358:1 1377:1 1399:1 1402:1 1411:1 1417:1 1419:2 1458:1 1486:1 1495:2 1500:1 1525:1 1537:1 1562:1 1583:1 1600:1 1610:1 1612:2 1616:1 1632:1 1654:2 1692:1 1746:1 1750:1 1751:1 1758:1 1806:1 1827:1 1836:1 1867:1 1903:3 1905:1 1948:1 1967:1 1975:1 2068:1 2085:2 2091:1 2111:1 2177:1 2181:2 2192:1 2237:1 2240:1 2244:1 2288:1 2293:1 2349:1 2368:1 2424:1 2458:1 2490:1 2499:1 2521:1 2556:2 2589:1 2631:1 2650:1 2691:1 2732:1 2757:1 2758:1 2792:1 2808:1 2860:1 2878:1 2883:1 2886:1 2900:1 2912:1 2929:1 2948:1 2954:1 2999:1 
0.001270408679839668 0 0 0 28:1 60:1 103:1 136:1 176:1 350:1 413:1 440:1 447:1 486:2 495:1 505:1 533:1 563:1 612:1 680:1 681:2 688:1 731:1 821:1 824:1 825:2 865:1 917:2 995:1 1037:2 1063:1 1142:1 1169:1 1344:1 1503:1 1518:1 1524:1 1541:1 1578:6 1622:1 1630:1 1639:1 1668:1 1701:2 1761:1 1771:1 1796:1 1817:2 1873:1 1929:1 1993:1 2037:2 2039:1 2128:2 2193:1 2205:1 2216:2 2342:2 2359:1 2381:1 2442:1 2455:1 2483:1 2491:1 2509:1 2519:1 2529:2 2581:1 2587:1 2630:1 2636:1 2670:1 2700:1 2733:1 2804:1 2817:1 2859:1 2880:1 
0 0.001289975195556264 0 0.001881593825525848 17:1 28:1 36:1 38:1 46:3 57:1 67:1 92:1 107:1 120:1 125:2 131:1 165:1 170:1 178:1 179:2 184:1 189:1 210:1 249:1 258:1 261:1 304:1 309:1 312:1 364:1 374:1 395:3 401:1 449:1 508:1 514:1 526:1 581:1 654:1 660:2 661:1 696:1 703:2 710:1 804:1 814:1 819:1 841:1 854:1 857:1 866:1 883:1 920:1 956:2 957:1 959:3 976:1 1073:1 1097:1 1107:1 1109:1 1123:1 1128:1 1175:1 1197:1 1257:1 1282:1 1320:1 1338:1 1345:1 1350:2 1377:1 1380:1 1387:1 1390:1 1404:1 1410:1 1450:1 1467:1 1471:1 1527:1 1536:1 1539:1 1560:1 1604:1 1630:1 1648:1 1651:1 1657:1 1688:3 1690:1 1694:1 1698:1 1737:1 1758:1 1798:1 1836:1 1918:2 1948:1 1977:1 2063:1 2104:1 2115:1 2120:1 2138:1 2151:1 2160:1 2170:1 2212:1 2228:1 2237:1 2256:1 2274:1 2314:1 2320:1 2373:1 2387:1 2390:2 2425:1 2436:1 2499:1 2533:1 2545:1 2552:1 2589:1 2627:1 2637:1 2667:1 2722:1 2736:1 2812:1 2824:1 2846:1 2859:1 2882:1 2887:2 2907:1 2932:1 2947:1 2955:1 2966:1 2974:3 2975:1 
0.003355940497467911 0 0 0.007412540640518017 3:1 5:1 6:1 19:1 41:1 58:1 78:1 81:2 108:2 126:2 226:2 240:1 364:1 371:1 419:1 447:1 455:1 468:1 518:3 532:1 586:1 595:2 647:1 700:1 712:1 736:1 737:1 767:1 770:1 772:1 783:4 857:1 868:2 926:1 939:1 1039:1 1045:1 1070:1 1248:1 1299:1 1320:1 1353:1 1444:2 1493:1 1501:1 1630:2 1697:1 1701:1 1720:2 1721:1 1761:2 2018:2 2056:4 2062:1 2081:1 2091:2 2115:1 2192:1 2219:1 2237:1 2251:1 2261:1 2314:1 2327:1 2360:1 2361:1 2375:1 2390:1 2413:1 2432:2 2491:1 2565:1 2579:2 2585:1 2672:1 2686:1 2704:1 2710:1 2762:1 2770:1 2795:1 2862:1 2940:1 2953:1 
0.001059924725065014 0 0 0.001652184550767971 6:1 29:2 46:2 47:1 56:2 61:1 62:1 75:4 93:1 98:1 111:1 125:1 129:1 137:2 138:1 140:1 157:1 159:1 163:1 181:1 182:1 200:1 209:4 210:1 219:1 238:1 252:1 259:2 266:2 292:1 342:1 349:1 356:2 364:2 365:3 371:1 375:1 381:2 401:1 403:1 414:1 427:2 428:1 430:1 438:1 443:2 449:1 461:1 464:1 496:3 520:1 535:2 536:1 543:1 546:1 558:1 560:1 569:1 575:1 576:1 583:1 584:1 599:1 607:1 627:1 631:1 652:1 663:2 667:2 675:1 678:2 692:1 721:1 753:1 768:1 773:1 783:3 811:2 814:3 830:1 845:1 864:1 875:1 876:1 879:1 907:1 914:1 922:1 923:1 938:1 942:1 943:1 953:1 954:2 956:1 971:1 990:4 998:3 1001:3 1005:1 1041:1 1051:2 1081:1 1089:4 1091:1 1119:1 1126:1 1143:1 1145:1 1162:2 1200:1 1210:1 1217:1 1220:1 1229:1 1281:1 1282:1 1294:2 1314:2 1359:1 1368:1 1376:1 1391:1 1395:1 1408:1 1410:1 1421:2 1430:1 1431:1 1466:1 1484:1 1492:1 1495:1 1516:1 1522:1 1526:2 1542:1 1553:1 1568:7 1570:1 1579:1 1594:1 1604:2 1607:1 1609:2 1655:1 1687:1 1697:1 1735:1 1746:1 1752:4 1786:1 1806:1 1809:1 1830:1 1845:1 1854:1 1855:1 1860:1 1880:1 1887:1 1889:1 1890:2 1895:1 1900:1 1911:1 1963:2 1964:1 1967:1 1973:2 2003:1 2019:1 2022:1 2024:1 2034:1 2056:3 2063:1 2072:1 2079:1 2094:2 2115:2 2139:1 2151:1 2192:1 2193:1 2205:1 2209:1 2226:1 2233:1 2237:1 2241:1 2248:1 2279:1 2293:1 2304:1 2309:2 2333:1 2354:1 2371:1 2390:1 2394:1 2419:1 2473:1 2475:1 2500:1 2519:1 2529:1 2553:1 2563:1 2577:1 2582:1 2592:1 2604:1 2651:1 2675:1 2677:1 2721:1 2764:1 2765:3 2782:1 2800:1 2806:1 2807:1 2855:1 2900:1 2902:1 2903:1 2921:1 2929:1 2997:1 
0.001917448221619844 0.0003537049614013045 0.001639415369966251 0.001017479110420681 4:1 18:1 24:2 31:2 46:1 47:1 58:1 66:1 85:1 93:1 101:1 109:1 111:1 123:1 124:1 131:1 134:1 137:1 143:1 157:1 168:1 182:2 184:1 200:2 219:1 222:1 232:1 239:1 244:2 246:1 262:1 279:1 301:1 325:2 347:1 364:1 373:1 387:1 399:3 401:1 405:1 414:2 415:1 425:1 428:2 438:1 443:2 450:1 455:1 472:1 479:1 493:1 496:1 498:1 517:2 531:1 534:2 542:1 543:1 567:1 576:1 582:2 600:1 629:2 647:2 653:1 656:1 667:1 678:1 692:1 696:1 697:1 714:1 721:2 722:2 730:1 757:1 804:3 807:1 829:1 851:1 852:1 858:1 864:1 872:1 880:1 887:1 896:1 908:1 918:1 920:1 922:1 946:1 951:1 956:1 960:1 990:1 995:1 1010:1 1041:1 1051:1 1056:1 1060:1 1071:1 1097:2 1102:1 1104:1 1115:3 1119:1 1134:1 1136:1 1144:1 1179:1 1201:1 1216:1 1227:1 1248:1 1259:1 1274:1 1276:1 1282:1 1284:2 1310:1 1312:1 1323:1 1328:1 1330:1 1337:1 1340:1 1353:1 1370:1 1374:1 1380:1 1382:1 1387:1 1401:1 1413:1 1415:1 1419:1 1431:1 1434:1 1437:1 1443:1 1445:2 1466:1 1487:1 1492:2 1500:1 1509:1 1519:2 1526:1 1527:1 1528:1 1542:1 1544:1 1548:1 1568:1 1573:1 1581:1 1594:1 1604:1 1610:1 1632:1 1633:3 1638:1 1641:1 1645:1 1647:1 1649:1 1654:1 1696:1 1714:1 1721:1 1736:1 1755:2 1764:1 1770:3 1779:1 1785:1 1814:2 1815:1 1823:1 1826:1 1881:1 1887:1 1890:1 1893:1 1939:1 1944:1 1971:1 1980:1 2011:1 2022:1 2032:1 2034:1 2056:2 2066:1 2073:1 2081:2 2093:1 2105:1 2111:1 2150:1 2156:2 2157:1 2160:1 2175:1 2182:1 2188:1 2191:1 2218:1 2219:1 2220:1 2226:1 2233:1 2236:1 2237:1 2241:2 2263:1 2269:2 2271:1 2276:1 2285:1 2289:1 2306:1 2327:1 2354:2 2388:1 2411:1 2427:1 2439:1 2444:1 2448:1 2455:1 2461:1 2467:1 2480:1 2490:1 2502:1 2504:1 2507:1 2513:1 2524:1 2531:2 2539:1 2548:1 2555:3 2580:1 2582:1 2599:1 2607:1 2612:2 2615:1 2618:1 2645:1 2647:1 2649:1 2664:1 2677:1 2708:1 2711:1 2714:1 2721:1 2735:1 2745:1 2754:1 2766:1 2771:1 2778:1 2804:1 2850:1 2862:1 2873:1 2879:1 2881:1 2885:1 2886:1 2902:1 2909:1 2929:1 2956:1 2966:1 2974:1 2980:1 2990:1 2992:1 
0.0006966490856520586 0 0 0 6:1 28:1 35:2 40:1 50:1 58:1 66:1 105:1 106:1 107:1 108:1 126:1 138:1 182:1 199:1 220:1 240:1 245:1 253:1 270:2 284:1 287:1 308:1 310:1 318:1 325:1 346:1 362:1 365:1 371:1 376:1 391:1 392:1 401:2 462:1 463:1 465:1 475:1 499:1 503:1 516:1 517:1 533:1 539:1 546:1 561:1 571:1 573:1 578:1 598:1 619:2 622:1 625:1 634:2 639:1 643:2 652:1 654:1 660:1 665:1 670:1 677:1 678:1 687:1 712:1 731:1 736:1 752:1 753:1 754:1 758:1 780:2 796:1 804:1 808:1 829:1 842:1 844:1 854:1 865:1 867:1 868:1 917:1 919:1 932:1 946:1 956:2 957:1 986:1 994:1 996:1 1000:1 1021:1 1035:1 1048:1 1052:1 1055:1 1056:1 1065:1 1141:1 1142:1 1159:1 1165:1 1169:4 1177:1 1185:1 1186:1 1213:1 1217:1 1226:1 1237:1 1282:1 1283:1 1301:1 1313:1 1324:1 1344:2 1362:1 1383:1 1401:1 1404:1 1454:1 1460:1 1466:2 1468:1 1473:2 1494:1 1495:1 1524:1 1526:1 1527:1 1536:1 1537:1 1568:1 1570:1 1577:1 1580:1 1593:1 1614:1 1616:1 1620:1 1647:1 1667:1 1668:2 1720:1 1733:2 1740:1 1746:1 1761:1 1769:1 1770:1 1781:1 1805:1 1814:3 1881:1 1885:1 1933:1 1949:1 1963:1 1967:3 1973:1 1999:1 2003:1 2037:1 2056:4 2068:1 2111:1 2113:1 2123:1 2145:1 2151:1 2188:1 2201:1 2229:1 2231:1 2234:1 2246:1 2267:1 2335:1 2343:1 2360:1 2364:1 2380:1 2388:1 2427:1 2428:1 2483:1 2500:6 2505:1 2528:1 2534:1 2545:1 2546:1 2549:1 2556:1 2565:1 2571:3 2583:1 2612:1 2638:2 2639:1 2661:1 2676:1 2726:1 2747:1 2797:1 2799:1 2807:1 2818:1 2846:1 2847:1 2899:1 2940:1 2941:1 2948:1 2959:1 2997:1 
0.01021874269098408 0.002675688630041972 0.002521146589930375 0.007447586036625704 19:1 36:3 49:1 61:1 67:1 77:1 79:1 81:1 125:1 230:1 258:1 273:1 276:1 297:1 328:1 425:1 506:1 508:1 517:1 518:1 528:1 535:2 536:2 576:1 592:1 648:1 752:1 882:1 889:1 892:1 894:3 918:1 940:1 959:1 964:1 971:1 972:1 996:1 1001:1 1042:2 1058:1 1114:1 1145:1 1165:1 1195:1 1207:1 1343:1 1389:1 1526:1 1564:1 1622:1 1630:1 1686:1 1784:1 1785:1 1816:1 1878:1 1919:2 1940:1 2063:1 2109:1 2140:1 2148:1 2162:1 2232:1 2241:1 2288:1 2290:1 2352:1 2438:1 2467:1 2482:1 2490:1 2495:1 2499:1 2538:1 2564:1 2577:1 2593:1 2604:1 2620:1 2637:1 2650:1 2684:1 2710:1 2711:1 2713:1 2722:1 2751:1 2777:1 2824:1 2840:1 2873:1 2886:1 2900:2 2968:1 
0.002796192764414558 0.002221351218796252 0.003082540422116277 0.001148343793789476 32:1 49:1 62:1 76:1 85:1 92:1 123:1 129:1 148:1 162:1 174:1 192:1 211:1 218:2 226:1 250:1 274:1 284:1 323:1 325:1 336:1 340:1 343:3 353:1 378:1 379:2 381:1 395:1 399:1 414:1 449:1 468:1 488:1 516:1 562:1 595:1 637:2 662:1 730:1 737:1 749:1 756:1 791:1 864:1 868:1 870:1 881:1 905:1 956:2 967:1 979:1 982:1 1050:1 1056:1 1117:1 1134:1 1148:1 1177:1 1190:2 1235:1 1268:1 1276:1 1318:1 1323:2 1324:1 1363:1 1367:1 1386:1 1387:1 1390:1 1429:2 1466:1 1497:1 1498:1 1535:1 1547:1 1565:1 1597:1 1612:4 1614:1 1703:1 1798:2 1821:1 1834:1 1843:1 1868:1 1937:1 1949:1 2007:1 2009:1 2069:1 2095:1 2097:1 2101:1 2124:1 2125:1 2142:1 2186:1 2211:1 2231:1 2274:2 2275:2 2282:1 2319:1 2323:2 2328:2 2343:1 2346:1 2358:3 2368:1 2383:1 2412:1 2415:1 2424:1 2432:1 2480:1 2511:1 2520:1 2553:1 2604:1 2610:1 2621:1 2660:1 2745:1 2772:1 2796:1 2825:2 2875:1 2928:2 2929:1 
0.002840186071060239 0 0 0.002079554347153352 33:1 46:2 58:1 65:1 107:1 125:7 134:1 135:1 141:3 151:1 159:1 183:1 196:1 213:15 219:1 226:1 245:1 257:1 270:1 308:1 311:1 332:1 343:2 349:1 372:4 381:2 389:1 401:1 455:2 477:1 486:1 492:2 505:1 517:1 533:1 542:1 556:1 573:1 575:4 593:1 602:1 619:3 623:1 624:2 644:1 661:1 664:1 678:1 685:1 693:2 707:1 720:1 730:1 735:1 749:2 775:1 778:1 783:2 814:1 815:1 830:1 850:1 864:1 914:3 926:1 928:1 942:1 954:1 1007:2 1017:1 1038:1 1048:1 1088:1 1111:1 1122:1 1152:1 1162:1 1169:3 1209:1 1288:1 1304:1 1358:1 1370:1 1396:2 1438:1 1472:1 1503:1 1522:1 1524:1 1586:1 1592:1 1597:1 1600:3 1620:1 1695:1 1706:1 1738:2 1750:1 1792:1 1795:1 1806:1 1852:1 1891:2 1892:1 1912:1 1921:1 1931:1 1932:1 1964:1 1994:1 1998:1 2003:1 2068:1 2107:1 2130:1 2145:1 2167:1 2178:3 2181:1 2187:1 2191:1 2192:2 2233:1 2234:1 2240:1 2244:1 2251:1 2261:3 2278:3 2340:1 2360:1 2361:2 2383:1 2390:1 2407:1 2436:3 2444:1 2467:1 2499:3 2504:1 2505:1 2519:1 2531:1 2571:1 2589:2 2617:1 2655:1 2663:1 2671:1 2675:3 2698:1 2712:1 2715:1 2728:1 2789:1 2817:1 2839:1 2869:1 2887:1 2890:1 2904:1 2932:1 2974:2 2975:1 2990:1 
0.002651789781263807 0 0.0009175282143725357 0.003317213441279165 32:2 46:1 57:2 58:1 66:2 75:1 91:1 109:1 113:1 114:2 117:1 120:1 122:1 128:1 133:1 134:1 157:1 169:1 181:1 184:1 194:1 197:1 199:1 200:1 203:1 225:1 238:1 240:2 251:1 261:1 263:2 275:1 280:1 284:1 288:2 290:1 297:1 303:1 310:1 311:1 328:1 336:1 344:1 360:1 362:1 363:1 393:1 396:1 401:1 405:1 408:1 414:1 418:1 425:1 436:1 438:1 443:1 462:1 464:1 465:2 488:1 493:1 523:1 524:1 538:1 571:1 612:2 662:1 665:1 688:1 711:1 712:1 721:1 725:2 732:1 736:1 739:1 741:1 769:1 819:1 823:1 834:1 840:1 848:1 876:1 906:1 921:1 943:1 957:2 969:1 977:2 994:1 998:1 1010:2 1014:1 1036:1 1039:1 1067:1 1081:2 1093:1 1159:1 1162:1 1167:1 1184:1 1196:2 1213:1 1217:1 1225:1 1226:1 1245:1 1281:1 1282:1 1283:1 1288:1 1289:1 1290:1 1297:1 1298:2 1300:2 1313:1 1316:1 1342:1 1352:1 1367:1 1371:1 1375:1 1379:1 1385:1 1404:2 1426:1 1443:2 1452:1 1456:2 1462:1 1466:1 1472:1 1474:1 1489:1 1495:1 1518:1 1519:1 1520:1 1522:1 1526:1 1527:2 1535:1 1553:1 1555:1 1577:2 1598:1 1608:1 1614:1 1655:1 1670:1 1677:1 1701:1 1717:1 1742:1 1760:1 1767:1 1783:1 1790:1 1796:1 1814:1 1816:1 1818:1 1824:1 1835:1 1843:1 1869:1 1891:2 1910:1 1926:1 1935:1 1963:1 1965:1 1973:1 1978:1 1984:2 1994:1 1998:1 2014:1 2033:1 2039:1 2056:2 2076:1 2078:1 2094:1 2111:1 2113:1 2122:2 2128:1 2166:1 2177:2 2178:1 2198:2 2205:1 2220:1 2231:2 2233:1 2257:1 2271:2 2282:1 2301:1 2304:1 2306:2 2343:1 2351:1 2378:1 2381:1 2391:1 2405:1 2429:1 2442:1 2444:1 2457:1 2467:1 2473:1 2480:1 2518:1 2519:1 2551:1 2553:1 2566:1 2577:1 2579:3 2612:1 2617:1 2619:1 2623:1 2626:1 2647:1 2669:1 2672:2 2702:1 2704:1 2719:1 2729:1 2732:1 2748:2 2765:2 2811:1 2817:1 2822:1 2832:1 2838:1 2892:1 2897:4 2958:1 2963:2 
0.002113598395210764 0.001145834618813303 0.001805168271791684 0.002844087553240339 12:1 15:1 25:2 29:2 38:1 46:1 67:1 68:1 75:1 81:1 82:1 85:1 98:1 99:1 108:1 112:1 117:1 125:1 127:1 128:4 148:1 157:1 161:1 163:1 164:1 168:1 176:1 186:1 193:2 199:1 202:1 206:1 215:1 223:1 224:1 238:1 249:1 253:1 265:2 274:1 296:1 302:1 306:1 308:1 329:1 338:1 343:1 356:1 365:1 367:1 376:1 380:1 385:1 388:2 389:2 401:1 409:1 410:1 422:1 425:1 434:2 443:2 451:1 460:1 469:1 488:1 493:1 496:1 500:1 514:2 524:1 528:1 529:1 533:1 535:1 536:1 546:1 552:1 555:1 556:1 571:1 572:1 610:1 621:1 636:1 659:1 665:1 670:1 686:1 687:2 714:2 720:1 730:2 735:1 737:1 738:1 748:5 770:1 775:1 777:1 783:1 791:1 796:1 798:1 804:1 814:1 819:1 847:1 856:1 876:1 908:1 909:2 918:1 921:1 932:1 942:1 943:1 952:1 953:1 955:1 956:2 957:1 968:1 971:1 972:2 1005:1 1015:1 1016:1 1029:1 1031:1 1034:1 1041:1 1046:1 1051:1 1066:1 1072:1 1113:1 1127:1 1129:2 1139:1 1141:1 1148:1 1155:1 1202:1 1211:1 1215:1 1216:1 1224:1 1230:1 1250:2 1251:1 1259:2 1264:1 1276:1 1285:1 1292:1 1296:2 1297:1 1310:1 1318:1 1322:1 1343:1 1348:1 1357:1 1364:2 1365:1 1373:1 1408:1 1411:1 1429:2 1443:1 1471:1 1484:1 1486:1 1488:1 1495:1 1497:1 1499:1 1502:1 1517:1 1519:1 1526:1 1530:1 1534:1 1563:1 1567:1 1569:1 1583:1 1595:1 1600:1 1612:1 1619:1 1632:2 1633:1 1636:1 1658:1 1700:1 1719:1 1721:1 1724:1 1727:2 1747:1 1748:1 1753:1 1754:1 1766:1 1781:1 1822:1 1824:1 1877:1 1878:1 1885:1 1890:1 1894:4 1924:1 1928:1 1929:1 1941:1 1984:1 1985:1 2000:1 2007:1 2047:1 2069:1 2085:1 2103:1 2105:1 2112:2 2115:1 2122:1 2123:1 2124:1 2132:1 2144:1 2150:1 2170:1 2179:2 2181:1 2184:3 2188:1 2191:1 2213:1 2217:1 2235:1 2242:1 2243:1 2248:1 2257:1 2265:1 2270:1 2282:2 2290:1 2296:1 2302:2 2319:1 2327:1 2343:1 2347:1 2352:1 2355:1 2356:1 2362:1 2371:1 2397:1 2402:1 2405:1 2413:1 2414:1 2417:2 2421:1 2457:1 2477:2 2479:1 2488:3 2501:1 2546:1 2553:1 2556:1 2563:2 2579:1 2597:1 2612:1 2618:1 2628:2 2655:1 2669:3 2672:2 2677:1 2679:1 2682:1 2688:2 2691:2 2722:1 2740:1 2758:1 2765:1 2782:1 2787:1 2799:1 2813:1 2824:1 2827:1 2846:1 2865:1 2866:1 2869:1 2899:1 2903:2 2905:1 2921:1 2923:1 2931:1 2942:1 2986:1 
0 0.001125493676441041 0 0.002936050159235616 9:1 13:1 60:1 67:1 78:1 85:1 91:1 103:1 120:2 133:1 134:1 139:1 204:1 214:1 226:2 250:1 259:1 271:1 282:1 298:1 307:3 332:1 438:1 449:1 468:1 580:1 586:1 595:3 627:1 644:2 694:1 765:3 855:1 864:1 872:1 964:1 991:2 1039:1 1090:1 1169:1 1186:1 1199:2 1204:1 1254:1 1313:1 1347:2 1358:1 1446:1 1462:1 1472:1 1522:1 1535:1 1574:1 1576:1 1604:2 1657:2 1676:1 1693:1 1790:1 1794:1 1814:1 1855:1 1863:1 1915:1 1975:1 1984:1 2003:1 2057:1 2066:3 2101:1 2106:1 2180:1 2181:1 2213:1 2239:2 2278:1 2390:1 2410:1 2427:1 2436:1 2448:1 2458:1 2499:1 2551:1 2608:1 2628:1 2723:1 2730:1 2782:1 2792:1 2804:1 2816:1 2887:1 2908:1 2929:1 
0.002230952488765031 0 0.004258217842113401 0.0003463636288053626 17:1 29:1 33:1 36:1 46:1 87:1 88:1 112:1 129:1 131:1 142:1 145:1 184:1 219:1 258:2 399:1 458:1 472:1 511:1 514:1 515:1 604:1 614:1 633:1 709:1 725:1 736:1 746:3 818:1 852:1 855:1 922:1 976:1 998:1 1003:1 1007:1 1017:1 1024:1 1050:1 1067:1 1140:1 1179:1 1257:1 1350:1 1357:1 1448:2 1471:2 1492:1 1560:1 1612:1 1688:2 1697:1 1702:1 1737:1 1742:1 1814:1 1828:1 1863:1 2022:1 2049:1 2085:1 2152:1 2213:1 2215:1 2320:1 2375:2 2393:1 2394:1 2400:1 2405:1 2412:1 2453:2 2458:2 2469:1 2473:1 2511:1 2529:1 2593:1 2758:1 2791:1 2940:1 2980:1 
0.006246153019406175 0.00241433507783833 0.000109099418028493 0.001009176121854528 12:1 24:9 26:1 33:1 49:1 60:1 71:1 81:1 99:1 103:1 113:1 114:1 127:1 128:1 166:1 178:2 187:1 188:1 213:1 226:1 243:1 246:1 257:1 299:1 307:1 315:1 325:1 328:1 331:1 334:1 375:1 442:1 447:1 450:1 455:1 469:1 470:1 486:2 495:1 511:1 517:1 518:1 526:1 566:1 583:1 610:1 631:1 633:1 680:2 698:1 714:1 715:1 717:1 725:1 730:1 746:1 755:1 760:1 779:1 783:1 792:1 847:1 855:1 883:1 894:1 899:1 909:1 926:1 928:1 934:1 947:1 954:1 968:1 1023:1 1047:2 1048:2 1049:1 1054:1 1061:1 1091:1 1113:1 1118:1 1122:1 1165:1 1166:1 1188:1 1194:1 1229:1 1235:1 1281:1 1287:1 1315:1 1346:2 1369:1 1396:1 1440:1 1454:1 1457:1 1476:1 1479:2 1514:1 1522:1 1524:1 1534:1 1535:1 1571:1 1578:1 1586:1 1594:1 1601:1 1612:1 1617:1 1622:1 1646:1 1648:1 1697:3 1724:1 1747:1 1814:1 1815:1 1820:1 1833:1 1850:1 1887:1 1888:1 1891:1 1892:1 1900:1 1904:1 1914:3 1933:1 1949:1 1950:1 1976:1 1982:1 1990:1 2006:1 2013:1 2023:1 2030:2 2032:1 2037:1 2056:1 2063:2 2065:1 2085:1 2104:1 2109:1 2151:1 2159:1 2188:1 2251:1 2267:1 2285:1 2344:2 2345:1 2353:1 2357:1 2367:1 2369:1 2378:2 2397:1 2413:1 2421:1 2443:1 2461:1 2462:1 2479:1 2490:1 2495:1 2499:2 2565:1 2593:2 2622:1 2637:1 2692:1 2709:1 2712:1 2713:1 2771:1 2778:1 2825:1 2839:1 2868:1 2900:1 2906:1 2930:1 2984:1 
0.0004595646492568402 0 0 0.004190367261552142 3:1 17:1 39:1 61:1 69:1 78:1 82:1 93:1 128:1 133:1 138:2 149:1 151:1 155:1 157:4 159:2 182:4 201:1 205:2 226:1 252:2 300:1 320:2 338:1 350:1 390:1 397:1 401:1 422:1 438:1 455:1 464:1 480:1 490:1 498:1 511:1 518:1 531:1 534:1 570:1 581:1 592:1 598:1 628:1 736:1 744:1 783:1 804:1 819:1 838:1 864:2 872:2 886:1 907:1 923:1 937:2 954:1 969:1 1022:1 1033:1 1042:1 1058:2 1066:1 1093:1 1103:1 1107:1 1117:1 1129:1 1150:1 1218:1 1296:1 1303:1 1323:1 1411:1 1575:1 1721:1 1735:1 1756:1 1760:1 1786:1 1803:1 1823:1 1863:1 1875:1 1903:2 1921:1 1952:1 1966:1 1986:1 2003:3 2048:1 2053:1 2056:1 2109:1 2178:1 2180:1 2181:1 2216:1 2233:2 2242:1 2335:1 2344:1 2348:1 2361:1 2399:1 2403:1 2467:1 2470:1 2497:2 2499:1 2556:2 2598:1 2611:1 2618:1 2648:1 2683:1 2684:1 2709:1 2728:1 2730:1 2732:1 2758:1 2772:2 2787:1 2802:1 2807:1 2842:1 2887:1 2902:1 2968:1 2999:1 
0 0 0.001911439176242408 0.002665899537995741 4:1 19:1 29:1 41:1 80:1 94:3 98:1 103:2 122:3 123:3 125:1 133:2 137:1 138:1 152:1 157:1 167:1 179:1 181:1 182:1 186:1 197:1 201:1 226:1 228:1 240:1 251:1 277:1 281:2 282:1 298:1 302:1 309:2 326:2 328:1 365:1 371:1 382:3 387:2 390:1 399:1 407:1 414:1 438:1 461:1 532:1 598:1 614:1 619:1 623:1 629:1 670:1 694:2 746:1 783:1 784:1 788:1 829:1 839:1 868:2 895:1 959:2 972:7 998:1 1006:1 1023:1 1122:2 1129:1 1138:1 1186:4 1210:3 1219:1 1234:1 1240:1 1259:1 1292:1 1299:1 1312:1 1316:1 1347:2 1357:3 1385:1 1436:1 1460:1 1472:1 1485:1 1491:1 1505:1 1533:1 1542:1 1547:1 1570:1 1573:1 1583:1 1590:1 1600:1 1604:4 1609:1 1612:1 1647:2 1652:2 1681:1 1685:1 1781:1 1806:1 1848:1 1876:1 1890:1 1900:1 1931:1 1963:2 1973:2 1975:2 1982:1 1996:1 2042:1 2054:1 2063:2 2067:1 2110:1 2125:1 2178:1 2232:1 2236:2 2237:1 2238:1 2241:2 2250:1 2299:1 2304:1 2320:1 2356:1 2373:1 2392:1 2421:1 2479:1 2480:2 2482:1 2495:1 2523:1 2536:1 2556:1 2565:1 2576:1 2580:2 2582:1 2604:1 2616:1 2671:1 2672:1 2677:1 2694:1 2710:1 2745:2 2767:1 2782:2 2800:1 2846:2 2874:2 2878:1 2879:1 2924:1 2952:3 2964:1 
0.007460881691154745 0.001047978936569737 0.000782373824549413 0.001915609587399907 5:1 17:1 24:1 83:1 116:1 164:1 168:1 200:1 216:1 236:2 254:1 258:2 276:1 335:1 408:1 410:1 419:1 423:1 434:2 459:1 502:1 515:2 519:1 548:1 567:1 573:1 576:1 605:1 623:1 654:1 674:2 691:1 693:2 728:1 729:1 736:2 778:1 825:1 845:1 867:1 876:1 904:1 911:1 915:1 925:1 939:1 962:1 981:1 985:1 1005:1 1017:1 1046:1 1051:1 1059:1 1103:1 1123:1 1149:1 1154:1 1187:1 1191:1 1211:1 1218:2 1247:1 1261:1 1271:1 1288:1 1301:1 1315:1 1329:1 1332:1 1345:1 1358:1 1380:1 1441:1 1467:1 1472:1 1481:1 1494:1 1523:1 1536:1 1541:1 1567:1 1618:1 1630:2 1637:1 1658:1 1683:1 1695:1 1697:1 1714:1 1728:1 1739:1 1747:1 1748:1 1752:1 1761:1 1790:1 1818:1 1839:1 1842:1 1851:1 1856:2 1887:1 1892:1 1909:1 1949:1 1959:1 1964:1 1972:1 2002:1 2048:1 2068:1 2118:1 2144:1 2185:1 2201:1 2207:1 2218:1 2220:1 2222:1 2236:1 2294:1 2299:1 2320:1 2360:1 2366:1 2368:1 2405:1 2411:1 2421:1 2423:1 2451:2 2455:1 2467:1 2470:1 2489:1 2507:1 2516:1 2530:1 2540:1 2604:1 2607:1 2637:1 2665:1 2670:1 2682:1 2693:1 2771:2 2780:1 2795:1 2802:1 2806:1 2862:1 2871:1 2873:1 2894:1 2923:1 2978:1 
0.001653999810954457 0 0 0.0007188640472159749 12:1 32:7 42:1 46:2 56:1 59:1 86:4 93:2 97:1 117:2 121:1 122:1 129:1 161:2 170:1 174:1 200:1 211:2 213:1 234:1 252:4 264:4 267:1 279:1 295:2 296:1 304:1 313:1 330:4 336:2 342:1 343:1 348:1 377:1 379:1 383:1 397:1 399:1 428:1 444:1 495:1 535:16 542:3 543:1 579:1 592:2 618:1 622:1 624:1 643:2 689:1 692:1 701:1 702:1 704:3 710:1 752:1 783:1 791:1 794:1 816:1 825:1 826:1 837:2 852:1 879:1 886:1 910:1 914:1 927:4 965:1 971:1 977:1 988:2 1003:1 1014:1 1021:1 1031:1 1048:11 1056:1 1107:3 1123:1 1129:6 1132:2 1136:1 1169:3 1184:2 1204:2 1226:1 1232:1 1244:1 1247:1 1276:3 1283:1 1325:1 1326:2 1330:1 1332:4 1338:1 1373:4 1387:1 1404:10 1410:1 1419:2 1439:1 1456:4 1464:1 1484:1 1493:3 1501:2 1557:4 1560:2 1577:1 1583:3 1586:1 1589:2 1597:6 1605:1 1607:1 1610:1 1637:1 1650:1 1696:4 1697:1 1701:1 1703:1 1707:2 1715:3 1717:1 1722:2 1728:1 1761:1 1762:1 1764:2 1796:1 1809:1 1820:1 1842:2 1855:3 1935:1 1949:2 1962:1 1970:1 1973:2 1980:1 2004:1 2013:2 2060:2 2072:1 2099:2 2104:1 2106:1 2110:1 2115:1 2117:1 2122:1 2123:1 2137:1 2155:3 2176:1 2179:1 2192:1 2216:1 2226:2 2240:1 2245:1 2257:1 2331:2 2339:11 2358:1 2381:1 2385:1 2399:1 2402:1 2414:1 2439:3 2451:11 2474:1 2505:1 2506:1 2526:4 2578:1 2621:1 2626:1 2627:2 2630:1 2651:1 2669:1 2674:1 2682:1 2686:1 2707:19 2711:2 2721:1 2745:1 2750:2 2758:1 2780:1 2806:1 2808:1 2810:2 2811:1 2831:1 2841:1 2844:1 2881:1 2894:1 2902:1 2914:1 2943:1 2947:1 2955:1 2960:1 2969:6 
9.978038184165372e-05 0 0 0.002237367440147274 20:1 24:1 58:7 84:1 89:2 98:1 116:1 122:1 125:2 138:1 179:1 203:1 219:2 226:1 230:1 271:1 281:1 295:1 311:1 320:2 328:1 377:4 389:2 413:3 419:1 425:1 445:1 465:1 513:1 526:1 536:1 573:1 581:1 620:2 624:2 627:1 643:2 644:2 661:2 689:1 694:1 696:1 730:1 748:2 753:1 758:2 759:2 783:1 825:5 849:1 865:1 906:1 937:1 975:1 983:1 1011:1 1026:1 1052:2 1073:1 1082:2 1095:1 1098:1 1130:2 1131:1 1169:2 1173:3 1212:1 1217:1 1221:1 1230:1 1256:2 1258:1 1262:1 1315:1 1320:1 1327:1 1335:3 1340:1 1344:1 1347:2 1349:2 1440:1 1470:1 1487:1 1509:1 1514:1 1524:1 1538:1 1544:2 1573:1 1588:1 1590:1 1604:1 1657:1 1686:1 1688:1 1697:1 1712:1 1733:3 1742:1 1744:1 1755:3 1756:1 1761:1 1783:1 1802:1 1814:1 1833:1 1837:1 1846:1 1849:1 1883:1 1891:1 1894:1 1898:1 1907:1 1918:1 1936:1 1940:1 1941:1 2010:1 2017:1 2040:1 2051:1 2054:1 2068:1 2090:1 2119:1 2137:1 2150:1 2164:1 2171:1 2178:1 2180:1 2181:2 2184:1 2187:1 2233:2 2245:1 2251:1 2263:1 2276:1 2285:1 2299:2 2332:1 2371:1 2386:1 2388:1 2405:1 2425:1 2453:1 2457:1 2459:2 2464:1 2467:2 2470:2 2482:1 2485:2 2486:1 2499:2 2507:1 2621:1 2624:1 2637:1 2661:1 2693:1 2726:1 2728:1 2730:1 2752:1 2772:2 2777:1 2778:2 2799:1 2810:1 2824:1 2825:1 2831:1 2844:1 2853:1 2859:2 2861:1 2878:1 2899:1 2946:1 2957:2 2968:1 2980:1 
5.373683022540511e-05 0 0 0 3:1 25:1 36:1 40:1 57:1 66:1 77:2 85:1 92:4 104:1 125:1 138:2 144:1 147:1 156:1 159:2 179:9 181:2 186:1 206:1 230:1 240:1 244:3 250:1 253:1 254:1 262:1 268:1 294:1 297:2 298:1 312:1 319:1 323:1 349:1 361:1 365:1 375:1 386:2 401:1 427:1 432:1 438:1 439:1 443:1 458:1 460:1 465:1 478:1 488:1 496:1 497:1 517:1 532:1 534:1 556:1 557:1 558:1 565:2 567:1 587:1 600:4 608:1 610:1 620:5 623:1 625:2 630:1 633:1 639:1 702:1 705:1 719:1 744:1 747:1 756:1 762:1 804:1 806:1 814:2 825:1 833:2 837:1 848:1 868:1 871:2 872:1 879:2 893:1 903:1 916:1 926:1 931:1 933:1 946:1 951:2 953:1 954:3 964:1 966:1 968:1 983:1 984:1 994:1 999:1 1001:1 1007:2 1010:1 1023:1 1035:1 1081:1 1082:1 1106:1 1107:1 1109:1 1116:1 1122:1 1144:1 1158:1 1173:1 1191:1 1202:1 1232:1 1287:1 1298:1 1329:1 1331:1 1347:1 1351:3 1364:1 1383:1 1400:1 1409:1 1411:1 1412:1 1419:1 1421:2 1438:1 1446:1 1450:1 1461:1 1482:1 1487:1 1495:1 1522:1 1528:1 1539:1 1542:2 1550:1 1561:2 1570:1 1572:1 1591:1 1610:1 1612:1 1629:3 1630:1 1636:1 1722:1 1747:1 1756:1 1770:1 1773:2 1780:1 1787:1 1826:1 1828:1 1833:1 1863:1 1878:1 1885:1 1894:1 1907:1 1913:1 1984:1 2011:3 2015:1 2033:1 2034:1 2057:1 2068:1 2070:1 2072:1 2109:1 2123:1 2130:1 2180:1 2191:1 2192:1 2195:1 2197:1 2198:1 2211:1 2221:1 2240:2 2244:2 2253:1 2262:1 2271:1 2293:2 2306:1 2310:1 2329:1 2354:1 2376:1 2394:1 2396:2 2403:1 2410:1 2425:1 2432:1 2441:1 2442:1 2447:3 2479:1 2517:1 2545:1 2554:1 2558:1 2563:1 2591:1 2618:1 2651:1 2656:1 2667:1 2669:2 2670:1 2678:1 2694:1 2702:1 2727:1 2809:1 2810:1 2830:1 2860:1 2863:1 2872:1 2894:1 2913:2 2948:1 2957:1 2978:1 
0 0.0009713980031276163 0 0.0001507849869209113 3:1 9:2 12:2 14:2 15:1 26:1 29:1 36:2 37:2 41:1 45:1 50:5 54:1 58:2 79:1 86:1 90:1 94:2 107:1 113:1 126:2 135:1 136:1 137:1 141:1 143:2 147:1 155:1 157:1 163:1 175:1 181:1 186:1 191:1 194:1 197:3 198:1 201:1 222:2 224:1 241:1 249:1 253:1 255:1 256:1 258:1 266:1 271:1 278:1 283:1 285:1 292:1 299:1 302:1 307:1 308:1 310:1 322:1 328:2 331:1 339:1 344:1 346:1 348:1 349:1 352:1 353:1 365:1 371:1 375:1 386:1 388:2 400:1 401:1 405:1 409:1 418:1 419:2 427:1 440:1 450:1 455:1 457:1 458:1 464:1 470:1 472:4 487:1 498:1 503:1 514:1 520:1 524:1 527:1 529:1 532:1 536:2 549:1 555:1 568:1 576:1 577:1 580:1 582:1 583:1 584:2 586:1 599:1 604:1 605:2 622:1 623:1 624:2 632:1 650:2 657:1 660:1 663:1 664:2 684:1 686:1 689:1 690:1 694:1 698:1 701:2 705:1 708:2 742:1 753:1 755:1 761:1 762:1 771:1 774:1 777:1 788:1 791:1 804:1 810:1 811:1 828:1 848:1 861:2 871:1 875:1 885:1 887:2 892:1 894:1 903:1 904:1 907:1 927:1 928:1 929:1 930:1 937:1 956:1 961:1 964:1 971:1 978:2 987:1 994:2 1001:1 1007:1 1008:1 1014:2 1023:1 1030:1 1034:2 1036:1 1039:1 1048:1 1051:1 1055:1 1061:1 1063:1 1091:1 1118:1 1122:1 1130:1 1133:1 1134:1 1147:1 1159:1 1163:1 1167:2 1172:1 1175:1 1183:1 1190:1 1202:1 1204:1 1211:1 1218:1 1224:1 1232:1 1240:1 1264:1 1279:1 1300:1 1314:1 1321:1 1336:1 1340:1 1351:1 1364:2 1366:1 1405:1 1419:1 1421:1 1428:1 1448:1 1454:1 1460:1 1464:1 1484:1 1486:1 1490:1 1492:1 1495:2 1500:1 1501:1 1503:1 1504:1 1518:1 1521:1 1542:1 1551:2 1580:1 1589:1 1595:1 1601:1 1604:1 1610:2 1612:2 1615:2 1616:1 1618:1 1625:2 1634:1 1635:1 1655:1 1680:1 1682:1 1693:1 1703:3 1713:1 1724:1 1736:2 1751:2 1752:1 1754:1 1767:1 1776:1 1779:1 1781:1 1792:1 1798:1 1806:1 1807:2 1820:2 1823:1 1829:1 1834:1 1842:1 1846:1 1859:1 1864:1 1867:1 1887:2 1892:1 1909:1 1918:1 1920:1 1923:2 1935:1 1941:1 1945:1 1955:1 1967:2 1970:1 1973:1 1980:2 1990:1 1992:1 2006:1 2008:1 2013:1 2034:1 2036:1 2037:1 2045:1 2053:1 2054:1 2059:1 2065:1 2068:1 2074:1 2080:1 2094:1 2103:1 2105:1 2110:1 2116:1 2142:1 2144:1 2158:1 2167:1 2191:1 2198:1 2199:1 2208:1 2226:2 2233:1 2234:1 2239:1 2241:1 2257:2 2265:1 2270:1 2271:1 2286:1 2287:1 2291:1 2294:1 2302:1 2312:1 2317:1 2327:2 2333:1 2335:1 2336:1 2344:1 2351:1 2356:1 2357:1 2358:1 2360:1 2385:1 2408:1 2415:1 2440:1 2444:1 2446:1 2451:1 2457:1 2464:1 2469:1 2471:1 2473:1 2475:1 2479:2 2480:1 2483:1 2484:1 2488:1 2490:1 2497:1 2505:1 2514:1 2517:1 2522:1 2525:2 2536:1 2544:2 2546:1 2555:1 2559:1 2562:1 2569:1 2576:3 2586:1 2601:1 2614:1 2620:2 2630:1 2635:1 2636:1 2648:1 2649:2 2655:2 2659:1 2664:2 2669:1 2676:1 2677:1 2702:1 2708:1 2713:1 2718:1 2731:1 2736:1 2742:1 2750:1 2753:1 2755:1 2758:2 2765:1 2785:1 2790:1 2793:1 2804:1 2822:1 2830:1 2838:1 2851:1 2853:1 2856:1 2864:1 2869:1 2873:1 2878:1 2881:1 2895:1 2897:1 2904:1 2905:1 2906:1 2921:6 2922:1 2934:1 2940:1 2946:1 2950:1 2984:1 2999:1 
0.01158580609749959 0.001203143680528278 0 0.007163406142107229 24:2 37:1 46:2 81:1 96:1 103:1 134:1 168:1 203:1 209:1 214:3 230:1 258:2 259:1 263:1 272:2 275:1 284:1 286:1 308:1 320:1 365:1 376:1 423:1 426:2 444:1 486:1 487:1 488:1 538:1 587:1 598:2 612:1 716:1 725:1 755:1 759:1 778:1 780:1 803:1 825:1 842:1 856:1 878:1 928:1 930:1 933:1 959:1 964:1 968:1 970:3 971:1 996:1 1011:1 1048:1 1058:4 1130:1 1145:1 1195:1 1227:1 1248:1 1279:1 1331:1 1333:1 1346:2 1369:1 1370:2 1408:1 1411:1 1437:1 1461:1 1501:1 1534:1 1539:1 1542:1 1545:1 1594:1 1607:1 1634:1 1644:1 1650:1 1656:1 1659:1 1763:1 1787:1 1808:1 1891:3 1892:2 1934:1 1966:2 1980:2 1992:1 1994:1 2003:1 2014:1 2030:1 2056:1 2072:1 2125:1 2128:3 2207:1 2232:1 2236:1 2278:1 2388:1 2389:1 2425:1 2442:1 2470:1 2519:1 2533:1 2577:2 2604:4 2635:1 2679:1 2696:1 2699:1 2713:1 2721:3 2804:1 2812:1 2821:1 2843:1 2899:1 2921:1 2974:1 2975:1 2999:1 
0 0.0004711566608472154 0.001068066180052289 0 34:1 54:2 76:1 108:1 120:1 155:1 179:2 226:2 265:1 289:1 338:1 365:1 378:1 438:1 455:1 456:1 459:1 463:1 471:1 481:1 514:1 549:1 552:1 569:1 573:1 694:1 720:1 750:1 754:1 756:1 809:1 833:1 834:1 850:1 888:1 933:1 984:1 985:1 1007:1 1026:1 1039:1 1041:1 1046:2 1073:1 1082:1 1122:1 1129:1 1181:1 1188:1 1224:1 1225:2 1230:1 1279:1 1286:1 1318:1 1320:1 1396:1 1448:1 1468:2 1516:1 1562:1 1571:1 1593:1 1601:1 1647:1 1652:1 1686:1 1703:1 1762:1 1771:1 1819:1 1863:1 1864:1 1902:1 1931:1 1933:1 1934:1 1991:1 2007:2 2034:1 2037:1 2056:1 2061:1 2123:1 2128:1 2147:1 2179:1 2181:1 2274:1 2282:2 2285:1 2315:1 2342:1 2344:1 2380:1 2386:1 2392:1 2415:1 2471:1 2502:1 2517:1 2519:1 2545:1 2562:1 2577:1 2599:1 2600:1 2604:1 2608:1 2614:1 2629:1 2682:1 2686:2 2777:2 2793:1 2848:1 2875:1 2969:1 2993:1 
0.004253049429405075 0 0 0.003419615100651776 1:1 20:1 32:1 45:1 49:1 50:1 56:1 68:1 69:1 94:1 101:1 106:1 114:1 115:1 120:1 122:1 130:1 138:1 141:1 142:1 186:1 198:2 203:1 229:1 231:1 236:1 263:1 269:2 272:1 275:1 276:1 281:1 283:1 320:2 328:1 332:1 354:2 363:1 389:1 409:1 410:1 427:1 449:1 460:1 463:1 464:1 465:1 488:2 508:1 518:1 522:1 524:1 532:1 535:1 563:1 581:2 596:1 599:1 611:1 612:1 620:2 634:1 647:1 693:1 716:1 725:1 746:1 750:1 759:2 769:1 783:1 800:1 804:1 805:2 816:1 818:1 825:1 833:1 834:1 842:1 845:1 846:1 858:1 860:1 867:1 877:1 884:2 897:1 898:1 900:1 906:1 926:1 939:1 947:1 957:1 968:1 989:1 994:1 997:2 1004:1 1010:1 1022:1 1045:1 1049:1 1051:2 1064:1 1107:2 1111:1 1114:1 1132:1 1139:1 1177:1 1185:1 1191:1 1204:1 1212:1 1217:1 1226:1 1229:1 1235:1 1240:1 1242:1 1248:1 1250:1 1256:1 1260:1 1266:1 1291:1 1299:1 1304:2 1315:1 1317:1 1322:1 1323:1 1364:1 1367:1 1379:1 1389:1 1390:1 1398:1 1414:1 1420:1 1433:1 1437:1 1442:2 1471:1 1476:1 1486:2 1492:1 1496:1 1515:1 1519:3 1522:1 1570:1 1573:1 1575:1 1607:1 1622:1 1629:2 1631:1 1637:1 1642:1 1648:1 1660:1 1671:1 1694:1 1701:3 1703:1 1715:1 1719:1 1721:2 1728:1 1742:1 1746:1 1750:1 1812:1 1818:2 1824:1 1864:1 1865:1 1904:1 1914:1 1963:1 1986:1 1991:1 1993:1 1997:1 2011:2 2012:1 2013:1 2018:2 2028:1 2031:1 2056:4 2060:2 2067:1 2070:1 2095:1 2104:1 2110:1 2112:1 2117:1 2142:1 2154:1 2163:1 2166:2 2168:1 2193:1 2204:1 2213:1 2215:1 2216:2 2231:1 2236:2 2251:2 2264:1 2287:1 2290:1 2303:1 2314:1 2315:2 2317:1 2325:1 2330:1 2331:4 2343:1 2348:1 2356:1 2361:1 2367:1 2379:1 2389:2 2391:1 2397:2 2414:1 2453:1 2461:1 2490:1 2496:1 2507:1 2534:1 2551:1 2564:1 2579:1 2584:1 2586:1 2592:1 2607:1 2612:3 2621:1 2628:1 2648:2 2650:1 2668:1 2669:2 2683:1 2702:1 2711:3 2712:1 2720:2 2723:1 2750:1 2755:1 2782:1 2793:1 2794:1 2799:1 2804:1 2806:1 2809:1 2822:1 2824:2 2827:1 2846:2 2848:1 2853:1 2860:1 2941:1 2951:1 2956:1 2960:1 
0.0003427609679243326 0 0 0.001951716162739745 4:1 9:1 29:1 46:1 51:1 58:1 78:1 80:1 93:1 95:1 98:1 107:2 112:1 178:1 232:1 245:1 275:1 288:1 295:1 299:1 331:1 374:1 383:1 419:2 427:1 430:1 450:1 469:1 470:1 486:4 491:1 533:1 579:1 611:2 612:1 623:2 644:1 716:1 731:1 761:1 765:2 775:1 783:1 831:1 850:1 887:1 894:1 903:1 909:1 954:1 996:1 1005:1 1007:2 1023:1 1047:1 1048:3 1094:1 1109:1 1114:1 1123:2 1154:1 1169:1 1199:1 1255:1 1340:1 1347:1 1362:1 1429:1 1453:1 1501:1 1524:2 1535:1 1536:1 1539:1 1557:1 1573:1 1576:1 1586:2 1596:1 1600:1 1604:1 1617:1 1636:1 1644:1 1648:1 1687:1 1706:1 1709:1 1731:1 1750:1 1797:1 1798:1 1799:1 1817:1 1821:1 1837:1 1859:1 1909:1 1936:1 1955:1 2000:1 2003:2 2005:1 2011:2 2063:1 2104:1 2181:2 2207:1 2231:1 2241:1 2281:1 2298:1 2331:1 2332:1 2364:1 2428:1 2436:1 2455:1 2471:1 2492:1 2495:1 2516:1 2520:1 2554:1 2570:1 2575:1 2579:1 2608:1 2649:1 2677:1 2745:1 2780:1 2862:1 2864:1 2877:1 2897:1 2904:1 2939:1 2948:1 
0.000651477863168393 0.0004209032693001385 0 0 11:1 15:1 17:1 18:1 19:1 21:1 24:1 26:2 29:1 36:1 40:1 43:1 46:1 55:1 57:1 66:3 69:1 70:1 81:1 84:4 92:1 93:1 105:1 111:2 114:1 124:1 126:1 128:2 130:1 132:1 136:1 149:1 152:1 155:1 164:1 169:1 171:1 192:1 193:1 203:1 204:1 211:2 213:1 219:1 230:2 238:1 242:1 251:1 252:2 253:1 262:1 265:1 267:1 268:1 277:1 280:1 289:1 293:1 296:2 305:1 310:2 311:1 317:2 318:1 321:1 324:1 333:1 334:1 343:1 348:1 350:1 361:1 364:1 366:1 371:1 373:3 374:1 375:1 377:2 379:4 386:2 387:1 395:2 401:1 409:1 418:1 424:1 431:1 449:1 455:1 460:1 461:1 462:3 465:1 471:1 496:2 498:1 510:1 516:1 519:1 520:1 522:1 526:1 528:1 533:1 535:4 543:3 550:1 552:1 557:1 560:1 566:1 568:1 570:1 574:2 575:1 586:1 592:1 602:1 605:1 610:1 611:1 617:1 626:2 629:1 636:1 637:1 638:1 639:1 640:1 643:2 644:1 647:1 649:1 656:1 657:1 678:1 692:1 695:1 699:1 700:1 716:1 717:1 720:1 723:1 725:1 727:1 731:2 747:1 750:1 752:1 761:1 763:1 770:1 771:1 773:1 796:5 799:1 824:1 825:2 832:1 835:1 839:1 842:1 848:1 852:1 857:1 868:1 875:1 882:1 883:2 887:2 888:1 896:1 913:1 929:1 937:1 939:1 949:1 951:1 956:2 965:1 972:2 984:1 988:2 990:4 993:1 998:1 1002:1 1010:1 1012:1 1037:1 1038:1 1045:1 1052:2 1062:1 1067:1 1068:1 1070:1 1072:1 1102:2 1105:1 1108:1 1119:1 1123:3 1124:1 1126:1 1133:1 1139:1 1145:1 1151:1 1154:3 1159:1 1161:1 1171:2 1172:1 1177:1 1187:1 1188:1 1204:4 1210:1 1217:2 1218:1 1243:1 1248:1 1249:1 1253:1 1255:1 1256:1 1280:1 1281:2 1284:1 1291:1 1294:2 1296:1 1298:1 1301:2 1306:1 1316:1 1319:1 1327:1 1338:1 1348:1 1350:1 1359:1 1360:1 1364:2 1375:1 1379:1 1383:1 1390:1 1397:1 1405:1 1406:1 1412:1 1426:1 1440:1 1468:1 1470:1 1484:1 1490:1 1498:1 1499:1 1503:1 1513:1 1515:1 1525:1 1527:1 1529:1 1535:1 1537:1 1540:1 1542:2 1553:1 1562:1 1564:1 1573:1 1577:1 1590:1 1591:1 1599:1 1601:1 1603:1 1610:2 1646:1 1647:3 1650:1 1668:1 1673:1 1701:2 1707:2 1720:3 1732:1 1751:1 1755:1 1759:1 1767:1 1774:1 1798:2 1799:1 1824:1 1829:1 1832:1 1848:1 1854:1 1857:1 1859:1 1865:5 1869:1 1894:4 1898:1 1901:2 1916:1 1922:1 1923:1 1924:1 1930:1 1931:4 1952:1 1963:2 1966:2 1970:1 1973:2 1977:1 1979:1 1990:1 2001:1 2003:1 2009:1 2018:1 2021:1 2023:1 2045:2 2046:1 2069:1 2073:1 2075:1 2077:1 2088:1 2090:1 2095:1 2101:1 2105:1 2122:1 2137:1 2145:1 2146:1 2148:1 2149:1 2165:1 2167:1 2170:1 2185:2 2186:1 2187:1 2192:1 2193:1 2196:1 2200:2 2201:1 2205:2 2214:1 2216:1 2223:1 2227:1 2233:1 2234:1 2241:2 2248:1 2251:2 2253:1 2256:1 2257:1 2263:1 2267:1 2268:1 2282:1 2296:1 2302:1 2307:1 2314:2 2319:1 2339:1 2340:2 2354:1 2360:1 2361:1 2368:1 2374:1 2377:1 2383:1 2396:1 2402:1 2411:1 2416:1 2421:1 2430:1 2434:1 2440:1 2441:3 2454:1 2483:2 2484:1 2489:2 2502:1 2507:1 2510:1 2531:1 2538:3 2545:1 2546:1 2548:2 2558:1 2565:1 2566:1 2570:1 2576:1 2581:2 2590:1 2596:1 2617:1 2628:1 2642:1 2646:1 2655:2 2661:1 2672:2 2684:2 2689:1 2692:1 2703:1 2705:1 2711:1 2714:1 2715:3 2721:1 2724:1 2729:1 2743:1 2761:1 2772:1 2791:1 2804:1 2805:1 2806:1 2810:1 2816:1 2827:1 2828:1 2837:1 2840:1 2842:1 2846:2 2868:1 2873:2 2878:1 2886:1 2900:2 2901:1 2902:1 2910:1 2917:1 2921:2 2931:1 2934:1 2935:1 2939:1 2940:1 2947:3 2950:1 2951:2 2958:1 2961:1 2967:1 2980:1 
0 0.002505349586236914 0.0006127655495123275 0 7:1 8:1 11:1 13:1 22:1 26:2 27:1 29:1 36:1 37:1 42:1 66:3 88:1 90:1 99:1 111:1 114:1 121:1 123:1 137:1 139:1 143:1 155:1 162:1 168:1 172:1 189:1 195:1 203:1 209:1 219:1 222:1 223:1 231:1 234:1 257:1 264:1 266:1 271:1 273:1 274:1 277:2 292:1 295:3 298:1 300:1 321:1 329:2 332:1 340:2 358:1 360:1 363:1 373:1 375:1 388:1 392:1 396:1 409:1 423:1 432:2 445:2 447:1 450:1 452:1 456:1 461:1 465:2 475:1 477:1 496:1 498:1 501:1 505:1 507:1 508:2 509:1 510:1 516:1 536:1 548:1 559:1 563:1 570:1 572:1 576:2 592:1 608:1 610:1 613:1 634:1 650:1 654:1 659:2 663:1 670:1 672:1 677:1 679:1 685:1 692:1 695:1 707:1 709:1 714:1 720:1 721:2 723:1 731:1 733:1 747:1 755:1 759:1 760:1 765:1 767:1 771:2 776:1 791:1 795:1 798:1 804:1 808:1 817:1 819:1 822:1 842:1 854:1 859:1 864:1 867:1 874:1 884:1 887:1 891:3 896:1 899:1 908:1 909:1 913:1 914:1 926:2 928:1 931:4 941:1 949:1 951:1 955:1 991:1 995:2 1001:2 1011:1 1013:1 1014:2 1024:1 1029:1 1034:1 1035:2 1038:1 1045:2 1051:1 1066:3 1082:1 1093:1 1096:1 1109:1 1114:1 1117:1 1123:1 1128:1 1135:2 1136:1 1138:1 1141:1 1145:1 1156:1 1157:2 1159:1 1163:1 1186:1 1188:1 1196:2 1205:1 1208:1 1209:2 1210:1 1212:1 1220:1 1240:1 1246:1 1249:1 1252:1 1256:1 1259:1 1286:1 1291:1 1314:1 1318:1 1319:1 1325:1 1327:1 1335:1 1337:1 1356:1 1359:1 1365:1 1366:1 1372:1 1382:1 1399:1 1407:1 1408:1 1409:1 1410:1 1411:4 1420:1 1423:1 1430:1 1436:1 1437:1 1439:2 1460:1 1472:1 1479:1 1482:1 1485:1 1491:3 1524:2 1547:1 1551:1 1558:1 1565:2 1567:1 1568:4 1575:1 1577:1 1596:1 1598:1 1599:1 1601:1 1607:1 1613:1 1620:1 1621:1 1624:1 1625:1 1631:1 1636:1 1659:1 1666:1 1676:1 1682:2 1687:1 1690:1 1693:1 1694:1 1698:1 1704:1 1709:1 1711:1 1714:1 1719:2 1721:1 1726:1 1733:2 1741:1 1742:1 1743:1 1744:1 1745:1 1751:1 1764:1 1791:1 1801:1 1809:2 1816:2 1820:2 1828:1 1836:1 1846:1 1848:3 1851:2 1859:1 1860:1 1878:3 1879:1 1885:1 1890:1 1892:1 1926:1 1927:2 1929:1 1931:1 1935:1 1940:1 1947:1 1954:1 1961:1 1962:1 1970:1 1972:1 1976:1 1990:1 1992:1 1999:1 2000:1 2002:1 2021:1 2022:1 2023:3 2024:1 2044:2 2054:1 2059:1 2064:2 2077:1 2104:1 2111:2 2144:2 2147:1 2148:1 2153:1 2157:2 2162:1 2189:1 2196:2 2208:1 2223:1 2246:1 2248:1 2253:2 2255:1 2264:1 2271:1 2280:1 2286:1 2290:2 2291:1 2296:1 2300:1 2309:1 2316:1 2326:1 2337:1 2339:1 2342:2 2363:1 2364:1 2368:1 2377:1 2389:1 2394:1 2396:1 2397:1 2402:3 2406:1 2427:1 2439:1 2441:1 2452:1 2494:1 2514:1 2517:1 2530:1 2544:1 2548:2 2562:1 2575:1 2585:1 2586:1 2604:1 2611:1 2612:1 2615:1 2626:1 2650:1 2655:1 2686:2 2688:1 2692:1 2707:1 2718:2 2725:1 2733:1 2735:1 2746:1 2749:1 2761:2 2765:1 2773:1 2781:3 2799:1 2804:1 2810:1 2823:1 2825:1 2836:1 2855:1 2865:1 2869:1 2876:2 2892:1 2895:1 2903:2 2910:1 2912:1 2921:1 2929:1 2930:1 2947:1 2952:1 2955:1 2969:1 2980:1 2984:2 2994:1 
0 0.002731944238167363 0.0005822898863812305 0 45:1 82:1 88:1 96:1 120:5 138:1 181:1 226:1 240:1 259:1 290:1 395:1 402:1 419:2 670:3 745:1 857:1 1001:1 1017:1 1024:1 1039:1 1048:1 1082:1 1151:2 1235:1 1282:1 1334:1 1370:1 1375:1 1421:1 1467:1 1583:1 1595:2 1646:1 1652:1 1664:1 1702:1 1727:1 1773:1 1783:1 1816:1 1822:1 1855:1 1903:1 1946:1 1959:1 1964:1 2006:1 2079:1 2081:1 2085:1 2123:1 2181:1 2191:1 2275:1 2348:1 2384:1 2409:1 2488:1 2665:1 2683:1 2770:1 2850:1 
0 0 0.001886133287723873 0.0008472797134627316 17:1 33:1 84:1 108:1 138:1 183:1 221:1 226:1 230:2 243:1 246:1 272:1 310:1 323:1 334:1 336:1 389:1 427:1 428:1 453:1 457:2 489:1 506:1 519:1 532:2 552:1 605:1 619:1 713:1 808:1 924:1 926:1 937:1 983:1 988:1 1018:2 1024:1 1063:1 1107:1 1147:1 1169:1 1244:1 1292:1 1302:1 1315:6 1319:1 1345:3 1446:2 1456:1 1578:1 1630:1 1668:1 1728:1 1802:1 1817:1 1894:1 1964:1 2013:1 2018:1 2037:1 2123:2 2129:1 2131:1 2137:1 2279:1 2288:2 2302:1 2318:1 2405:1 2408:1 2451:1 2562:1 2576:1 2608:1 2770:1 2771:1 2792:1 2795:1 2825:4 2941:1 2992:1 
0 0.0003036734520661458 0.0002112891926455639 0 105:1 125:3 138:1 150:1 157:1 178:1 182:1 190:1 226:2 252:1 277:1 325:1 395:1 464:1 488:1 493:1 532:1 576:1 622:1 643:1 661:2 814:1 819:1 839:1 864:2 879:1 896:1 921:2 931:1 955:1 998:1 1001:1 1047:2 1081:1 1134:1 1225:1 1334:1 1345:1 1360:1 1395:1 1437:1 1489:1 1577:2 1693:1 1918:2 1960:1 1973:1 2058:1 2068:2 2070:1 2142:1 2181:2 2192:1 2212:1 2237:1 2461:1 2580:2 2618:1 2713:3 2753:2 2892:1 2903:1 
0.002568250703054533 0.002082093566143021 0.00737009188026464 0 15:1 44:1 49:1 54:1 69:1 98:1 111:1 117:1 130:1 138:1 140:3 144:1 150:1 154:1 182:1 209:1 210:1 232:1 242:1 251:2 252:1 273:1 283:1 297:1 340:1 364:2 380:1 399:2 422:1 433:1 437:1 443:1 463:1 488:1 496:1 571:1 584:1 632:1 643:1 647:1 682:1 685:1 700:1 836:1 854:1 872:1 899:1 925:2 1022:1 1087:1 1104:1 1135:1 1161:1 1196:1 1198:1 1204:1 1211:1 1217:1 1259:1 1276:1 1277:1 1282:2 1283:1 1317:1 1326:1 1356:1 1414:1 1422:1 1441:1 1450:1 1455:1 1466:1 1519:1 1590:1 1592:1 1607:1 1647:1 1700:1 1731:1 1752:1 1814:1 1903:1 1928:1 1962:1 1973:1 2003:1 2009:1 2019:1 2048:1 2056:1 2067:1 2071:1 2119:1 2124:1 2175:1 2177:1 2231:1 2246:1 2269:2 2311:1 2343:1 2365:1 2378:1 2394:1 2404:2 2412:1 2443:1 2458:1 2510:1 2514:1 2515:1 2556:1 2558:1 2618:1 2621:1 2623:1 2642:1 2643:1 2665:1 2765:1 2786:1 2846:1 2852:1 2861:1 2865:1 2866:1 2884:1 2885:1 2887:1 2902:1 2905:1 2986:1 
0 0 0.0001514637936606448 0 38:2 48:1 60:1 64:1 132:1 137:1 145:1 151:1 157:2 168:1 198:1 201:1 232:1 235:1 251:1 252:1 296:1 307:1 321:1 364:1 389:1 395:1 473:2 484:3 555:1 556:1 594:1 599:1 643:1 653:1 731:1 734:1 746:1 755:1 789:1 804:1 819:1 848:1 855:2 864:1 882:1 922:1 951:1 954:1 991:1 1015:1 1031:1 1040:1 1047:1 1051:1 1066:1 1105:1 1142:1 1148:1 1150:1 1210:1 1232:1 1240:1 1254:1 1280:1 1282:1 1283:1 1287:1 1315:1 1316:1 1335:1 1364:1 1391:1 1401:1 1409:1 1431:1 1449:1 1450:1 1460:2 1462:1 1466:1 1486:1 1490:1 1520:1 1522:1 1535:1 1537:1 1574:1 1616:1 1647:1 1657:1 1667:1 1675:1 1767:1 1801:1 1807:1 1898:1 1945:1 2006:1 2024:1 2032:1 2035:1 2063:1 2104:2 2112:1 2123:1 2137:1 2151:1 2178:2 2186:1 2189:1 2205:1 2207:1 2240:1 2251:1 2259:1 2285:1 2299:1 2314:1 2361:1 2390:1 2401:1 2427:1 2463:1 2494:1 2509:1 2521:1 2535:1 2556:1 2564:1 2567:1 2612:1 2631:1 2682:1 2703:1 2745:1 2824:1 2825:2 2826:1 2830:1 2838:1 2860:1 2865:1 2868:1 2947:1 2952:1 2964:1 
